<?xml version="1.0"?>
<MethodSetup Method="BDT::BDT">
  <GeneralInfo>
    <Info name="TMVA Release" value="4.1.2 [262402]"/>
    <Info name="ROOT Release" value="5.32/04 [335876]"/>
    <Info name="Creator" value="rslu"/>
    <Info name="Date" value="Thu Jul 30 10:22:19 2015"/>
    <Info name="Host" value="Linux pcncu17.cern.ch 2.6.32-504.16.2.el6.x86_64 #1 SMP Tue Apr 21 21:44:51 CEST 2015 x86_64 x86_64 x86_64 GNU/Linux"/>
    <Info name="Dir" value="/data4/rslu/work/TMVA-v4.1.2_SLC6/spring15"/>
    <Info name="Training events" value="1717542"/>
    <Info name="TrainingTime" value="3.77818753e+03"/>
    <Info name="AnalysisType" value="Classification"/>
  </GeneralInfo>
  <Options>
    <Option name="V" modified="Yes">False</Option>
    <Option name="VerbosityLevel" modified="No">Default</Option>
    <Option name="VarTransform" modified="No">None</Option>
    <Option name="H" modified="Yes">False</Option>
    <Option name="CreateMVAPdfs" modified="No">False</Option>
    <Option name="IgnoreNegWeightsInTraining" modified="No">False</Option>
    <Option name="NTrees" modified="Yes">2000</Option>
    <Option name="RenormByClass" modified="No">False</Option>
    <Option name="BoostType" modified="Yes">Grad</Option>
    <Option name="AdaBoostR2Loss" modified="No">quadratic</Option>
    <Option name="UseBaggedGrad" modified="Yes">False</Option>
    <Option name="GradBaggingFraction" modified="No">6.000000e-01</Option>
    <Option name="Shrinkage" modified="Yes">1.000000e-01</Option>
    <Option name="AdaBoostBeta" modified="No">1.000000e+00</Option>
    <Option name="UseRandomisedTrees" modified="No">False</Option>
    <Option name="UseNvars" modified="Yes">4</Option>
    <Option name="UsePoissonNvars" modified="No">True</Option>
    <Option name="UseNTrainEvents" modified="No">1717542</Option>
    <Option name="UseWeightedTrees" modified="No">True</Option>
    <Option name="UseYesNoLeaf" modified="No">True</Option>
    <Option name="NodePurityLimit" modified="No">5.000000e-01</Option>
    <Option name="SeparationType" modified="No">giniindex</Option>
    <Option name="nEventsMin" modified="Yes">100</Option>
    <Option name="nCuts" modified="Yes">2000</Option>
    <Option name="UseFisherCuts" modified="No">False</Option>
    <Option name="MinLinCorrForFisher" modified="No">8.000000e-01</Option>
    <Option name="UseExclusiveVars" modified="No">False</Option>
    <Option name="PruneStrength" modified="Yes">5.000000e+00</Option>
    <Option name="PruneMethod" modified="Yes">costcomplexity</Option>
    <Option name="PruneBeforeBoost" modified="No">False</Option>
    <Option name="PruningValFraction" modified="No">5.000000e-01</Option>
    <Option name="NNodesMax" modified="Yes">5</Option>
    <Option name="MaxDepth" modified="Yes">6</Option>
    <Option name="DoBoostMonitor" modified="No">False</Option>
    <Option name="NegWeightTreatment" modified="No">ignorenegweights</Option>
  </Options>
  <Variables NVar="17">
    <Variable VarIndex="0" Expression="recoPhi" Label="recoPhi" Title="recoPhi" Unit="" Internal="recoPhi" Type="F" Min="-3.14158511e+00" Max="3.14159226e+00"/>
    <Variable VarIndex="1" Expression="r9" Label="r9" Title="r9" Unit="" Internal="r9" Type="F" Min="1.05640799e-01" Max="1.00000024e+00"/>
    <Variable VarIndex="2" Expression="sieieFull5x5" Label="sieieFull5x5" Title="sieieFull5x5" Unit="" Internal="sieieFull5x5" Type="F" Min="1.85529725e-03" Max="8.35383832e-02"/>
    <Variable VarIndex="3" Expression="sieipFull5x5" Label="sieipFull5x5" Title="sieipFull5x5" Unit="" Internal="sieipFull5x5" Type="F" Min="-2.51131784e-03" Max="2.74553034e-03"/>
    <Variable VarIndex="4" Expression="e1x3Full5x5/e5x5Full5x5" Label="s13" Title="s13" Unit="" Internal="s13" Type="F" Min="1.80301219e-02" Max="9.82528448e-01"/>
    <Variable VarIndex="5" Expression="e2x2Full5x5/e5x5Full5x5" Label="s4" Title="s4" Unit="" Internal="s4" Type="F" Min="9.13600922e-02" Max="9.92354810e-01"/>
    <Variable VarIndex="6" Expression="e2x5Full5x5/e5x5Full5x5" Label="s25" Title="s25" Unit="" Internal="s25" Type="F" Min="1.40523314e-01" Max="1.00000000e+00"/>
    <Variable VarIndex="7" Expression="recoSCEta" Label="recoSCEta" Title="recoSCEta" Unit="" Internal="recoSCEta" Type="F" Min="-2.49999928e+00" Max="2.49999976e+00"/>
    <Variable VarIndex="8" Expression="rawE" Label="rawE" Title="rawE" Unit="" Internal="rawE" Type="F" Min="2.09515514e+01" Max="3.81259521e+03"/>
    <Variable VarIndex="9" Expression="scEtaWidth" Label="scEtaWidth" Title="scEtaWidth" Unit="" Internal="scEtaWidth" Type="F" Min="1.91220699e-03" Max="1.26540160e+00"/>
    <Variable VarIndex="10" Expression="scPhiWidth" Label="scPhiWidth" Title="scPhiWidth" Unit="" Internal="scPhiWidth" Type="F" Min="2.64177495e-03" Max="1.67437553e+00"/>
    <Variable VarIndex="11" Expression="esEn/rawE" Label="ESEn" Title="ESEn" Unit="" Internal="ESEn" Type="F" Min="0.00000000e+00" Max="1.10589361e+00"/>
    <Variable VarIndex="12" Expression="esRR" Label="esRR" Title="esRR" Unit="" Internal="esRR" Type="F" Min="0.00000000e+00" Max="1.41421356e+01"/>
    <Variable VarIndex="13" Expression="rho" Label="rho" Title="rho" Unit="" Internal="rho" Type="F" Min="0.00000000e+00" Max="6.04633179e+01"/>
    <Variable VarIndex="14" Expression="phoIsoRaw" Label="phoIsoRaw" Title="phoIsoRaw" Unit="" Internal="phoIsoRaw" Type="F" Min="0.00000000e+00" Max="4.12366058e+02"/>
    <Variable VarIndex="15" Expression="chIsoRaw" Label="chIsoRaw" Title="chIsoRaw" Unit="" Internal="chIsoRaw" Type="F" Min="0.00000000e+00" Max="3.17548492e+02"/>
    <Variable VarIndex="16" Expression="chWorstRaw" Label="chWorstRaw" Title="chWorstRaw" Unit="" Internal="chWorstRaw" Type="F" Min="0.00000000e+00" Max="5.68424805e+02"/>
  </Variables>
  <Spectators NSpec="2">
    <Spectator SpecIndex="0" Expression="recoPt" Label="recoPt" Title="pho Pt" Unit="units" Internal="recoPt" Type="F" Min="1.50000200e+01" Max="7.27629883e+02"/>
    <Spectator SpecIndex="1" Expression="recoEta" Label="recoEta" Title="pho Eta" Unit="units" Internal="recoEta" Type="F" Min="-2.55907845e+00" Max="2.55218244e+00"/>
  </Spectators>
  <Classes NClass="2">
    <Class Name="Signal" Index="0"/>
    <Class Name="Background" Index="1"/>
  </Classes>
  <Transformations NTransformations="0"/>
  <MVAPdfs/>
  <Weights NTrees="2000" AnalysisType="1">
    <BinaryTree type="DecisionTree" boostWeight="1.0000000000000000e+00" itree="0">
      <Node pos="s" depth="0" NCoef="0" IVar="16" Cut="3.4088444709777832e+00" cType="1" res="8.8285967707633972e-02" rms="4.9214386940002441e-01" purity="5.8828598260879517e-01" nType="0">
        <Node pos="l" depth="1" NCoef="0" IVar="-1" Cut="0.0000000000000000e+00" cType="1" res="2.0935472100973129e-02" rms="3.7340217828750610e-01" purity="8.3252191543579102e-01" nType="-99"/>
        <Node pos="r" depth="1" NCoef="0" IVar="5" Cut="8.5834670066833496e-01" cType="0" res="-3.6274203658103943e-01" rms="3.4411948919296265e-01" purity="1.3725794851779938e-01" nType="0">
          <Node pos="l" depth="2" NCoef="0" IVar="-1" Cut="0.0000000000000000e+00" cType="1" res="-1.3946800027042627e-03" rms="4.9971714615821838e-01" purity="4.8318409919738770e-01" nType="-99"/>
          <Node pos="r" depth="2" NCoef="0" IVar="-1" Cut="0.0000000000000000e+00" cType="1" res="-6.1148189008235931e-02" rms="2.6961293816566467e-01" purity="7.8919418156147003e-02" nType="-99"/>
        </Node>
      </Node>
    </BinaryTree>
    <BinaryTree type="DecisionTree" boostWeight="1.0000000000000000e+00" itree="1">
      <Node pos="s" depth="0" NCoef="0" IVar="16" Cut="3.4088444709777832e+00" cType="1" res="9.0710625052452087e-02" rms="4.7945415973663330e-01" purity="5.8828598260879517e-01" nType="0">
        <Node pos="l" depth="1" NCoef="0" IVar="-1" Cut="0.0000000000000000e+00" cType="1" res="2.0285410806536674e-02" rms="3.7340217828750610e-01" purity="8.3252191543579102e-01" nType="-99"/>
        <Node pos="r" depth="1" NCoef="0" IVar="2" Cut="2.6618745177984238e-02" cType="1" res="-3.3651193976402283e-01" rms="3.3992508053779602e-01" purity="1.3725794851779938e-01" nType="0">
          <Node pos="l" depth="2" NCoef="0" IVar="-1" Cut="0.0000000000000000e+00" cType="1" res="-1.1344633996486664e-02" rms="4.7727930545806885e-01" purity="3.6531758308410645e-01" nType="-99"/>
          <Node pos="r" depth="2" NCoef="0" IVar="-1" Cut="0.0000000000000000e+00" cType="1" res="-6.2706209719181061e-02" rms="2.2316080331802368e-01" purity="5.3461354225873947e-02" nType="-99"/>
        </Node>
      </Node>
    </BinaryTree>
    <BinaryTree type="DecisionTree" boostWeight="1.0000000000000000e+00" itree="2">
      <Node pos="s" depth="0" NCoef="0" IVar="16" Cut="3.1247739791870117e+00" cType="1" res="9.2658087611198425e-02" rms="4.6777150034904480e-01" purity="5.8828598260879517e-01" nType="0">
        <Node pos="l" depth="1" NCoef="0" IVar="-1" Cut="0.0000000000000000e+00" cType="1" res="2.0008686929941177e-02" rms="3.6700099706649780e-01" purity="8.3957368135452271e-01" nType="-99"/>
        <Node pos="r" depth="1" NCoef="0" IVar="5" Cut="8.5612487792968750e-01" cType="0" res="-3.0027255415916443e-01" rms="3.4862390160560608e-01" purity="1.5200093388557434e-01" nType="0">
          <Node pos="l" depth="2" NCoef="0" IVar="-1" Cut="0.0000000000000000e+00" cType="1" res="1.7336135497316718e-03" rms="4.9532815814018250e-01" purity="5.0988036394119263e-01" nType="-99"/>
          <Node pos="r" depth="2" NCoef="0" IVar="-1" Cut="0.0000000000000000e+00" cType="1" res="-5.2483908832073212e-02" rms="2.7380406856536865e-01" purity="8.4438271820545197e-02" nType="-99"/>
        </Node>
      </Node>
    </BinaryTree>
    <BinaryTree type="DecisionTree" boostWeight="1.0000000000000000e+00" itree="3">
      <Node pos="s" depth="0" NCoef="0" IVar="2" Cut="2.7858357876539230e-02" cType="1" res="9.4187177717685699e-02" rms="4.5721569657325745e-01" purity="5.8828598260879517e-01" nType="0">
        <Node pos="l" depth="1" NCoef="0" IVar="-1" Cut="0.0000000000000000e+00" cType="1" res="2.0131498575210571e-02" rms="3.6785465478897095e-01" purity="8.1719452142715454e-01" nType="-99"/>
        <Node pos="r" depth="1" NCoef="0" IVar="5" Cut="8.3617883920669556e-01" cType="0" res="-3.0334582924842834e-01" rms="3.3329913020133972e-01" purity="1.4716310799121857e-01" nType="0">
          <Node pos="l" depth="2" NCoef="0" IVar="-1" Cut="0.0000000000000000e+00" cType="1" res="3.7444347981363535e-03" rms="4.7256729006767273e-01" purity="5.6814581155776978e-01" nType="-99"/>
          <Node pos="r" depth="2" NCoef="0" IVar="-1" Cut="0.0000000000000000e+00" cType="1" res="-4.8668440431356430e-02" rms="2.6053741574287415e-01" purity="8.0637566745281219e-02" nType="-99"/>
        </Node>
      </Node>
    </BinaryTree>
    <BinaryTree type="DecisionTree" boostWeight="1.0000000000000000e+00" itree="4">
      <Node pos="s" depth="0" NCoef="0" IVar="16" Cut="3.6929147243499756e+00" cType="1" res="9.4480618834495544e-02" rms="4.4743993878364563e-01" purity="5.8828598260879517e-01" nType="0">
        <Node pos="l" depth="1" NCoef="0" IVar="-1" Cut="0.0000000000000000e+00" cType="1" res="1.8572300672531128e-02" rms="3.7034240365028381e-01" purity="8.2564175128936768e-01" nType="-99"/>
        <Node pos="r" depth="1" NCoef="0" IVar="5" Cut="8.7656599283218384e-01" cType="0" res="-2.9018914699554443e-01" rms="3.1511190533638000e-01" purity="1.2544049322605133e-01" nType="0">
          <Node pos="l" depth="2" NCoef="0" IVar="-1" Cut="0.0000000000000000e+00" cType="1" res="1.3081801589578390e-03" rms="4.9775525927543640e-01" purity="5.1415324211120605e-01" nType="-99"/>
          <Node pos="r" depth="2" NCoef="0" IVar="-1" Cut="0.0000000000000000e+00" cType="1" res="-4.8234108835458755e-02" rms="2.6777416467666626e-01" purity="8.2979179918766022e-02" nType="-99"/>
        </Node>
      </Node>
    </BinaryTree>
    <BinaryTree type="DecisionTree" boostWeight="1.0000000000000000e+00" itree="5">
      <Node pos="s" depth="0" NCoef="0" IVar="2" Cut="2.7735894545912743e-02" cType="1" res="9.5385558903217316e-02" rms="4.3837180733680725e-01" purity="5.8828598260879517e-01" nType="0">
        <Node pos="l" depth="1" NCoef="0" IVar="-1" Cut="0.0000000000000000e+00" cType="1" res="1.9406549632549286e-02" rms="3.6037337779998779e-01" purity="8.1960058212280273e-01" nType="-99"/>
        <Node pos="r" depth="1" NCoef="0" IVar="5" Cut="8.4182471036911011e-01" cType="0" res="-2.6725721359252930e-01" rms="3.2920101284980774e-01" purity="1.5215873718261719e-01" nType="0">
          <Node pos="l" depth="2" NCoef="0" IVar="-1" Cut="0.0000000000000000e+00" cType="1" res="4.8636868596076965e-03" rms="4.6287366747856140e-01" purity="5.9729397296905518e-01" nType="-99"/>
          <Node pos="r" depth="2" NCoef="0" IVar="-1" Cut="0.0000000000000000e+00" cType="1" res="-4.3126206845045090e-02" rms="2.6616346836090088e-01" purity="8.6479932069778442e-02" nType="-99"/>
        </Node>
      </Node>
    </BinaryTree>
    <BinaryTree type="DecisionTree" boostWeight="1.0000000000000000e+00" itree="6">
      <Node pos="s" depth="0" NCoef="0" IVar="16" Cut="3.1247739791870117e+00" cType="1" res="9.5139682292938232e-02" rms="4.2995542287826538e-01" purity="5.8828598260879517e-01" nType="0">
        <Node pos="l" depth="1" NCoef="0" IVar="-1" Cut="0.0000000000000000e+00" cType="1" res="1.8294407054781914e-02" rms="3.5482993721961975e-01" purity="8.3957368135452271e-01" nType="-99"/>
        <Node pos="r" depth="1" NCoef="0" IVar="5" Cut="8.7656599283218384e-01" cType="0" res="-2.4059180915355682e-01" rms="3.3103877305984497e-01" purity="1.5200093388557434e-01" nType="0">
          <Node pos="l" depth="2" NCoef="0" IVar="-1" Cut="0.0000000000000000e+00" cType="1" res="5.1965657621622086e-03" rms="4.8860150575637817e-01" purity="5.7943379878997803e-01" nType="-99"/>
          <Node pos="r" depth="2" NCoef="0" IVar="-1" Cut="0.0000000000000000e+00" cType="1" res="-4.1659865528345108e-02" rms="2.8169089555740356e-01" purity="9.7119882702827454e-02" nType="-99"/>
        </Node>
      </Node>
    </BinaryTree>
    <BinaryTree type="DecisionTree" boostWeight="1.0000000000000000e+00" itree="7">
      <Node pos="s" depth="0" NCoef="0" IVar="2" Cut="2.7613431215286255e-02" cType="1" res="9.5524273812770844e-02" rms="4.2214584350585938e-01" purity="5.8828598260879517e-01" nType="0">
        <Node pos="l" depth="1" NCoef="0" IVar="-1" Cut="0.0000000000000000e+00" cType="1" res="1.8755638971924782e-02" rms="3.5357174277305603e-01" purity="8.2206583023071289e-01" nType="-99"/>
        <Node pos="r" depth="1" NCoef="0" IVar="5" Cut="8.3270448446273804e-01" cType="0" res="-2.3614944517612457e-01" rms="3.2638904452323914e-01" purity="1.5747699141502380e-01" nType="0">
          <Node pos="l" depth="2" NCoef="0" IVar="-1" Cut="0.0000000000000000e+00" cType="1" res="3.8233983796089888e-03" rms="4.5771706104278564e-01" purity="5.6901675462722778e-01" nType="-99"/>
          <Node pos="r" depth="2" NCoef="0" IVar="-1" Cut="0.0000000000000000e+00" cType="1" res="-4.0998544543981552e-02" rms="2.6036444306373596e-01" purity="8.2897625863552094e-02" nType="-99"/>
        </Node>
      </Node>
    </BinaryTree>
    <BinaryTree type="DecisionTree" boostWeight="1.0000000000000000e+00" itree="8">
      <Node pos="s" depth="0" NCoef="0" IVar="16" Cut="2.8407037258148193e+00" cType="1" res="9.4991505146026611e-02" rms="4.1467913985252380e-01" purity="5.8828598260879517e-01" nType="0">
        <Node pos="l" depth="1" NCoef="0" IVar="-1" Cut="0.0000000000000000e+00" cType="1" res="1.7892170697450638e-02" rms="3.4327584505081177e-01" purity="8.4667420387268066e-01" nType="-99"/>
        <Node pos="r" depth="1" NCoef="0" IVar="5" Cut="8.7874245643615723e-01" cType="0" res="-2.0546072721481323e-01" rms="3.3665540814399719e-01" purity="1.7057901620864868e-01" nType="0">
          <Node pos="l" depth="2" NCoef="0" IVar="-1" Cut="0.0000000000000000e+00" cType="1" res="7.1143386885523796e-03" rms="4.7666105628013611e-01" purity="6.2339723110198975e-01" nType="-99"/>
          <Node pos="r" depth="2" NCoef="0" IVar="-1" Cut="0.0000000000000000e+00" cType="1" res="-3.6537934094667435e-02" rms="2.9055929183959961e-01" purity="1.0958965122699738e-01" nType="-99"/>
        </Node>
      </Node>
    </BinaryTree>
    <BinaryTree type="DecisionTree" boostWeight="1.0000000000000000e+00" itree="9">
      <Node pos="s" depth="0" NCoef="0" IVar="2" Cut="2.8103284537792206e-02" cType="1" res="9.4902530312538147e-02" rms="4.0794855356216431e-01" purity="5.8828598260879517e-01" nType="0">
        <Node pos="l" depth="1" NCoef="0" IVar="-1" Cut="0.0000000000000000e+00" cType="1" res="1.7478497698903084e-02" rms="3.5430857539176941e-01" purity="8.1222993135452271e-01" nType="-99"/>
        <Node pos="r" depth="1" NCoef="0" IVar="5" Cut="8.2792723178863525e-01" cType="0" res="-2.2633439302444458e-01" rms="3.0671864748001099e-01" purity="1.3814657926559448e-01" nType="0">
          <Node pos="l" depth="2" NCoef="0" IVar="-1" Cut="0.0000000000000000e+00" cType="1" res="1.9779384601861238e-03" rms="4.5476827025413513e-01" purity="5.2166247367858887e-01" nType="-99"/>
          <Node pos="r" depth="2" NCoef="0" IVar="-1" Cut="0.0000000000000000e+00" cType="1" res="-4.0794596076011658e-02" rms="2.4772648513317108e-01" purity="7.2938576340675354e-02" nType="-99"/>
        </Node>
      </Node>
    </BinaryTree>
    <BinaryTree type="DecisionTree" boostWeight="1.0000000000000000e+00" itree="10">
      <Node pos="s" depth="0" NCoef="0" IVar="16" Cut="3.9769852161407471e+00" cType="1" res="9.4205655157566071e-02" rms="4.0136498212814331e-01" purity="5.8828598260879517e-01" nType="0">
        <Node pos="l" depth="1" NCoef="0" IVar="-1" Cut="0.0000000000000000e+00" cType="1" res="1.6287524253129959e-02" rms="3.5481739044189453e-01" purity="8.1915909051895142e-01" nType="-99"/>
        <Node pos="r" depth="1" NCoef="0" IVar="12" Cut="4.0921020507812500e+00" cType="1" res="-2.2083219885826111e-01" rms="2.9225027561187744e-01" purity="1.1569254845380783e-01" nType="0">
          <Node pos="l" depth="2" NCoef="0" IVar="-1" Cut="0.0000000000000000e+00" cType="1" res="-9.8513178527355194e-03" rms="4.1834217309951782e-01" purity="2.9627734422683716e-01" nType="-99"/>
          <Node pos="r" depth="2" NCoef="0" IVar="-1" Cut="0.0000000000000000e+00" cType="1" res="-4.5456796884536743e-02" rms="2.3719678819179535e-01" purity="6.7253641784191132e-02" nType="-99"/>
        </Node>
      </Node>
    </BinaryTree>
    <BinaryTree type="DecisionTree" boostWeight="1.0000000000000000e+00" itree="11">
      <Node pos="s" depth="0" NCoef="0" IVar="2" Cut="2.7286862954497337e-02" cType="1" res="9.4163626432418823e-02" rms="3.9507284760475159e-01" purity="5.8828598260879517e-01" nType="0">
        <Node pos="l" depth="1" NCoef="0" IVar="-1" Cut="0.0000000000000000e+00" cType="1" res="1.7740409821271896e-02" rms="3.4010297060012817e-01" purity="8.2867002487182617e-01" nType="-99"/>
        <Node pos="r" depth="1" NCoef="0" IVar="5" Cut="8.4872239828109741e-01" cType="0" res="-1.8228285014629364e-01" rms="3.2415190339088440e-01" purity="1.7360168695449829e-01" nType="0">
          <Node pos="l" depth="2" NCoef="0" IVar="-1" Cut="0.0000000000000000e+00" cType="1" res="6.3912458717823029e-03" rms="4.3580982089042664e-01" purity="6.5424329042434692e-01" nType="-99"/>
          <Node pos="r" depth="2" NCoef="0" IVar="-1" Cut="0.0000000000000000e+00" cType="1" res="-3.2324153929948807e-02" rms="2.7524119615554810e-01" purity="1.0045498609542847e-01" nType="-99"/>
        </Node>
      </Node>
    </BinaryTree>
    <BinaryTree type="DecisionTree" boostWeight="1.0000000000000000e+00" itree="12">
      <Node pos="s" depth="0" NCoef="0" IVar="16" Cut="2.8407037258148193e+00" cType="1" res="9.2922620475292206e-02" rms="3.8948777318000793e-01" purity="5.8828598260879517e-01" nType="0">
        <Node pos="l" depth="1" NCoef="0" IVar="-1" Cut="0.0000000000000000e+00" cType="1" res="1.6556220129132271e-02" rms="3.3451384305953979e-01" purity="8.4667420387268066e-01" nType="-99"/>
        <Node pos="r" depth="1" NCoef="0" IVar="1" Cut="9.3340373039245605e-01" cType="0" res="-1.6750976443290710e-01" rms="3.2597866654396057e-01" purity="1.7057901620864868e-01" nType="0">
          <Node pos="l" depth="2" NCoef="0" IVar="-1" Cut="0.0000000000000000e+00" cType="1" res="3.2719548325985670e-03" rms="4.4267475605010986e-01" purity="4.9677345156669617e-01" nType="-99"/>
          <Node pos="r" depth="2" NCoef="0" IVar="-1" Cut="0.0000000000000000e+00" cType="1" res="-3.3762421458959579e-02" rms="2.8047272562980652e-01" purity="1.0639766603708267e-01" nType="-99"/>
        </Node>
      </Node>
    </BinaryTree>
    <BinaryTree type="DecisionTree" boostWeight="1.0000000000000000e+00" itree="13">
      <Node pos="s" depth="0" NCoef="0" IVar="2" Cut="2.7246041223406792e-02" cType="1" res="9.2353038489818573e-02" rms="3.8424828648567200e-01" purity="5.8828598260879517e-01" nType="0">
        <Node pos="l" depth="1" NCoef="0" IVar="-1" Cut="0.0000000000000000e+00" cType="1" res="1.7136475071310997e-02" rms="3.3570480346679688e-01" purity="8.2950150966644287e-01" nType="-99"/>
        <Node pos="r" depth="1" NCoef="0" IVar="5" Cut="8.2198685407638550e-01" cType="0" res="-1.6428263485431671e-01" rms="3.2099530100822449e-01" purity="1.7578218877315521e-01" nType="0">
          <Node pos="l" depth="2" NCoef="0" IVar="-1" Cut="0.0000000000000000e+00" cType="1" res="3.6360055673867464e-03" rms="4.3616622686386108e-01" purity="5.5817419290542603e-01" nType="-99"/>
          <Node pos="r" depth="2" NCoef="0" IVar="-1" Cut="0.0000000000000000e+00" cType="1" res="-3.4278448671102524e-02" rms="2.5770011544227600e-01" purity="8.3267353475093842e-02" nType="-99"/>
        </Node>
      </Node>
    </BinaryTree>
    <BinaryTree type="DecisionTree" boostWeight="1.0000000000000000e+00" itree="14">
      <Node pos="s" depth="0" NCoef="0" IVar="16" Cut="2.5566332340240479e+00" cType="1" res="9.1144397854804993e-02" rms="3.7908622622489929e-01" purity="5.8828598260879517e-01" nType="0">
        <Node pos="l" depth="1" NCoef="0" IVar="-1" Cut="0.0000000000000000e+00" cType="1" res="1.6295658424496651e-02" rms="3.2413390278816223e-01" purity="8.5399210453033447e-01" nType="-99"/>
        <Node pos="r" depth="1" NCoef="0" IVar="5" Cut="8.8774627447128296e-01" cType="0" res="-1.4195744693279266e-01" rms="3.3214494585990906e-01" purity="1.9306163489818573e-01" nType="0">
          <Node pos="l" depth="2" NCoef="0" IVar="-1" Cut="0.0000000000000000e+00" cType="1" res="9.8030036315321922e-03" rms="4.4457408785820007e-01" purity="6.9302982091903687e-01" nType="-99"/>
          <Node pos="r" depth="2" NCoef="0" IVar="-1" Cut="0.0000000000000000e+00" cType="1" res="-2.7261625975370407e-02" rms="2.9914769530296326e-01" purity="1.3159081339836121e-01" nType="-99"/>
        </Node>
      </Node>
    </BinaryTree>
    <BinaryTree type="DecisionTree" boostWeight="1.0000000000000000e+00" itree="15">
      <Node pos="s" depth="0" NCoef="0" IVar="16" Cut="3.9769852161407471e+00" cType="1" res="9.0224556624889374e-02" rms="3.7462836503982544e-01" purity="5.8828598260879517e-01" nType="0">
        <Node pos="l" depth="1" NCoef="0" IVar="-1" Cut="0.0000000000000000e+00" cType="1" res="1.4820828102529049e-02" rms="3.4402725100517273e-01" purity="8.1915909051895142e-01" nType="-99"/>
        <Node pos="r" depth="1" NCoef="0" IVar="12" Cut="3.9931566715240479e+00" cType="1" res="-1.7272460460662842e-01" rms="2.8712910413742065e-01" purity="1.1569254845380783e-01" nType="0">
          <Node pos="l" depth="2" NCoef="0" IVar="-1" Cut="0.0000000000000000e+00" cType="1" res="-7.5903008691966534e-03" rms="4.1181343793869019e-01" purity="2.9854109883308411e-01" nType="-99"/>
          <Node pos="r" depth="2" NCoef="0" IVar="-1" Cut="0.0000000000000000e+00" cType="1" res="-3.9686106145381927e-02" rms="2.3816536366939545e-01" purity="6.8441726267337799e-02" nType="-99"/>
        </Node>
      </Node>
    </BinaryTree>
    <BinaryTree type="DecisionTree" boostWeight="1.0000000000000000e+00" itree="16">
      <Node pos="s" depth="0" NCoef="0" IVar="2" Cut="2.8103284537792206e-02" cType="1" res="8.9621581137180328e-02" rms="3.7011569738388062e-01" purity="5.8828598260879517e-01" nType="0">
        <Node pos="l" depth="1" NCoef="0" IVar="-1" Cut="0.0000000000000000e+00" cType="1" res="1.5510388650000095e-02" rms="3.3740180730819702e-01" purity="8.1222993135452271e-01" nType="-99"/>
        <Node pos="r" depth="1" NCoef="0" IVar="5" Cut="8.1229257583618164e-01" cType="0" res="-1.6376496851444244e-01" rms="2.9557242989540100e-01" purity="1.3814657926559448e-01" nType="0">
          <Node pos="l" depth="2" NCoef="0" IVar="-1" Cut="0.0000000000000000e+00" cType="1" res="8.2197756273671985e-04" rms="4.3027338385581970e-01" purity="4.6800422668457031e-01" nType="-99"/>
          <Node pos="r" depth="2" NCoef="0" IVar="-1" Cut="0.0000000000000000e+00" cType="1" res="-3.6024358123540878e-02" rms="2.4016065895557404e-01" purity="6.6061012446880341e-02" nType="-99"/>
        </Node>
      </Node>
    </BinaryTree>
    <BinaryTree type="DecisionTree" boostWeight="1.0000000000000000e+00" itree="17">
      <Node pos="s" depth="0" NCoef="0" IVar="16" Cut="2.5566332340240479e+00" cType="1" res="8.8381856679916382e-02" rms="3.6570060253143311e-01" purity="5.8828598260879517e-01" nType="0">
        <Node pos="l" depth="1" NCoef="0" IVar="-1" Cut="0.0000000000000000e+00" cType="1" res="1.5383184887468815e-02" rms="3.2077175378799438e-01" purity="8.5399210453033447e-01" nType="-99"/>
        <Node pos="r" depth="1" NCoef="0" IVar="16" Cut="5.1017708778381348e+00" cType="1" res="-1.2049337476491928e-01" rms="3.2657805085182190e-01" purity="1.9306163489818573e-01" nType="0">
          <Node pos="l" depth="2" NCoef="0" IVar="-1" Cut="0.0000000000000000e+00" cType="1" res="1.8292946042492986e-03" rms="4.2386168241500854e-01" purity="4.6719822287559509e-01" nType="-99"/>
          <Node pos="r" depth="2" NCoef="0" IVar="-1" Cut="0.0000000000000000e+00" cType="1" res="-3.1639583408832550e-02" rms="2.6464506983757019e-01" purity="9.2545457184314728e-02" nType="-99"/>
        </Node>
      </Node>
    </BinaryTree>
    <BinaryTree type="DecisionTree" boostWeight="1.0000000000000000e+00" itree="18">
      <Node pos="s" depth="0" NCoef="0" IVar="2" Cut="2.7164399623870850e-02" cType="1" res="8.7420567870140076e-02" rms="3.6182940006256104e-01" purity="5.8828598260879517e-01" nType="0">
        <Node pos="l" depth="1" NCoef="0" IVar="-1" Cut="0.0000000000000000e+00" cType="1" res="1.5925066545605659e-02" rms="3.2489922642707825e-01" purity="8.3109164237976074e-01" nType="-99"/>
        <Node pos="r" depth="1" NCoef="0" IVar="5" Cut="8.5135215520858765e-01" cType="0" res="-1.2956614792346954e-01" rms="3.1372413039207458e-01" purity="1.8034462630748749e-01" nType="0">
          <Node pos="l" depth="2" NCoef="0" IVar="-1" Cut="0.0000000000000000e+00" cType="1" res="6.3699758611619473e-03" rms="4.1535750031471252e-01" purity="6.7353487014770508e-01" nType="-99"/>
          <Node pos="r" depth="2" NCoef="0" IVar="-1" Cut="0.0000000000000000e+00" cType="1" res="-2.5954270735383034e-02" rms="2.7615305781364441e-01" purity="1.0548868775367737e-01" nType="-99"/>
        </Node>
      </Node>
    </BinaryTree>
    <BinaryTree type="DecisionTree" boostWeight="1.0000000000000000e+00" itree="19">
      <Node pos="s" depth="0" NCoef="0" IVar="16" Cut="2.5566332340240479e+00" cType="1" res="8.5742585361003876e-02" rms="3.5814440250396729e-01" purity="5.8828598260879517e-01" nType="0">
        <Node pos="l" depth="1" NCoef="0" IVar="-1" Cut="0.0000000000000000e+00" cType="1" res="1.4854362234473228e-02" rms="3.1783267855644226e-01" purity="8.5399210453033447e-01" nType="-99"/>
        <Node pos="r" depth="1" NCoef="0" IVar="1" Cut="9.3385070562362671e-01" cType="0" res="-1.0998769104480743e-01" rms="3.2362633943557739e-01" purity="1.9306163489818573e-01" nType="0">
          <Node pos="l" depth="2" NCoef="0" IVar="-1" Cut="0.0000000000000000e+00" cType="1" res="5.7688169181346893e-03" rms="4.2189022898674011e-01" purity="5.4028582572937012e-01" nType="-99"/>
          <Node pos="r" depth="2" NCoef="0" IVar="-1" Cut="0.0000000000000000e+00" cType="1" res="-2.5987347587943077e-02" rms="2.8500711917877197e-01" purity="1.1956216394901276e-01" nType="-99"/>
        </Node>
      </Node>
    </BinaryTree>
    <BinaryTree type="DecisionTree" boostWeight="1.0000000000000000e+00" itree="20">
      <Node pos="s" depth="0" NCoef="0" IVar="2" Cut="2.7041936293244362e-02" cType="1" res="8.4605000913143158e-02" rms="3.5482978820800781e-01" purity="5.8828598260879517e-01" nType="0">
        <Node pos="l" depth="1" NCoef="0" IVar="-1" Cut="0.0000000000000000e+00" cType="1" res="1.5551750548183918e-02" rms="3.2073694467544556e-01" purity="8.3352833986282349e-01" nType="-99"/>
        <Node pos="r" depth="1" NCoef="0" IVar="5" Cut="8.4872239828109741e-01" cType="0" res="-1.1602450907230377e-01" rms="3.1395962834358215e-01" purity="1.8808393180370331e-01" nType="0">
          <Node pos="l" depth="2" NCoef="0" IVar="-1" Cut="0.0000000000000000e+00" cType="1" res="6.1204023659229279e-03" rms="4.1068348288536072e-01" purity="6.7322194576263428e-01" nType="-99"/>
          <Node pos="r" depth="2" NCoef="0" IVar="-1" Cut="0.0000000000000000e+00" cType="1" res="-2.4718048050999641e-02" rms="2.7609181404113770e-01" purity="1.0585837811231613e-01" nType="-99"/>
        </Node>
      </Node>
    </BinaryTree>
    <BinaryTree type="DecisionTree" boostWeight="1.0000000000000000e+00" itree="21">
      <Node pos="s" depth="0" NCoef="0" IVar="2" Cut="2.8470676392316818e-02" cType="1" res="8.2900919020175934e-02" rms="3.5152009129524231e-01" purity="5.8828598260879517e-01" nType="0">
        <Node pos="l" depth="1" NCoef="0" IVar="-1" Cut="0.0000000000000000e+00" cType="1" res="1.3937310315668583e-02" rms="3.3241280913352966e-01" purity="8.0499702692031860e-01" nType="-99"/>
        <Node pos="r" depth="1" NCoef="0" IVar="12" Cut="4.6504373550415039e+00" cType="1" res="-1.3717943429946899e-01" rms="2.8322869539260864e-01" purity="1.2676432728767395e-01" nType="0">
          <Node pos="l" depth="2" NCoef="0" IVar="-1" Cut="0.0000000000000000e+00" cType="1" res="-1.4623834285885096e-03" rms="3.8718366622924805e-01" purity="3.4126845002174377e-01" nType="-99"/>
          <Node pos="r" depth="2" NCoef="0" IVar="-1" Cut="0.0000000000000000e+00" cType="1" res="-3.4859001636505127e-02" rms="2.3199854791164398e-01" purity="6.2483143061399460e-02" nType="-99"/>
        </Node>
      </Node>
    </BinaryTree>
    <BinaryTree type="DecisionTree" boostWeight="1.0000000000000000e+00" itree="22">
      <Node pos="s" depth="0" NCoef="0" IVar="16" Cut="2.5566332340240479e+00" cType="1" res="8.1507228314876556e-02" rms="3.4823524951934814e-01" purity="5.8828598260879517e-01" nType="0">
        <Node pos="l" depth="1" NCoef="0" IVar="-1" Cut="0.0000000000000000e+00" cType="1" res="1.4208235777914524e-02" rms="3.1229239702224731e-01" purity="8.5399210453033447e-01" nType="-99"/>
        <Node pos="r" depth="1" NCoef="0" IVar="16" Cut="5.1017708778381348e+00" cType="1" res="-9.8547555506229401e-02" rms="3.1994757056236267e-01" purity="1.9306163489818573e-01" nType="0">
          <Node pos="l" depth="2" NCoef="0" IVar="-1" Cut="0.0000000000000000e+00" cType="1" res="2.2155165206640959e-03" rms="4.1292592883110046e-01" purity="4.6719822287559509e-01" nType="-99"/>
          <Node pos="r" depth="2" NCoef="0" IVar="-1" Cut="0.0000000000000000e+00" cType="1" res="-2.8677823022007942e-02" rms="2.6446634531021118e-01" purity="9.2545457184314728e-02" nType="-99"/>
        </Node>
      </Node>
    </BinaryTree>
    <BinaryTree type="DecisionTree" boostWeight="1.0000000000000000e+00" itree="23">
      <Node pos="s" depth="0" NCoef="0" IVar="2" Cut="2.7001114562153816e-02" cType="1" res="8.0407090485095978e-02" rms="3.4526532888412476e-01" purity="5.8828598260879517e-01" nType="0">
        <Node pos="l" depth="1" NCoef="0" IVar="-1" Cut="0.0000000000000000e+00" cType="1" res="1.4758642762899399e-02" rms="3.1774261593818665e-01" purity="8.3433258533477783e-01" nType="-99"/>
        <Node pos="r" depth="1" NCoef="0" IVar="5" Cut="8.1322103738784790e-01" cType="0" res="-9.9361181259155273e-02" rms="3.1042402982711792e-01" purity="1.9082657992839813e-01" nType="0">
          <Node pos="l" depth="2" NCoef="0" IVar="-1" Cut="0.0000000000000000e+00" cType="1" res="3.7971662823110819e-03" rms="4.0960937738418579e-01" purity="5.5318844318389893e-01" nType="-99"/>
          <Node pos="r" depth="2" NCoef="0" IVar="-1" Cut="0.0000000000000000e+00" cType="1" res="-2.7417259290814400e-02" rms="2.5522062182426453e-01" purity="8.2970850169658661e-02" nType="-99"/>
        </Node>
      </Node>
    </BinaryTree>
    <BinaryTree type="DecisionTree" boostWeight="1.0000000000000000e+00" itree="24">
      <Node pos="s" depth="0" NCoef="0" IVar="16" Cut="2.2725629806518555e+00" cType="1" res="7.8829981386661530e-02" rms="3.4233525395393372e-01" purity="5.8828598260879517e-01" nType="0">
        <Node pos="l" depth="1" NCoef="0" IVar="-1" Cut="0.0000000000000000e+00" cType="1" res="1.4122619293630123e-02" rms="3.0349692702293396e-01" purity="8.6121231317520142e-01" nType="-99"/>
        <Node pos="r" depth="1" NCoef="0" IVar="1" Cut="9.2893421649932861e-01" cType="0" res="-8.1990078091621399e-02" rms="3.2527562975883484e-01" purity="2.2143357992172241e-01" nType="0">
          <Node pos="l" depth="2" NCoef="0" IVar="-1" Cut="0.0000000000000000e+00" cType="1" res="6.4344103448092937e-03" rms="4.0565219521522522e-01" purity="5.7015681266784668e-01" nType="-99"/>
          <Node pos="r" depth="2" NCoef="0" IVar="-1" Cut="0.0000000000000000e+00" cType="1" res="-2.2149635478854179e-02" rms="2.8798896074295044e-01" purity="1.3173161447048187e-01" nType="-99"/>
        </Node>
      </Node>
    </BinaryTree>
    <BinaryTree type="DecisionTree" boostWeight="1.0000000000000000e+00" itree="25">
      <Node pos="s" depth="0" NCoef="0" IVar="16" Cut="4.2610554695129395e+00" cType="1" res="7.7545411884784698e-02" rms="3.3978280425071716e-01" purity="5.8828598260879517e-01" nType="0">
        <Node pos="l" depth="1" NCoef="0" IVar="-1" Cut="0.0000000000000000e+00" cType="1" res="1.2474623508751392e-02" rms="3.2779183983802795e-01" purity="8.1275808811187744e-01" nType="-99"/>
        <Node pos="r" depth="1" NCoef="0" IVar="15" Cut="9.5216941833496094e-01" cType="1" res="-1.1782673001289368e-01" rms="2.7667835354804993e-01" purity="1.0825882852077484e-01" nType="0">
          <Node pos="l" depth="2" NCoef="0" IVar="-1" Cut="0.0000000000000000e+00" cType="1" res="-6.4029195345938206e-03" rms="3.5479018092155457e-01" purity="2.2483852505683899e-01" nType="-99"/>
          <Node pos="r" depth="2" NCoef="0" IVar="-1" Cut="0.0000000000000000e+00" cType="1" res="-2.9999373480677605e-02" rms="2.4643705785274506e-01" purity="7.5995832681655884e-02" nType="-99"/>
        </Node>
      </Node>
    </BinaryTree>
    <BinaryTree type="DecisionTree" boostWeight="1.0000000000000000e+00" itree="26">
      <Node pos="s" depth="0" NCoef="0" IVar="2" Cut="2.6837829500436783e-02" cType="1" res="7.6305754482746124e-02" rms="3.3734267950057983e-01" purity="5.8828598260879517e-01" nType="0">
        <Node pos="l" depth="1" NCoef="0" IVar="-1" Cut="0.0000000000000000e+00" cType="1" res="1.4374130405485630e-02" rms="3.1151199340820312e-01" purity="8.3742600679397583e-01" nType="-99"/>
        <Node pos="r" depth="1" NCoef="0" IVar="12" Cut="4.2970604896545410e+00" cType="1" res="-8.6230777204036713e-02" rms="3.1033879518508911e-01" purity="2.0217603445053101e-01" nType="0">
          <Node pos="l" depth="2" NCoef="0" IVar="-1" Cut="0.0000000000000000e+00" cType="1" res="4.0159071795642376e-03" rms="3.8138601183891296e-01" purity="4.9568942189216614e-01" nType="-99"/>
          <Node pos="r" depth="2" NCoef="0" IVar="-1" Cut="0.0000000000000000e+00" cType="1" res="-2.5424107909202576e-02" rms="2.6295924186706543e-01" purity="9.9232695996761322e-02" nType="-99"/>
        </Node>
      </Node>
    </BinaryTree>
    <BinaryTree type="DecisionTree" boostWeight="1.0000000000000000e+00" itree="27">
      <Node pos="s" depth="0" NCoef="0" IVar="16" Cut="2.2725629806518555e+00" cType="1" res="7.4684202671051025e-02" rms="3.3476686477661133e-01" purity="5.8828598260879517e-01" nType="0">
        <Node pos="l" depth="1" NCoef="0" IVar="-1" Cut="0.0000000000000000e+00" cType="1" res="1.3410814106464386e-02" rms="3.0144894123077393e-01" purity="8.6121231317520142e-01" nType="-99"/>
        <Node pos="r" depth="1" NCoef="0" IVar="1" Cut="9.4323676824569702e-01" cType="0" res="-7.1439363062381744e-02" rms="3.2144024968147278e-01" purity="2.2143357992172241e-01" nType="0">
          <Node pos="l" depth="2" NCoef="0" IVar="-1" Cut="0.0000000000000000e+00" cType="1" res="7.9607004299759865e-03" rms="3.9615669846534729e-01" purity="6.1833924055099487e-01" nType="-99"/>
          <Node pos="r" depth="2" NCoef="0" IVar="-1" Cut="0.0000000000000000e+00" cType="1" res="-1.8735241144895554e-02" rms="2.9491090774536133e-01" purity="1.4606705307960510e-01" nType="-99"/>
        </Node>
      </Node>
    </BinaryTree>
    <BinaryTree type="DecisionTree" boostWeight="1.0000000000000000e+00" itree="28">
      <Node pos="s" depth="0" NCoef="0" IVar="2" Cut="2.8511496260762215e-02" cType="1" res="7.3339618742465973e-02" rms="3.3269831538200378e-01" purity="5.8828598260879517e-01" nType="0">
        <Node pos="l" depth="1" NCoef="0" IVar="-1" Cut="0.0000000000000000e+00" cType="1" res="1.2559417635202408e-02" rms="3.2227239012718201e-01" purity="8.0415940284729004e-01" nType="-99"/>
        <Node pos="r" depth="1" NCoef="0" IVar="5" Cut="8.6399298906326294e-01" cType="0" res="-1.0748334228992462e-01" rms="2.7815553545951843e-01" purity="1.2562297284603119e-01" nType="0">
          <Node pos="l" depth="2" NCoef="0" IVar="-1" Cut="0.0000000000000000e+00" cType="1" res="5.6571708992123604e-03" rms="4.1159719228744507e-01" purity="6.6388976573944092e-01" nType="-99"/>
          <Node pos="r" depth="2" NCoef="0" IVar="-1" Cut="0.0000000000000000e+00" cType="1" res="-2.3093212395906448e-02" rms="2.6051241159439087e-01" purity="8.9306458830833435e-02" nType="-99"/>
        </Node>
      </Node>
    </BinaryTree>
    <BinaryTree type="DecisionTree" boostWeight="1.0000000000000000e+00" itree="29">
      <Node pos="s" depth="0" NCoef="0" IVar="15" Cut="1.4282541275024414e+00" cType="1" res="7.1708597242832184e-02" rms="3.3061620593070984e-01" purity="5.8828598260879517e-01" nType="0">
        <Node pos="l" depth="1" NCoef="0" IVar="-1" Cut="0.0000000000000000e+00" cType="1" res="1.2328221462666988e-02" rms="3.1325462460517883e-01" purity="7.8149580955505371e-01" nType="-99"/>
        <Node pos="r" depth="1" NCoef="0" IVar="1" Cut="9.4949418306350708e-01" cType="0" res="-1.0374339669942856e-01" rms="2.9624757170677185e-01" purity="1.7802964150905609e-01" nType="0">
          <Node pos="l" depth="2" NCoef="0" IVar="-1" Cut="0.0000000000000000e+00" cType="1" res="4.8817610368132591e-03" rms="3.9333486557006836e-01" purity="5.9922707080841064e-01" nType="-99"/>
          <Node pos="r" depth="2" NCoef="0" IVar="-1" Cut="0.0000000000000000e+00" cType="1" res="-2.5186525657773018e-02" rms="2.7137550711631775e-01" purity="1.1693352460861206e-01" nType="-99"/>
        </Node>
      </Node>
    </BinaryTree>
    <BinaryTree type="DecisionTree" boostWeight="1.0000000000000000e+00" itree="30">
      <Node pos="s" depth="0" NCoef="0" IVar="5" Cut="8.2980656623840332e-01" cType="0" res="7.0351094007492065e-02" rms="3.2842537760734558e-01" purity="5.8828598260879517e-01" nType="0">
        <Node pos="l" depth="1" NCoef="0" IVar="-1" Cut="0.0000000000000000e+00" cType="1" res="1.4894369058310986e-02" rms="2.8667607903480530e-01" purity="8.6123633384704590e-01" nType="-99"/>
        <Node pos="r" depth="1" NCoef="0" IVar="14" Cut="1.2364798784255981e+00" cType="1" res="-4.7752887010574341e-02" rms="3.2568064332008362e-01" purity="3.1242015957832336e-01" nType="0">
          <Node pos="l" depth="2" NCoef="0" IVar="-1" Cut="0.0000000000000000e+00" cType="1" res="5.5159311741590500e-03" rms="3.4386092424392700e-01" purity="5.4468691349029541e-01" nType="-99"/>
          <Node pos="r" depth="2" NCoef="0" IVar="-1" Cut="0.0000000000000000e+00" cType="1" res="-2.6093712076544762e-02" rms="2.7966344356536865e-01" purity="1.2528213858604431e-01" nType="-99"/>
        </Node>
      </Node>
    </BinaryTree>
    <BinaryTree type="DecisionTree" boostWeight="1.0000000000000000e+00" itree="31">
      <Node pos="s" depth="0" NCoef="0" IVar="2" Cut="2.6756187900900841e-02" cType="1" res="6.9006532430648804e-02" rms="3.2586130499839783e-01" purity="5.8828598260879517e-01" nType="0">
        <Node pos="l" depth="1" NCoef="0" IVar="-1" Cut="0.0000000000000000e+00" cType="1" res="1.3408712111413479e-02" rms="3.0555650591850281e-01" purity="8.3893430233001709e-01" nType="-99"/>
        <Node pos="r" depth="1" NCoef="0" IVar="12" Cut="4.6080322265625000e+00" cType="1" res="-7.0915170013904572e-02" rms="3.0517119169235229e-01" purity="2.0830401778221130e-01" nType="0">
          <Node pos="l" depth="2" NCoef="0" IVar="-1" Cut="0.0000000000000000e+00" cType="1" res="3.8152106571942568e-03" rms="3.7263095378875732e-01" purity="4.9375075101852417e-01" nType="-99"/>
          <Node pos="r" depth="2" NCoef="0" IVar="-1" Cut="0.0000000000000000e+00" cType="1" res="-2.3989913985133171e-02" rms="2.5808000564575195e-01" purity="9.5625169575214386e-02" nType="-99"/>
        </Node>
      </Node>
    </BinaryTree>
    <BinaryTree type="DecisionTree" boostWeight="1.0000000000000000e+00" itree="32">
      <Node pos="s" depth="0" NCoef="0" IVar="16" Cut="4.2610554695129395e+00" cType="1" res="6.7473649978637695e-02" rms="3.2381701469421387e-01" purity="5.8828598260879517e-01" nType="0">
        <Node pos="l" depth="1" NCoef="0" IVar="-1" Cut="0.0000000000000000e+00" cType="1" res="1.1272781528532505e-02" rms="3.1701210141181946e-01" purity="8.1275808811187744e-01" nType="-99"/>
        <Node pos="r" depth="1" NCoef="0" IVar="15" Cut="9.5216941833496094e-01" cType="1" res="-9.5610179007053375e-02" rms="2.7413401007652283e-01" purity="1.0825882852077484e-01" nType="0">
          <Node pos="l" depth="2" NCoef="0" IVar="-1" Cut="0.0000000000000000e+00" cType="1" res="-5.8097578585147858e-03" rms="3.4965518116950989e-01" purity="2.2483852505683899e-01" nType="-99"/>
          <Node pos="r" depth="2" NCoef="0" IVar="-1" Cut="0.0000000000000000e+00" cType="1" res="-2.6874395087361336e-02" rms="2.4657352268695831e-01" purity="7.5995832681655884e-02" nType="-99"/>
        </Node>
      </Node>
    </BinaryTree>
    <BinaryTree type="DecisionTree" boostWeight="1.0000000000000000e+00" itree="33">
      <Node pos="s" depth="0" NCoef="0" IVar="5" Cut="8.3430927991867065e-01" cType="0" res="6.6279396414756775e-02" rms="3.2206726074218750e-01" purity="5.8828598260879517e-01" nType="0">
        <Node pos="l" depth="1" NCoef="0" IVar="-1" Cut="0.0000000000000000e+00" cType="1" res="1.4455087482929230e-02" rms="2.8178852796554565e-01" purity="8.6681437492370605e-01" nType="-99"/>
        <Node pos="r" depth="1" NCoef="0" IVar="14" Cut="1.6486399173736572e+00" cType="1" res="-4.0450125932693481e-02" rms="3.2268366217613220e-01" purity="3.1857761740684509e-01" nType="0">
          <Node pos="l" depth="2" NCoef="0" IVar="-1" Cut="0.0000000000000000e+00" cType="1" res="4.6174246817827225e-03" rms="3.4204077720642090e-01" purity="5.2573263645172119e-01" nType="-99"/>
          <Node pos="r" depth="2" NCoef="0" IVar="-1" Cut="0.0000000000000000e+00" cType="1" res="-2.8022397309541702e-02" rms="2.7137318253517151e-01" purity="1.0671447217464447e-01" nType="-99"/>
        </Node>
      </Node>
    </BinaryTree>
    <BinaryTree type="DecisionTree" boostWeight="1.0000000000000000e+00" itree="34">
      <Node pos="s" depth="0" NCoef="0" IVar="15" Cut="1.5869489908218384e+00" cType="1" res="6.5027765929698944e-02" rms="3.1973671913146973e-01" purity="5.8828598260879517e-01" nType="0">
        <Node pos="l" depth="1" NCoef="0" IVar="-1" Cut="0.0000000000000000e+00" cType="1" res="1.1322078295052052e-02" rms="3.0772429704666138e-01" purity="7.7819138765335083e-01" nType="-99"/>
        <Node pos="r" depth="1" NCoef="0" IVar="1" Cut="9.5083504915237427e-01" cType="0" res="-9.2973694205284119e-02" rms="2.8804996609687805e-01" purity="1.6339957714080811e-01" nType="0">
          <Node pos="l" depth="2" NCoef="0" IVar="-1" Cut="0.0000000000000000e+00" cType="1" res="3.2785739749670029e-03" rms="3.9531427621841431e-01" purity="5.7591950893402100e-01" nType="-99"/>
          <Node pos="r" depth="2" NCoef="0" IVar="-1" Cut="0.0000000000000000e+00" cType="1" res="-2.3845251649618149e-02" rms="2.6610025763511658e-01" purity="1.0930676013231277e-01" nType="-99"/>
        </Node>
      </Node>
    </BinaryTree>
    <BinaryTree type="DecisionTree" boostWeight="1.0000000000000000e+00" itree="35">
      <Node pos="s" depth="0" NCoef="0" IVar="2" Cut="2.9042171314358711e-02" cType="1" res="6.3737623393535614e-02" rms="3.1802400946617126e-01" purity="5.8828598260879517e-01" nType="0">
        <Node pos="l" depth="1" NCoef="0" IVar="-1" Cut="0.0000000000000000e+00" cType="1" res="1.1150591075420380e-02" rms="3.1508085131645203e-01" purity="7.9392749071121216e-01" nType="-99"/>
        <Node pos="r" depth="1" NCoef="0" IVar="4" Cut="7.3110818862915039e-01" cType="0" res="-9.2913337051868439e-02" rms="2.6510360836982727e-01" purity="1.1328309029340744e-01" nType="0">
          <Node pos="l" depth="2" NCoef="0" IVar="-1" Cut="0.0000000000000000e+00" cType="1" res="2.8526235837489367e-03" rms="3.9861059188842773e-01" purity="4.6001806855201721e-01" nType="-99"/>
          <Node pos="r" depth="2" NCoef="0" IVar="-1" Cut="0.0000000000000000e+00" cType="1" res="-2.3967077955603600e-02" rms="2.4227462708950043e-01" purity="7.6259315013885498e-02" nType="-99"/>
        </Node>
      </Node>
    </BinaryTree>
    <BinaryTree type="DecisionTree" boostWeight="1.0000000000000000e+00" itree="36">
      <Node pos="s" depth="0" NCoef="0" IVar="16" Cut="2.2725629806518555e+00" cType="1" res="6.2316138297319412e-02" rms="3.1643787026405334e-01" purity="5.8828598260879517e-01" nType="0">
        <Node pos="l" depth="1" NCoef="0" IVar="-1" Cut="0.0000000000000000e+00" cType="1" res="1.1855479329824448e-02" rms="2.9095494747161865e-01" purity="8.6121231317520142e-01" nType="-99"/>
        <Node pos="r" depth="1" NCoef="0" IVar="12" Cut="3.9931566715240479e+00" cType="1" res="-5.4615233093500137e-02" rms="3.1159690022468567e-01" purity="2.2143357992172241e-01" nType="0">
          <Node pos="l" depth="2" NCoef="0" IVar="-1" Cut="0.0000000000000000e+00" cType="1" res="3.9394577033817768e-03" rms="3.8726943731307983e-01" purity="4.9614515900611877e-01" nType="-99"/>
          <Node pos="r" depth="2" NCoef="0" IVar="-1" Cut="0.0000000000000000e+00" cType="1" res="-2.1168008446693420e-02" rms="2.7036163210868835e-01" purity="1.2122493982315063e-01" nType="-99"/>
        </Node>
      </Node>
    </BinaryTree>
    <BinaryTree type="DecisionTree" boostWeight="1.0000000000000000e+00" itree="37">
      <Node pos="s" depth="0" NCoef="0" IVar="5" Cut="8.1584811210632324e-01" cType="0" res="6.1278227716684341e-02" rms="3.1492695212364197e-01" purity="5.8828598260879517e-01" nType="0">
        <Node pos="l" depth="1" NCoef="0" IVar="-1" Cut="0.0000000000000000e+00" cType="1" res="1.3062334619462490e-02" rms="2.8847879171371460e-01" purity="8.4403049945831299e-01" nType="-99"/>
        <Node pos="r" depth="1" NCoef="0" IVar="2" Cut="2.4876439943909645e-02" cType="1" res="-4.4040508568286896e-02" rms="3.1101468205451965e-01" purity="2.9485565423965454e-01" nType="0">
          <Node pos="l" depth="2" NCoef="0" IVar="-1" Cut="0.0000000000000000e+00" cType="1" res="7.7984891831874847e-03" rms="3.5570293664932251e-01" purity="7.4132680892944336e-01" nType="-99"/>
          <Node pos="r" depth="2" NCoef="0" IVar="-1" Cut="0.0000000000000000e+00" cType="1" res="-1.5958340838551521e-02" rms="2.7942496538162231e-01" purity="1.4695891737937927e-01" nType="-99"/>
        </Node>
      </Node>
    </BinaryTree>
    <BinaryTree type="DecisionTree" boostWeight="1.0000000000000000e+00" itree="38">
      <Node pos="s" depth="0" NCoef="0" IVar="14" Cut="2.0607998371124268e+00" cType="1" res="5.9763975441455841e-02" rms="3.1338235735893250e-01" purity="5.8828598260879517e-01" nType="0">
        <Node pos="l" depth="1" NCoef="0" IVar="-1" Cut="0.0000000000000000e+00" cType="1" res="1.1043121106922626e-02" rms="2.9242047667503357e-01" purity="7.4389648437500000e-01" nType="-99"/>
        <Node pos="r" depth="1" NCoef="0" IVar="5" Cut="8.8122326135635376e-01" cType="0" res="-8.3354026079177856e-02" rms="3.1064882874488831e-01" purity="2.4456262588500977e-01" nType="0">
          <Node pos="l" depth="2" NCoef="0" IVar="-1" Cut="0.0000000000000000e+00" cType="1" res="9.2329904437065125e-03" rms="3.5437151789665222e-01" purity="8.0043292045593262e-01" nType="-99"/>
          <Node pos="r" depth="2" NCoef="0" IVar="-1" Cut="0.0000000000000000e+00" cType="1" res="-2.2698925808072090e-02" rms="2.9010295867919922e-01" purity="1.4153204858303070e-01" nType="-99"/>
        </Node>
      </Node>
    </BinaryTree>
    <BinaryTree type="DecisionTree" boostWeight="1.0000000000000000e+00" itree="39">
      <Node pos="s" depth="0" NCoef="0" IVar="12" Cut="5.1946372985839844e+00" cType="1" res="5.8508016169071198e-02" rms="3.1166419386863708e-01" purity="5.8828598260879517e-01" nType="0">
        <Node pos="l" depth="1" NCoef="0" IVar="-1" Cut="0.0000000000000000e+00" cType="1" res="1.2002042494714260e-02" rms="2.8565162420272827e-01" purity="8.0251091718673706e-01" nType="-99"/>
        <Node pos="r" depth="1" NCoef="0" IVar="2" Cut="2.5245806202292442e-02" cType="1" res="-4.9178645014762878e-02" rms="3.1107151508331299e-01" purity="3.1028464436531067e-01" nType="0">
          <Node pos="l" depth="2" NCoef="0" IVar="-1" Cut="0.0000000000000000e+00" cType="1" res="7.0188711397349834e-03" rms="3.6206841468811035e-01" purity="7.2581034898757935e-01" nType="-99"/>
          <Node pos="r" depth="2" NCoef="0" IVar="-1" Cut="0.0000000000000000e+00" cType="1" res="-1.8728507682681084e-02" rms="2.7309983968734741e-01" purity="1.4085982739925385e-01" nType="-99"/>
        </Node>
      </Node>
    </BinaryTree>
    <BinaryTree type="DecisionTree" boostWeight="1.0000000000000000e+00" itree="40">
      <Node pos="s" depth="0" NCoef="0" IVar="15" Cut="1.2695591449737549e+00" cType="1" res="5.7201433926820755e-02" rms="3.1014493107795715e-01" purity="5.8828598260879517e-01" nType="0">
        <Node pos="l" depth="1" NCoef="0" IVar="-1" Cut="0.0000000000000000e+00" cType="1" res="1.0771106928586960e-02" rms="2.9800218343734741e-01" purity="7.8464579582214355e-01" nType="-99"/>
        <Node pos="r" depth="1" NCoef="0" IVar="1" Cut="9.5083504915237427e-01" cType="0" res="-7.4446767568588257e-02" rms="2.9160726070404053e-01" purity="1.9434843957424164e-01" nType="0">
          <Node pos="l" depth="2" NCoef="0" IVar="-1" Cut="0.0000000000000000e+00" cType="1" res="4.3812133371829987e-03" rms="3.7505525350570679e-01" purity="6.3207030296325684e-01" nType="-99"/>
          <Node pos="r" depth="2" NCoef="0" IVar="-1" Cut="0.0000000000000000e+00" cType="1" res="-1.9867004826664925e-02" rms="2.7220469713211060e-01" purity="1.2916970252990723e-01" nType="-99"/>
        </Node>
      </Node>
    </BinaryTree>
    <BinaryTree type="DecisionTree" boostWeight="1.0000000000000000e+00" itree="41">
      <Node pos="s" depth="0" NCoef="0" IVar="1" Cut="9.1239678859710693e-01" cType="0" res="5.5987659841775894e-02" rms="3.0881050229072571e-01" purity="5.8828598260879517e-01" nType="0">
        <Node pos="l" depth="1" NCoef="0" IVar="-1" Cut="0.0000000000000000e+00" cType="1" res="1.3852138072252274e-02" rms="2.6365938782691956e-01" purity="8.4982794523239136e-01" nType="-99"/>
        <Node pos="r" depth="1" NCoef="0" IVar="14" Cut="1.0303999185562134e+00" cType="1" res="-2.9216628521680832e-02" rms="3.2113635540008545e-01" purity="3.5418927669525146e-01" nType="0">
          <Node pos="l" depth="2" NCoef="0" IVar="-1" Cut="0.0000000000000000e+00" cType="1" res="5.3928685374557972e-03" rms="3.3536937832832336e-01" purity="5.9024477005004883e-01" nType="-99"/>
          <Node pos="r" depth="2" NCoef="0" IVar="-1" Cut="0.0000000000000000e+00" cType="1" res="-1.9371530041098595e-02" rms="2.8885698318481445e-01" purity="1.6164131462574005e-01" nType="-99"/>
        </Node>
      </Node>
    </BinaryTree>
    <BinaryTree type="DecisionTree" boostWeight="1.0000000000000000e+00" itree="42">
      <Node pos="s" depth="0" NCoef="0" IVar="16" Cut="1.9884926080703735e+00" cType="1" res="5.4726142436265945e-02" rms="3.0717948079109192e-01" purity="5.8828598260879517e-01" nType="0">
        <Node pos="l" depth="1" NCoef="0" IVar="-1" Cut="0.0000000000000000e+00" cType="1" res="1.1349858716130257e-02" rms="2.7903971076011658e-01" purity="8.6858254671096802e-01" nType="-99"/>
        <Node pos="r" depth="1" NCoef="0" IVar="12" Cut="3.7740631103515625e+00" cType="1" res="-4.1703354567289352e-02" rms="3.1116041541099548e-01" purity="2.5541484355926514e-01" nType="0">
          <Node pos="l" depth="2" NCoef="0" IVar="-1" Cut="0.0000000000000000e+00" cType="1" res="4.4346735812723637e-03" rms="3.7166830897331238e-01" purity="5.4975789785385132e-01" nType="-99"/>
          <Node pos="r" depth="2" NCoef="0" IVar="-1" Cut="0.0000000000000000e+00" cType="1" res="-1.7578475177288055e-02" rms="2.7746322751045227e-01" purity="1.4432588219642639e-01" nType="-99"/>
        </Node>
      </Node>
    </BinaryTree>
    <BinaryTree type="DecisionTree" boostWeight="1.0000000000000000e+00" itree="43">
      <Node pos="s" depth="0" NCoef="0" IVar="2" Cut="2.6552082970738411e-02" cType="1" res="5.3770229220390320e-02" rms="3.0600225925445557e-01" purity="5.8828598260879517e-01" nType="0">
        <Node pos="l" depth="1" NCoef="0" IVar="-1" Cut="0.0000000000000000e+00" cType="1" res="1.1761819943785667e-02" rms="2.9193496704101562e-01" purity="8.4265208244323730e-01" nType="-99"/>
        <Node pos="r" depth="1" NCoef="0" IVar="12" Cut="4.3041281700134277e+00" cType="1" res="-4.9614980816841125e-02" rms="2.9573708772659302e-01" purity="2.2532901167869568e-01" nType="0">
          <Node pos="l" depth="2" NCoef="0" IVar="-1" Cut="0.0000000000000000e+00" cType="1" res="3.6441553384065628e-03" rms="3.5476407408714294e-01" purity="5.3236460685729980e-01" nType="-99"/>
          <Node pos="r" depth="2" NCoef="0" IVar="-1" Cut="0.0000000000000000e+00" cType="1" res="-1.8586274236440659e-02" rms="2.6036086678504944e-01" purity="1.0856997966766357e-01" nType="-99"/>
        </Node>
      </Node>
    </BinaryTree>
    <BinaryTree type="DecisionTree" boostWeight="1.0000000000000000e+00" itree="44">
      <Node pos="s" depth="0" NCoef="0" IVar="14" Cut="2.2668797969818115e+00" cType="1" res="5.2441827952861786e-02" rms="3.0478626489639282e-01" purity="5.8828598260879517e-01" nType="0">
        <Node pos="l" depth="1" NCoef="0" IVar="-1" Cut="0.0000000000000000e+00" cType="1" res="1.0050331242382526e-02" rms="2.8853324055671692e-01" purity="7.3695784807205200e-01" nType="-99"/>
        <Node pos="r" depth="1" NCoef="0" IVar="5" Cut="8.8133120536804199e-01" cType="0" res="-8.0233782529830933e-02" rms="3.0247464776039124e-01" purity="2.2689583897590637e-01" nType="0">
          <Node pos="l" depth="2" NCoef="0" IVar="-1" Cut="0.0000000000000000e+00" cType="1" res="6.7834216170012951e-03" rms="3.5977643728256226e-01" purity="7.8751784563064575e-01" nType="-99"/>
          <Node pos="r" depth="2" NCoef="0" IVar="-1" Cut="0.0000000000000000e+00" cType="1" res="-2.2125435993075371e-02" rms="2.8425031900405884e-01" purity="1.3183452188968658e-01" nType="-99"/>
        </Node>
      </Node>
    </BinaryTree>
    <BinaryTree type="DecisionTree" boostWeight="1.0000000000000000e+00" itree="45">
      <Node pos="s" depth="0" NCoef="0" IVar="16" Cut="4.5451259613037109e+00" cType="1" res="5.1323540508747101e-02" rms="3.0342698097229004e-01" purity="5.8828598260879517e-01" nType="0">
        <Node pos="l" depth="1" NCoef="0" IVar="-1" Cut="0.0000000000000000e+00" cType="1" res="9.4256531447172165e-03" rms="3.0259367823600769e-01" purity="8.0652678012847900e-01" nType="-99"/>
        <Node pos="r" depth="1" NCoef="0" IVar="2" Cut="2.7723981067538261e-02" cType="1" res="-7.3202624917030334e-02" rms="2.6595285534858704e-01" purity="1.0177116841077805e-01" nType="0">
          <Node pos="l" depth="2" NCoef="0" IVar="-1" Cut="0.0000000000000000e+00" cType="1" res="-1.4483829960227013e-02" rms="3.9796033501625061e-01" purity="2.5777959823608398e-01" nType="-99"/>
          <Node pos="r" depth="2" NCoef="0" IVar="-1" Cut="0.0000000000000000e+00" cType="1" res="-2.4830780923366547e-02" rms="1.8219514191150665e-01" purity="3.7042628973722458e-02" nType="-99"/>
        </Node>
      </Node>
    </BinaryTree>
    <BinaryTree type="DecisionTree" boostWeight="1.0000000000000000e+00" itree="46">
      <Node pos="s" depth="0" NCoef="0" IVar="1" Cut="9.1463160514831543e-01" cType="0" res="5.0379939377307892e-02" rms="3.0248415470123291e-01" purity="5.8828598260879517e-01" nType="0">
        <Node pos="l" depth="1" NCoef="0" IVar="-1" Cut="0.0000000000000000e+00" cType="1" res="1.3232613913714886e-02" rms="2.5907087326049805e-01" purity="8.5303217172622681e-01" nType="-99"/>
        <Node pos="r" depth="1" NCoef="0" IVar="14" Cut="1.2364798784255981e+00" cType="1" res="-2.5676960125565529e-02" rms="3.1675332784652710e-01" purity="3.5746031999588013e-01" nType="0">
          <Node pos="l" depth="2" NCoef="0" IVar="-1" Cut="0.0000000000000000e+00" cType="1" res="4.4812266714870930e-03" rms="3.3316424489021301e-01" purity="5.8064717054367065e-01" nType="-99"/>
          <Node pos="r" depth="2" NCoef="0" IVar="-1" Cut="0.0000000000000000e+00" cType="1" res="-1.9616119563579559e-02" rms="2.8324410319328308e-01" purity="1.4729246497154236e-01" nType="-99"/>
        </Node>
      </Node>
    </BinaryTree>
    <BinaryTree type="DecisionTree" boostWeight="1.0000000000000000e+00" itree="47">
      <Node pos="s" depth="0" NCoef="0" IVar="15" Cut="1.2695591449737549e+00" cType="1" res="4.9252595752477646e-02" rms="3.0110579729080200e-01" purity="5.8828598260879517e-01" nType="0">
        <Node pos="l" depth="1" NCoef="0" IVar="-1" Cut="0.0000000000000000e+00" cType="1" res="9.8410155624151230e-03" rms="2.9172840714454651e-01" purity="7.8464579582214355e-01" nType="-99"/>
        <Node pos="r" depth="1" NCoef="0" IVar="5" Cut="9.0440332889556885e-01" cType="0" res="-6.3929028809070587e-02" rms="2.8744095563888550e-01" purity="1.9434843957424164e-01" nType="0">
          <Node pos="l" depth="2" NCoef="0" IVar="-1" Cut="0.0000000000000000e+00" cType="1" res="6.6806841641664505e-03" rms="3.6305627226829529e-01" purity="7.8419363498687744e-01" nType="-99"/>
          <Node pos="r" depth="2" NCoef="0" IVar="-1" Cut="0.0000000000000000e+00" cType="1" res="-1.5744157135486603e-02" rms="2.7756062150001526e-01" purity="1.4764052629470825e-01" nType="-99"/>
        </Node>
      </Node>
    </BinaryTree>
    <BinaryTree type="DecisionTree" boostWeight="1.0000000000000000e+00" itree="48">
      <Node pos="s" depth="0" NCoef="0" IVar="12" Cut="5.2087726593017578e+00" cType="1" res="4.8118859529495239e-02" rms="3.0015853047370911e-01" purity="5.8828598260879517e-01" nType="0">
        <Node pos="l" depth="1" NCoef="0" IVar="-1" Cut="0.0000000000000000e+00" cType="1" res="1.0754281654953957e-02" rms="2.7915248274803162e-01" purity="8.0199122428894043e-01" nType="-99"/>
        <Node pos="r" depth="1" NCoef="0" IVar="2" Cut="2.5041701272130013e-02" cType="1" res="-4.1734930127859116e-02" rms="3.0283054709434509e-01" purity="3.0951359868049622e-01" nType="0">
          <Node pos="l" depth="2" NCoef="0" IVar="-1" Cut="0.0000000000000000e+00" cType="1" res="6.4065763726830482e-03" rms="3.5256642103195190e-01" purity="7.3210793733596802e-01" nType="-99"/>
          <Node pos="r" depth="2" NCoef="0" IVar="-1" Cut="0.0000000000000000e+00" cType="1" res="-1.6023064032196999e-02" rms="2.7217635512351990e-01" purity="1.5058524906635284e-01" nType="-99"/>
        </Node>
      </Node>
    </BinaryTree>
    <BinaryTree type="DecisionTree" boostWeight="1.0000000000000000e+00" itree="49">
      <Node pos="s" depth="0" NCoef="0" IVar="14" Cut="2.0607998371124268e+00" cType="1" res="4.7002159059047699e-02" rms="2.9909828305244446e-01" purity="5.8828598260879517e-01" nType="0">
        <Node pos="l" depth="1" NCoef="0" IVar="-1" Cut="0.0000000000000000e+00" cType="1" res="9.5697408542037010e-03" rms="2.8345286846160889e-01" purity="7.4389648437500000e-01" nType="-99"/>
        <Node pos="r" depth="1" NCoef="0" IVar="5" Cut="8.7503170967102051e-01" cType="0" res="-6.6629104316234589e-02" rms="3.0138745903968811e-01" purity="2.4456262588500977e-01" nType="0">
          <Node pos="l" depth="2" NCoef="0" IVar="-1" Cut="0.0000000000000000e+00" cType="1" res="5.7796407490968704e-03" rms="3.5613039135932922e-01" purity="7.8211891651153564e-01" nType="-99"/>
          <Node pos="r" depth="2" NCoef="0" IVar="-1" Cut="0.0000000000000000e+00" cType="1" res="-2.0152138546109200e-02" rms="2.8199371695518494e-01" purity="1.3199174404144287e-01" nType="-99"/>
        </Node>
      </Node>
    </BinaryTree>
    <BinaryTree type="DecisionTree" boostWeight="1.0000000000000000e+00" itree="50">
      <Node pos="s" depth="0" NCoef="0" IVar="15" Cut="1.4282541275024414e+00" cType="1" res="4.5991666615009308e-02" rms="2.9798224568367004e-01" purity="5.8828598260879517e-01" nType="0">
        <Node pos="l" depth="1" NCoef="0" IVar="-1" Cut="0.0000000000000000e+00" cType="1" res="9.2963762581348419e-03" rms="2.9087641835212708e-01" purity="7.8149580955505371e-01" nType="-99"/>
        <Node pos="r" depth="1" NCoef="0" IVar="10" Cut="2.6430426165461540e-02" cType="1" res="-6.3089646399021149e-02" rms="2.8315338492393494e-01" purity="1.7802964150905609e-01" nType="0">
          <Node pos="l" depth="2" NCoef="0" IVar="-1" Cut="0.0000000000000000e+00" cType="1" res="2.1600660402327776e-03" rms="3.6971247196197510e-01" purity="5.3501451015472412e-01" nType="-99"/>
          <Node pos="r" depth="2" NCoef="0" IVar="-1" Cut="0.0000000000000000e+00" cType="1" res="-1.8343728035688400e-02" rms="2.6450923085212708e-01" purity="1.2181441485881805e-01" nType="-99"/>
        </Node>
      </Node>
    </BinaryTree>
    <BinaryTree type="DecisionTree" boostWeight="1.0000000000000000e+00" itree="51">
      <Node pos="s" depth="0" NCoef="0" IVar="12" Cut="5.3925285339355469e+00" cType="1" res="4.4997617602348328e-02" rms="2.9709568619728088e-01" purity="5.8828598260879517e-01" nType="0">
        <Node pos="l" depth="1" NCoef="0" IVar="-1" Cut="0.0000000000000000e+00" cType="1" res="1.0210250504314899e-02" rms="2.7961024641990662e-01" purity="7.9493248462677002e-01" nType="-99"/>
        <Node pos="r" depth="1" NCoef="0" IVar="2" Cut="2.4796772748231888e-02" cType="1" res="-4.2192567139863968e-02" rms="2.9881870746612549e-01" purity="2.9984691739082336e-01" nType="0">
          <Node pos="l" depth="2" NCoef="0" IVar="-1" Cut="0.0000000000000000e+00" cType="1" res="6.1589302495121956e-03" rms="3.5038921236991882e-01" purity="7.3414331674575806e-01" nType="-99"/>
          <Node pos="r" depth="2" NCoef="0" IVar="-1" Cut="0.0000000000000000e+00" cType="1" res="-1.5171900391578674e-02" rms="2.7188065648078918e-01" purity="1.5660861134529114e-01" nType="-99"/>
        </Node>
      </Node>
    </BinaryTree>
    <BinaryTree type="DecisionTree" boostWeight="1.0000000000000000e+00" itree="52">
      <Node pos="s" depth="0" NCoef="0" IVar="1" Cut="9.0792727470397949e-01" cType="0" res="4.3935198336839676e-02" rms="2.9617378115653992e-01" purity="5.8828598260879517e-01" nType="0">
        <Node pos="l" depth="1" NCoef="0" IVar="-1" Cut="0.0000000000000000e+00" cType="1" res="1.2073259800672531e-02" rms="2.6000177860260010e-01" purity="8.4327781200408936e-01" nType="-99"/>
        <Node pos="r" depth="1" NCoef="0" IVar="14" Cut="8.2431995868682861e-01" cType="1" res="-2.6168568059802055e-02" rms="3.1069162487983704e-01" purity="3.4817391633987427e-01" nType="0">
          <Node pos="l" depth="2" NCoef="0" IVar="-1" Cut="0.0000000000000000e+00" cType="1" res="4.5917374081909657e-03" rms="3.2769057154655457e-01" purity="5.9714430570602417e-01" nType="-99"/>
          <Node pos="r" depth="2" NCoef="0" IVar="-1" Cut="0.0000000000000000e+00" cType="1" res="-1.5259325504302979e-02" rms="2.8691735863685608e-01" purity="1.7542360723018646e-01" nType="-99"/>
        </Node>
      </Node>
    </BinaryTree>
    <BinaryTree type="DecisionTree" boostWeight="1.0000000000000000e+00" itree="53">
      <Node pos="s" depth="0" NCoef="0" IVar="2" Cut="2.9450383037328720e-02" cType="1" res="4.2877446860074997e-02" rms="2.9515647888183594e-01" purity="5.8828598260879517e-01" nType="0">
        <Node pos="l" depth="1" NCoef="0" IVar="-1" Cut="0.0000000000000000e+00" cType="1" res="8.6992606520652771e-03" rms="3.0001232028007507e-01" purity="7.8635102510452271e-01" nType="-99"/>
        <Node pos="r" depth="1" NCoef="0" IVar="16" Cut="3.4088444709777832e+00" cType="1" res="-6.7898496985435486e-02" rms="2.5052702426910400e-01" purity="1.0469295829534531e-01" nType="0">
          <Node pos="l" depth="2" NCoef="0" IVar="-1" Cut="0.0000000000000000e+00" cType="1" res="-1.1838693171739578e-02" rms="3.7207889556884766e-01" purity="2.8394478559494019e-01" nType="-99"/>
          <Node pos="r" depth="2" NCoef="0" IVar="-1" Cut="0.0000000000000000e+00" cType="1" res="-2.1817293018102646e-02" rms="1.7807123064994812e-01" purity="3.6541525274515152e-02" nType="-99"/>
        </Node>
      </Node>
    </BinaryTree>
    <BinaryTree type="DecisionTree" boostWeight="1.0000000000000000e+00" itree="54">
      <Node pos="s" depth="0" NCoef="0" IVar="16" Cut="1.9884926080703735e+00" cType="1" res="4.1829142719507217e-02" rms="2.9449984431266785e-01" purity="5.8828598260879517e-01" nType="0">
        <Node pos="l" depth="1" NCoef="0" IVar="-1" Cut="0.0000000000000000e+00" cType="1" res="9.8346518352627754e-03" rms="2.7064180374145508e-01" purity="8.6858254671096802e-01" nType="-99"/>
        <Node pos="r" depth="1" NCoef="0" IVar="16" Cut="5.3854255676269531e+00" cType="1" res="-3.4297406673431396e-02" rms="3.0342569947242737e-01" purity="2.5541484355926514e-01" nType="0">
          <Node pos="l" depth="2" NCoef="0" IVar="-1" Cut="0.0000000000000000e+00" cType="1" res="2.0722451154142618e-03" rms="3.6356437206268311e-01" purity="5.3626525402069092e-01" nType="-99"/>
          <Node pos="r" depth="2" NCoef="0" IVar="-1" Cut="0.0000000000000000e+00" cType="1" res="-1.9040765240788460e-02" rms="2.5610119104385376e-01" purity="8.9131928980350494e-02" nType="-99"/>
        </Node>
      </Node>
    </BinaryTree>
    <BinaryTree type="DecisionTree" boostWeight="1.0000000000000000e+00" itree="55">
      <Node pos="s" depth="0" NCoef="0" IVar="14" Cut="1.8547198772430420e+00" cType="1" res="4.1098099201917648e-02" rms="2.9371082782745361e-01" purity="5.8828598260879517e-01" nType="0">
        <Node pos="l" depth="1" NCoef="0" IVar="-1" Cut="0.0000000000000000e+00" cType="1" res="9.0809045359492302e-03" rms="2.7805098891258240e-01" purity="7.5125598907470703e-01" nType="-99"/>
        <Node pos="r" depth="1" NCoef="0" IVar="5" Cut="8.8618850708007812e-01" cType="0" res="-5.5293038487434387e-02" rms="3.0021211504936218e-01" purity="2.6392367482185364e-01" nType="0">
          <Node pos="l" depth="2" NCoef="0" IVar="-1" Cut="0.0000000000000000e+00" cType="1" res="7.4717490933835506e-03" rms="3.2933455705642700e-01" purity="8.2661825418472290e-01" nType="-99"/>
          <Node pos="r" depth="2" NCoef="0" IVar="-1" Cut="0.0000000000000000e+00" cType="1" res="-1.6082869842648506e-02" rms="2.8924086689949036e-01" purity="1.6165228188037872e-01" nType="-99"/>
        </Node>
      </Node>
    </BinaryTree>
    <BinaryTree type="DecisionTree" boostWeight="1.0000000000000000e+00" itree="56">
      <Node pos="s" depth="0" NCoef="0" IVar="12" Cut="4.9402065277099609e+00" cType="1" res="4.0164146572351456e-02" rms="2.9284480214118958e-01" purity="5.8828598260879517e-01" nType="0">
        <Node pos="l" depth="1" NCoef="0" IVar="-1" Cut="0.0000000000000000e+00" cType="1" res="9.9195288494229317e-03" rms="2.7231854200363159e-01" purity="8.1147301197052002e-01" nType="-99"/>
        <Node pos="r" depth="1" NCoef="0" IVar="2" Cut="2.5245806202292442e-02" cType="1" res="-3.2868847250938416e-02" rms="2.9937270283699036e-01" purity="3.2447481155395508e-01" nType="0">
          <Node pos="l" depth="2" NCoef="0" IVar="-1" Cut="0.0000000000000000e+00" cType="1" res="5.5434773676097393e-03" rms="3.4644174575805664e-01" purity="7.3485428094863892e-01" nType="-99"/>
          <Node pos="r" depth="2" NCoef="0" IVar="-1" Cut="0.0000000000000000e+00" cType="1" res="-1.4227651990950108e-02" rms="2.6931864023208618e-01" purity="1.4896664023399353e-01" nType="-99"/>
        </Node>
      </Node>
    </BinaryTree>
    <BinaryTree type="DecisionTree" boostWeight="1.0000000000000000e+00" itree="57">
      <Node pos="s" depth="0" NCoef="0" IVar="15" Cut="1.1108642816543579e+00" cType="1" res="3.9226390421390533e-02" rms="2.9206737875938416e-01" purity="5.8828598260879517e-01" nType="0">
        <Node pos="l" depth="1" NCoef="0" IVar="-1" Cut="0.0000000000000000e+00" cType="1" res="8.7961070239543915e-03" rms="2.8375673294067383e-01" purity="7.8766489028930664e-01" nType="-99"/>
        <Node pos="r" depth="1" NCoef="0" IVar="10" Cut="2.7463162317872047e-02" cType="1" res="-5.1093749701976776e-02" rms="2.8605288267135620e-01" purity="2.1280199289321899e-01" nType="0">
          <Node pos="l" depth="2" NCoef="0" IVar="-1" Cut="0.0000000000000000e+00" cType="1" res="2.6854376774281263e-03" rms="3.5337033867835999e-01" purity="5.7769244909286499e-01" nType="-99"/>
          <Node pos="r" depth="2" NCoef="0" IVar="-1" Cut="0.0000000000000000e+00" cType="1" res="-1.5468397177755833e-02" rms="2.6853299140930176e-01" purity="1.4199228584766388e-01" nType="-99"/>
        </Node>
      </Node>
    </BinaryTree>
    <BinaryTree type="DecisionTree" boostWeight="1.0000000000000000e+00" itree="58">
      <Node pos="s" depth="0" NCoef="0" IVar="5" Cut="7.9963827133178711e-01" cType="0" res="3.8345459848642349e-02" rms="2.9138019680976868e-01" purity="5.8828598260879517e-01" nType="0">
        <Node pos="l" depth="1" NCoef="0" IVar="-1" Cut="0.0000000000000000e+00" cType="1" res="9.7842896357178688e-03" rms="2.8059670329093933e-01" purity="8.2432526350021362e-01" nType="-99"/>
        <Node pos="r" depth="1" NCoef="0" IVar="9" Cut="1.9559200853109360e-02" cType="1" res="-3.6213565617799759e-02" rms="2.8857821226119995e-01" purity="2.7661922574043274e-01" nType="0">
          <Node pos="l" depth="2" NCoef="0" IVar="-1" Cut="0.0000000000000000e+00" cType="1" res="4.6310434117913246e-03" rms="3.3636677265167236e-01" purity="5.3796917200088501e-01" nType="-99"/>
          <Node pos="r" depth="2" NCoef="0" IVar="-1" Cut="0.0000000000000000e+00" cType="1" res="-1.6812980175018311e-02" rms="2.5141933560371399e-01" purity="1.4388538897037506e-01" nType="-99"/>
        </Node>
      </Node>
    </BinaryTree>
    <BinaryTree type="DecisionTree" boostWeight="1.0000000000000000e+00" itree="59">
      <Node pos="s" depth="0" NCoef="0" IVar="14" Cut="2.2668797969818115e+00" cType="1" res="3.7421334534883499e-02" rms="2.9056647419929504e-01" purity="5.8828598260879517e-01" nType="0">
        <Node pos="l" depth="1" NCoef="0" IVar="-1" Cut="0.0000000000000000e+00" cType="1" res="8.2719149067997932e-03" rms="2.7898523211479187e-01" purity="7.3695784807205200e-01" nType="-99"/>
        <Node pos="r" depth="1" NCoef="0" IVar="5" Cut="8.9414393901824951e-01" cType="0" res="-6.1632663011550903e-02" rms="2.9430344700813293e-01" purity="2.2689583897590637e-01" nType="0">
          <Node pos="l" depth="2" NCoef="0" IVar="-1" Cut="0.0000000000000000e+00" cType="1" res="6.2542525120079517e-03" rms="3.3540385961532593e-01" purity="8.2262378931045532e-01" nType="-99"/>
          <Node pos="r" depth="2" NCoef="0" IVar="-1" Cut="0.0000000000000000e+00" cType="1" res="-1.6676252707839012e-02" rms="2.8576880693435669e-01" purity="1.5367351472377777e-01" nType="-99"/>
        </Node>
      </Node>
    </BinaryTree>
    <BinaryTree type="DecisionTree" boostWeight="1.0000000000000000e+00" itree="60">
      <Node pos="s" depth="0" NCoef="0" IVar="1" Cut="9.1910117864608765e-01" cType="0" res="3.6570556461811066e-02" rms="2.8982079029083252e-01" purity="5.8828598260879517e-01" nType="0">
        <Node pos="l" depth="1" NCoef="0" IVar="-1" Cut="0.0000000000000000e+00" cType="1" res="1.1570878326892853e-02" rms="2.5056332349777222e-01" purity="8.5964560508728027e-01" nType="-99"/>
        <Node pos="r" depth="1" NCoef="0" IVar="14" Cut="8.2431995868682861e-01" cType="1" res="-2.0227447152137756e-02" rms="3.0714860558509827e-01" purity="3.6463502049446106e-01" nType="0">
          <Node pos="l" depth="2" NCoef="0" IVar="-1" Cut="0.0000000000000000e+00" cType="1" res="4.1876025497913361e-03" rms="3.2182118296623230e-01" purity="6.1188763380050659e-01" nType="-99"/>
          <Node pos="r" depth="2" NCoef="0" IVar="-1" Cut="0.0000000000000000e+00" cType="1" res="-1.2753564864397049e-02" rms="2.8810760378837585e-01" purity="1.8988628685474396e-01" nType="-99"/>
        </Node>
      </Node>
    </BinaryTree>
    <BinaryTree type="DecisionTree" boostWeight="1.0000000000000000e+00" itree="61">
      <Node pos="s" depth="0" NCoef="0" IVar="16" Cut="1.9884926080703735e+00" cType="1" res="3.5675197839736938e-02" rms="2.8906869888305664e-01" purity="5.8828598260879517e-01" nType="0">
        <Node pos="l" depth="1" NCoef="0" IVar="-1" Cut="0.0000000000000000e+00" cType="1" res="9.0819671750068665e-03" rms="2.6654273271560669e-01" purity="8.6858254671096802e-01" nType="-99"/>
        <Node pos="r" depth="1" NCoef="0" IVar="15" Cut="9.5216941833496094e-01" cType="1" res="-3.1586647033691406e-02" rms="3.0015027523040771e-01" purity="2.5541484355926514e-01" nType="0">
          <Node pos="l" depth="2" NCoef="0" IVar="-1" Cut="0.0000000000000000e+00" cType="1" res="2.5880148168653250e-03" rms="3.4189784526824951e-01" purity="4.8099559545516968e-01" nType="-99"/>
          <Node pos="r" depth="2" NCoef="0" IVar="-1" Cut="0.0000000000000000e+00" cType="1" res="-1.3088754378259182e-02" rms="2.7480384707450867e-01" purity="1.4874315261840820e-01" nType="-99"/>
        </Node>
      </Node>
    </BinaryTree>
    <BinaryTree type="DecisionTree" boostWeight="1.0000000000000000e+00" itree="62">
      <Node pos="s" depth="0" NCoef="0" IVar="2" Cut="2.6347976177930832e-02" cType="1" res="3.4925546497106552e-02" rms="2.8850817680358887e-01" purity="5.8828598260879517e-01" nType="0">
        <Node pos="l" depth="1" NCoef="0" IVar="-1" Cut="0.0000000000000000e+00" cType="1" res="9.6213519573211670e-03" rms="2.7941557765007019e-01" purity="8.4603297710418701e-01" nType="-99"/>
        <Node pos="r" depth="1" NCoef="0" IVar="4" Cut="7.2601115703582764e-01" cType="0" res="-3.4857820719480515e-02" rms="2.8565564751625061e-01" purity="2.4465584754943848e-01" nType="0">
          <Node pos="l" depth="2" NCoef="0" IVar="-1" Cut="0.0000000000000000e+00" cType="1" res="4.4644405134022236e-03" rms="3.4154847264289856e-01" purity="6.5465807914733887e-01" nType="-99"/>
          <Node pos="r" depth="2" NCoef="0" IVar="-1" Cut="0.0000000000000000e+00" cType="1" res="-1.1295169591903687e-02" rms="2.6596465706825256e-01" purity="1.4644935727119446e-01" nType="-99"/>
        </Node>
      </Node>
    </BinaryTree>
    <BinaryTree type="DecisionTree" boostWeight="1.0000000000000000e+00" itree="63">
      <Node pos="s" depth="0" NCoef="0" IVar="12" Cut="4.9190034866333008e+00" cType="1" res="3.3942706882953644e-02" rms="2.8795120120048523e-01" purity="5.8828598260879517e-01" nType="0">
        <Node pos="l" depth="1" NCoef="0" IVar="-1" Cut="0.0000000000000000e+00" cType="1" res="9.1324225068092346e-03" rms="2.6936948299407959e-01" purity="8.1212687492370605e-01" nType="-99"/>
        <Node pos="r" depth="1" NCoef="0" IVar="2" Cut="2.4837594479322433e-02" cType="1" res="-3.0352802947163582e-02" rms="2.9565951228141785e-01" purity="3.2556620240211487e-01" nType="0">
          <Node pos="l" depth="2" NCoef="0" IVar="-1" Cut="0.0000000000000000e+00" cType="1" res="5.4438682273030281e-03" rms="3.3983460068702698e-01" purity="7.4811983108520508e-01" nType="-99"/>
          <Node pos="r" depth="2" NCoef="0" IVar="-1" Cut="0.0000000000000000e+00" cType="1" res="-1.2093776836991310e-02" rms="2.7259641885757446e-01" purity="1.7179228365421295e-01" nType="-99"/>
        </Node>
      </Node>
    </BinaryTree>
    <BinaryTree type="DecisionTree" boostWeight="1.0000000000000000e+00" itree="64">
      <Node pos="s" depth="0" NCoef="0" IVar="16" Cut="1.9884926080703735e+00" cType="1" res="3.3145304769277573e-02" rms="2.8736171126365662e-01" purity="5.8828598260879517e-01" nType="0">
        <Node pos="l" depth="1" NCoef="0" IVar="-1" Cut="0.0000000000000000e+00" cType="1" res="8.7485536932945251e-03" rms="2.6544246077537537e-01" purity="8.6858254671096802e-01" nType="-99"/>
        <Node pos="r" depth="1" NCoef="0" IVar="16" Cut="5.3854255676269531e+00" cType="1" res="-3.0403647571802139e-02" rms="2.9921144247055054e-01" purity="2.5541484355926514e-01" nType="0">
          <Node pos="l" depth="2" NCoef="0" IVar="-1" Cut="0.0000000000000000e+00" cType="1" res="1.6116661718115211e-03" rms="3.5683041810989380e-01" purity="5.3626525402069092e-01" nType="-99"/>
          <Node pos="r" depth="2" NCoef="0" IVar="-1" Cut="0.0000000000000000e+00" cType="1" res="-1.7466735094785690e-02" rms="2.5542616844177246e-01" purity="8.9131928980350494e-02" nType="-99"/>
        </Node>
      </Node>
    </BinaryTree>
    <BinaryTree type="DecisionTree" boostWeight="1.0000000000000000e+00" itree="65">
      <Node pos="s" depth="0" NCoef="0" IVar="14" Cut="1.8547198772430420e+00" cType="1" res="3.2592888921499252e-02" rms="2.8678876161575317e-01" purity="5.8828598260879517e-01" nType="0">
        <Node pos="l" depth="1" NCoef="0" IVar="-1" Cut="0.0000000000000000e+00" cType="1" res="8.0065764486789703e-03" rms="2.7345651388168335e-01" purity="7.5125598907470703e-01" nType="-99"/>
        <Node pos="r" depth="1" NCoef="0" IVar="5" Cut="8.8618850708007812e-01" cType="0" res="-4.7991942614316940e-02" rms="2.9556304216384888e-01" purity="2.6392367482185364e-01" nType="0">
          <Node pos="l" depth="2" NCoef="0" IVar="-1" Cut="0.0000000000000000e+00" cType="1" res="5.5849533528089523e-03" rms="3.2655617594718933e-01" purity="8.2661825418472290e-01" nType="-99"/>
          <Node pos="r" depth="2" NCoef="0" IVar="-1" Cut="0.0000000000000000e+00" cType="1" res="-1.4245919883251190e-02" rms="2.8631445765495300e-01" purity="1.6165228188037872e-01" nType="-99"/>
        </Node>
      </Node>
    </BinaryTree>
    <BinaryTree type="DecisionTree" boostWeight="1.0000000000000000e+00" itree="66">
      <Node pos="s" depth="0" NCoef="0" IVar="1" Cut="9.0301072597503662e-01" cType="0" res="3.1853247433900833e-02" rms="2.8618630766868591e-01" purity="5.8828598260879517e-01" nType="0">
        <Node pos="l" depth="1" NCoef="0" IVar="-1" Cut="0.0000000000000000e+00" cType="1" res="1.0259862989187241e-02" rms="2.5702270865440369e-01" purity="8.3615177869796753e-01" nType="-99"/>
        <Node pos="r" depth="1" NCoef="0" IVar="9" Cut="1.9592218101024628e-02" cType="1" res="-2.4428479373455048e-02" rms="3.0211699008941650e-01" purity="3.4217289090156555e-01" nType="0">
          <Node pos="l" depth="2" NCoef="0" IVar="-1" Cut="0.0000000000000000e+00" cType="1" res="3.8761137984693050e-03" rms="3.4162354469299316e-01" purity="5.7755911350250244e-01" nType="-99"/>
          <Node pos="r" depth="2" NCoef="0" IVar="-1" Cut="0.0000000000000000e+00" cType="1" res="-1.1284537613391876e-02" rms="2.7035856246948242e-01" purity="2.0567348599433899e-01" nType="-99"/>
        </Node>
      </Node>
    </BinaryTree>
    <BinaryTree type="DecisionTree" boostWeight="1.0000000000000000e+00" itree="67">
      <Node pos="s" depth="0" NCoef="0" IVar="15" Cut="1.1108642816543579e+00" cType="1" res="3.0975542962551117e-02" rms="2.8562793135643005e-01" purity="5.8828598260879517e-01" nType="0">
        <Node pos="l" depth="1" NCoef="0" IVar="-1" Cut="0.0000000000000000e+00" cType="1" res="7.7512077987194061e-03" rms="2.7877166867256165e-01" purity="7.8766489028930664e-01" nType="-99"/>
        <Node pos="r" depth="1" NCoef="0" IVar="5" Cut="9.0845501422882080e-01" cType="0" res="-4.4833797961473465e-02" rms="2.8297045826911926e-01" purity="2.1280199289321899e-01" nType="0">
          <Node pos="l" depth="2" NCoef="0" IVar="-1" Cut="0.0000000000000000e+00" cType="1" res="5.3264950402081013e-03" rms="3.3820617198944092e-01" purity="8.1594371795654297e-01" nType="-99"/>
          <Node pos="r" depth="2" NCoef="0" IVar="-1" Cut="0.0000000000000000e+00" cType="1" res="-1.1603066697716713e-02" rms="2.7710083127021790e-01" purity="1.6824750602245331e-01" nType="-99"/>
        </Node>
      </Node>
    </BinaryTree>
    <BinaryTree type="DecisionTree" boostWeight="1.0000000000000000e+00" itree="68">
      <Node pos="s" depth="0" NCoef="0" IVar="12" Cut="5.5692167282104492e+00" cType="1" res="3.0249174684286118e-02" rms="2.8517237305641174e-01" purity="5.8828598260879517e-01" nType="0">
        <Node pos="l" depth="1" NCoef="0" IVar="-1" Cut="0.0000000000000000e+00" cType="1" res="8.2122189924120903e-03" rms="2.7409997582435608e-01" purity="7.8767132759094238e-01" nType="-99"/>
        <Node pos="r" depth="1" NCoef="0" IVar="9" Cut="2.1139340475201607e-02" cType="1" res="-3.6328393965959549e-02" rms="2.8839898109436035e-01" purity="2.9043853282928467e-01" nType="0">
          <Node pos="l" depth="2" NCoef="0" IVar="-1" Cut="0.0000000000000000e+00" cType="1" res="3.0138834845274687e-03" rms="3.3936673402786255e-01" purity="5.1886129379272461e-01" nType="-99"/>
          <Node pos="r" depth="2" NCoef="0" IVar="-1" Cut="0.0000000000000000e+00" cType="1" res="-1.6686517745256424e-02" rms="2.4993504583835602e-01" purity="1.6441372036933899e-01" nType="-99"/>
        </Node>
      </Node>
    </BinaryTree>
    <BinaryTree type="DecisionTree" boostWeight="1.0000000000000000e+00" itree="69">
      <Node pos="s" depth="0" NCoef="0" IVar="14" Cut="2.4729597568511963e+00" cType="1" res="2.9594721272587776e-02" rms="2.8458169102668762e-01" purity="5.8828598260879517e-01" nType="0">
        <Node pos="l" depth="1" NCoef="0" IVar="-1" Cut="0.0000000000000000e+00" cType="1" res="7.1408152580261230e-03" rms="2.7562814950942993e-01" purity="7.3025178909301758e-01" nType="-99"/>
        <Node pos="r" depth="1" NCoef="0" IVar="16" Cut="3.6929147243499756e+00" cType="1" res="-5.7627245783805847e-02" rms="2.8954654932022095e-01" purity="2.1121641993522644e-01" nType="0">
          <Node pos="l" depth="2" NCoef="0" IVar="-1" Cut="0.0000000000000000e+00" cType="1" res="-1.2448440305888653e-02" rms="3.5974714159965515e-01" purity="4.5255661010742188e-01" nType="-99"/>
          <Node pos="r" depth="2" NCoef="0" IVar="-1" Cut="0.0000000000000000e+00" cType="1" res="-1.3150525279343128e-02" rms="2.3735764622688293e-01" purity="7.3133505880832672e-02" nType="-99"/>
        </Node>
      </Node>
    </BinaryTree>
    <BinaryTree type="DecisionTree" boostWeight="1.0000000000000000e+00" itree="70">
      <Node pos="s" depth="0" NCoef="0" IVar="1" Cut="9.2133593559265137e-01" cType="0" res="2.8902186080813408e-02" rms="2.8410980105400085e-01" purity="5.8828598260879517e-01" nType="0">
        <Node pos="l" depth="1" NCoef="0" IVar="-1" Cut="0.0000000000000000e+00" cType="1" res="1.0536073707044125e-02" rms="2.4634106457233429e-01" purity="8.6299598217010498e-01" nType="-99"/>
        <Node pos="r" depth="1" NCoef="0" IVar="14" Cut="8.2431995868682861e-01" cType="1" res="-1.8316227942705154e-02" rms="3.0286648869514465e-01" purity="3.6853322386741638e-01" nType="0">
          <Node pos="l" depth="2" NCoef="0" IVar="-1" Cut="0.0000000000000000e+00" cType="1" res="3.5308625083416700e-03" rms="3.1736671924591064e-01" purity="6.1539322137832642e-01" nType="-99"/>
          <Node pos="r" depth="2" NCoef="0" IVar="-1" Cut="0.0000000000000000e+00" cType="1" res="-1.1374124325811863e-02" rms="2.8630527853965759e-01" purity="1.9331625103950500e-01" nType="-99"/>
        </Node>
      </Node>
    </BinaryTree>
    <BinaryTree type="DecisionTree" boostWeight="1.0000000000000000e+00" itree="71">
      <Node pos="s" depth="0" NCoef="0" IVar="16" Cut="1.9884926080703735e+00" cType="1" res="2.8200576081871986e-02" rms="2.8357183933258057e-01" purity="5.8828598260879517e-01" nType="0">
        <Node pos="l" depth="1" NCoef="0" IVar="-1" Cut="0.0000000000000000e+00" cType="1" res="8.0745732411742210e-03" rms="2.6253980398178101e-01" purity="8.6858254671096802e-01" nType="-99"/>
        <Node pos="r" depth="1" NCoef="0" IVar="16" Cut="5.9515790939331055e+00" cType="1" res="-2.8465036302804947e-02" rms="2.9688102006912231e-01" purity="2.5541484355926514e-01" nType="0">
          <Node pos="l" depth="2" NCoef="0" IVar="-1" Cut="0.0000000000000000e+00" cType="1" res="9.7371428273618221e-04" rms="3.5150799155235291e-01" purity="5.1209914684295654e-01" nType="-99"/>
          <Node pos="r" depth="2" NCoef="0" IVar="-1" Cut="0.0000000000000000e+00" cType="1" res="-1.7450934275984764e-02" rms="2.5081935524940491e-01" purity="8.3538003265857697e-02" nType="-99"/>
        </Node>
      </Node>
    </BinaryTree>
    <BinaryTree type="DecisionTree" boostWeight="1.0000000000000000e+00" itree="72">
      <Node pos="s" depth="0" NCoef="0" IVar="2" Cut="2.6347976177930832e-02" cType="1" res="2.7757627889513969e-02" rms="2.8309932351112366e-01" purity="5.8828598260879517e-01" nType="0">
        <Node pos="l" depth="1" NCoef="0" IVar="-1" Cut="0.0000000000000000e+00" cType="1" res="8.6056571453809738e-03" rms="2.7588528394699097e-01" purity="8.4603297710418701e-01" nType="-99"/>
        <Node pos="r" depth="1" NCoef="0" IVar="4" Cut="7.2601115703582764e-01" cType="0" res="-3.1546838581562042e-02" rms="2.8172045946121216e-01" purity="2.4465584754943848e-01" nType="0">
          <Node pos="l" depth="2" NCoef="0" IVar="-1" Cut="0.0000000000000000e+00" cType="1" res="3.7726541049778461e-03" rms="3.3778485655784607e-01" purity="6.5465807914733887e-01" nType="-99"/>
          <Node pos="r" depth="2" NCoef="0" IVar="-1" Cut="0.0000000000000000e+00" cType="1" res="-1.0376214049756527e-02" rms="2.6327741146087646e-01" purity="1.4644935727119446e-01" nType="-99"/>
        </Node>
      </Node>
    </BinaryTree>
    <BinaryTree type="DecisionTree" boostWeight="1.0000000000000000e+00" itree="73">
      <Node pos="s" depth="0" NCoef="0" IVar="12" Cut="4.7917881011962891e+00" cType="1" res="2.6973046362400055e-02" rms="2.8269544243812561e-01" purity="5.8828598260879517e-01" nType="0">
        <Node pos="l" depth="1" NCoef="0" IVar="-1" Cut="0.0000000000000000e+00" cType="1" res="8.2045905292034149e-03" rms="2.6510509848594666e-01" purity="8.1583434343338013e-01" nType="-99"/>
        <Node pos="r" depth="1" NCoef="0" IVar="2" Cut="2.4633489549160004e-02" cType="1" res="-2.6000699028372765e-02" rms="2.9230320453643799e-01" purity="3.3259019255638123e-01" nType="0">
          <Node pos="l" depth="2" NCoef="0" IVar="-1" Cut="0.0000000000000000e+00" cType="1" res="5.2755796350538731e-03" rms="3.3285841345787048e-01" purity="7.5763362646102905e-01" nType="-99"/>
          <Node pos="r" depth="2" NCoef="0" IVar="-1" Cut="0.0000000000000000e+00" cType="1" res="-1.0328515432775021e-02" rms="2.7345737814903259e-01" purity="1.8878196179866791e-01" nType="-99"/>
        </Node>
      </Node>
    </BinaryTree>
    <BinaryTree type="DecisionTree" boostWeight="1.0000000000000000e+00" itree="74">
      <Node pos="s" depth="0" NCoef="0" IVar="15" Cut="9.5216941833496094e-01" cType="1" res="2.6341147720813751e-02" rms="2.8227558732032776e-01" purity="5.8828598260879517e-01" nType="0">
        <Node pos="l" depth="1" NCoef="0" IVar="-1" Cut="0.0000000000000000e+00" cType="1" res="7.2751557454466820e-03" rms="2.7493408322334290e-01" purity="7.9057115316390991e-01" nType="-99"/>
        <Node pos="r" depth="1" NCoef="0" IVar="10" Cut="2.9169421643018723e-02" cType="1" res="-3.9105024188756943e-02" rms="2.8304603695869446e-01" purity="2.3401160538196564e-01" nType="0">
          <Node pos="l" depth="2" NCoef="0" IVar="-1" Cut="0.0000000000000000e+00" cType="1" res="1.5809991164132953e-03" rms="3.3977803587913513e-01" purity="5.8382660150527954e-01" nType="-99"/>
          <Node pos="r" depth="2" NCoef="0" IVar="-1" Cut="0.0000000000000000e+00" cType="1" res="-1.2830750085413456e-02" rms="2.6617255806922913e-01" purity="1.5033130347728729e-01" nType="-99"/>
        </Node>
      </Node>
    </BinaryTree>
    <BinaryTree type="DecisionTree" boostWeight="1.0000000000000000e+00" itree="75">
      <Node pos="s" depth="0" NCoef="0" IVar="14" Cut="1.6486399173736572e+00" cType="1" res="2.5758419185876846e-02" rms="2.8187644481658936e-01" purity="5.8828598260879517e-01" nType="0">
        <Node pos="l" depth="1" NCoef="0" IVar="-1" Cut="0.0000000000000000e+00" cType="1" res="7.2561842389404774e-03" rms="2.6845145225524902e-01" purity="7.5870710611343384e-01" nType="-99"/>
        <Node pos="r" depth="1" NCoef="0" IVar="1" Cut="9.4368362426757812e-01" cType="0" res="-3.9037790149450302e-02" rms="2.9333546757698059e-01" purity="2.8498029708862305e-01" nType="0">
          <Node pos="l" depth="2" NCoef="0" IVar="-1" Cut="0.0000000000000000e+00" cType="1" res="3.3660803455859423e-03" rms="3.2673105597496033e-01" purity="7.1372944116592407e-01" nType="-99"/>
          <Node pos="r" depth="2" NCoef="0" IVar="-1" Cut="0.0000000000000000e+00" cType="1" res="-1.3599720783531666e-02" rms="2.8052264451980591e-01" purity="1.6498991847038269e-01" nType="-99"/>
        </Node>
      </Node>
    </BinaryTree>
    <BinaryTree type="DecisionTree" boostWeight="1.0000000000000000e+00" itree="76">
      <Node pos="s" depth="0" NCoef="0" IVar="2" Cut="2.9940236359834671e-02" cType="1" res="2.5214252993464470e-02" rms="2.8141215443611145e-01" purity="5.8828598260879517e-01" nType="0">
        <Node pos="l" depth="1" NCoef="0" IVar="-1" Cut="0.0000000000000000e+00" cType="1" res="6.3905720598995686e-03" rms="2.9041475057601929e-01" purity="7.7738016843795776e-01" nType="-99"/>
        <Node pos="r" depth="1" NCoef="0" IVar="16" Cut="3.4088444709777832e+00" cType="1" res="-5.1892753690481186e-02" rms="2.3993514478206635e-01" purity="9.6327297389507294e-02" nType="0">
          <Node pos="l" depth="2" NCoef="0" IVar="-1" Cut="0.0000000000000000e+00" cType="1" res="-1.2764463201165199e-02" rms="3.5170289874076843e-01" purity="2.6441109180450439e-01" nType="-99"/>
          <Node pos="r" depth="2" NCoef="0" IVar="-1" Cut="0.0000000000000000e+00" cType="1" res="-1.5720846131443977e-02" rms="1.7396947741508484e-01" purity="3.4700687974691391e-02" nType="-99"/>
        </Node>
      </Node>
    </BinaryTree>
    <BinaryTree type="DecisionTree" boostWeight="1.0000000000000000e+00" itree="77">
      <Node pos="s" depth="0" NCoef="0" IVar="1" Cut="8.9809423685073853e-01" cType="0" res="2.4591417983174324e-02" rms="2.8108280897140503e-01" purity="5.8828598260879517e-01" nType="0">
        <Node pos="l" depth="1" NCoef="0" IVar="-1" Cut="0.0000000000000000e+00" cType="1" res="8.9506413787603378e-03" rms="2.5650361180305481e-01" purity="8.2919120788574219e-01" nType="-99"/>
        <Node pos="r" depth="1" NCoef="0" IVar="9" Cut="1.8329361453652382e-02" cType="1" res="-2.3607963696122169e-02" rms="2.9708534479141235e-01" purity="3.3669069409370422e-01" nType="0">
          <Node pos="l" depth="2" NCoef="0" IVar="-1" Cut="0.0000000000000000e+00" cType="1" res="3.7652286700904369e-03" rms="3.3934500813484192e-01" purity="5.9966742992401123e-01" nType="-99"/>
          <Node pos="r" depth="2" NCoef="0" IVar="-1" Cut="0.0000000000000000e+00" cType="1" res="-9.9107045680284500e-03" rms="2.7067083120346069e-01" purity="2.1331223845481873e-01" nType="-99"/>
        </Node>
      </Node>
    </BinaryTree>
    <BinaryTree type="DecisionTree" boostWeight="1.0000000000000000e+00" itree="78">
      <Node pos="s" depth="0" NCoef="0" IVar="16" Cut="1.9884926080703735e+00" cType="1" res="2.3917416110634804e-02" rms="2.8069120645523071e-01" purity="5.8828598260879517e-01" nType="0">
        <Node pos="l" depth="1" NCoef="0" IVar="-1" Cut="0.0000000000000000e+00" cType="1" res="7.4742608703672886e-03" rms="2.6020857691764832e-01" purity="8.6858254671096802e-01" nType="-99"/>
        <Node pos="r" depth="1" NCoef="0" IVar="15" Cut="1.5869489908218384e+00" cType="1" res="-2.7018940076231956e-02" rms="2.9523789882659912e-01" purity="2.5541484355926514e-01" nType="0">
          <Node pos="l" depth="2" NCoef="0" IVar="-1" Cut="0.0000000000000000e+00" cType="1" res="1.1443517869338393e-03" rms="3.3336263895034790e-01" purity="4.6630305051803589e-01" nType="-99"/>
          <Node pos="r" depth="2" NCoef="0" IVar="-1" Cut="0.0000000000000000e+00" cType="1" res="-1.2194633483886719e-02" rms="2.6972445845603943e-01" purity="1.3811971247196198e-01" nType="-99"/>
        </Node>
      </Node>
    </BinaryTree>
    <BinaryTree type="DecisionTree" boostWeight="1.0000000000000000e+00" itree="79">
      <Node pos="s" depth="0" NCoef="0" IVar="14" Cut="2.6790399551391602e+00" cType="1" res="2.3459395393729210e-02" rms="2.8034627437591553e-01" purity="5.8828598260879517e-01" nType="0">
        <Node pos="l" depth="1" NCoef="0" IVar="-1" Cut="0.0000000000000000e+00" cType="1" res="6.1746910214424133e-03" rms="2.7339297533035278e-01" purity="7.2382247447967529e-01" nType="-99"/>
        <Node pos="r" depth="1" NCoef="0" IVar="16" Cut="3.6929147243499756e+00" cType="1" res="-5.4101757705211639e-02" rms="2.8569898009300232e-01" purity="1.9659291207790375e-01" nType="0">
          <Node pos="l" depth="2" NCoef="0" IVar="-1" Cut="0.0000000000000000e+00" cType="1" res="-1.4297519810497761e-02" rms="3.5429838299751282e-01" purity="4.2600181698799133e-01" nType="-99"/>
          <Node pos="r" depth="2" NCoef="0" IVar="-1" Cut="0.0000000000000000e+00" cType="1" res="-1.0649032890796661e-02" rms="2.3566555976867676e-01" purity="7.1966417133808136e-02" nType="-99"/>
        </Node>
      </Node>
    </BinaryTree>
    <BinaryTree type="DecisionTree" boostWeight="1.0000000000000000e+00" itree="80">
      <Node pos="s" depth="0" NCoef="0" IVar="12" Cut="4.6080322265625000e+00" cType="1" res="2.2923035547137260e-02" rms="2.7996543049812317e-01" purity="5.8828598260879517e-01" nType="0">
        <Node pos="l" depth="1" NCoef="0" IVar="-1" Cut="0.0000000000000000e+00" cType="1" res="7.7200522646307945e-03" rms="2.6186531782150269e-01" purity="8.2055860757827759e-01" nType="-99"/>
        <Node pos="r" depth="1" NCoef="0" IVar="9" Cut="2.4265032261610031e-02" cType="1" res="-2.3571403697133064e-02" rms="2.9076364636421204e-01" purity="3.4270375967025757e-01" nType="0">
          <Node pos="l" depth="2" NCoef="0" IVar="-1" Cut="0.0000000000000000e+00" cType="1" res="1.8319677328690886e-03" rms="3.2666012644767761e-01" purity="5.1205927133560181e-01" nType="-99"/>
          <Node pos="r" depth="2" NCoef="0" IVar="-1" Cut="0.0000000000000000e+00" cType="1" res="-1.4797341078519821e-02" rms="2.4580773711204529e-01" purity="1.7769604921340942e-01" nType="-99"/>
        </Node>
      </Node>
    </BinaryTree>
    <BinaryTree type="DecisionTree" boostWeight="1.0000000000000000e+00" itree="81">
      <Node pos="s" depth="0" NCoef="0" IVar="16" Cut="1.9884926080703735e+00" cType="1" res="2.2455871105194092e-02" rms="2.7955952286720276e-01" purity="5.8828598260879517e-01" nType="0">
        <Node pos="l" depth="1" NCoef="0" IVar="-1" Cut="0.0000000000000000e+00" cType="1" res="7.2154039517045021e-03" rms="2.5939738750457764e-01" purity="8.6858254671096802e-01" nType="-99"/>
        <Node pos="r" depth="1" NCoef="0" IVar="16" Cut="4.8192725181579590e+00" cType="1" res="-2.5922669097781181e-02" rms="2.9452836513519287e-01" purity="2.5541484355926514e-01" nType="0">
          <Node pos="l" depth="2" NCoef="0" IVar="-1" Cut="0.0000000000000000e+00" cType="1" res="1.0947481496259570e-03" rms="3.4992352128028870e-01" purity="5.6341326236724854e-01" nType="-99"/>
          <Node pos="r" depth="2" NCoef="0" IVar="-1" Cut="0.0000000000000000e+00" cType="1" res="-1.4164903201162815e-02" rms="2.5957071781158447e-01" purity="9.6785284578800201e-02" nType="-99"/>
        </Node>
      </Node>
    </BinaryTree>
    <BinaryTree type="DecisionTree" boostWeight="1.0000000000000000e+00" itree="82">
      <Node pos="s" depth="0" NCoef="0" IVar="1" Cut="8.8423860073089600e-01" cType="0" res="2.2122455760836601e-02" rms="2.7921915054321289e-01" purity="5.8828598260879517e-01" nType="0">
        <Node pos="l" depth="1" NCoef="0" IVar="-1" Cut="0.0000000000000000e+00" cType="1" res="8.1828413531184196e-03" rms="2.5969690084457397e-01" purity="8.1074982881546021e-01" nType="-99"/>
        <Node pos="r" depth="1" NCoef="0" IVar="9" Cut="1.7066502943634987e-02" cType="1" res="-2.5892781093716621e-02" rms="2.9370549321174622e-01" purity="3.2314023375511169e-01" nType="0">
          <Node pos="l" depth="2" NCoef="0" IVar="-1" Cut="0.0000000000000000e+00" cType="1" res="3.9170249365270138e-03" rms="3.3928447961807251e-01" purity="6.2209808826446533e-01" nType="-99"/>
          <Node pos="r" depth="2" NCoef="0" IVar="-1" Cut="0.0000000000000000e+00" cType="1" res="-9.8361531272530556e-03" rms="2.7094525098800659e-01" purity="2.1132355928421021e-01" nType="-99"/>
        </Node>
      </Node>
    </BinaryTree>
    <BinaryTree type="DecisionTree" boostWeight="1.0000000000000000e+00" itree="83">
      <Node pos="s" depth="0" NCoef="0" IVar="2" Cut="2.6062229648232460e-02" cType="1" res="2.1524997428059578e-02" rms="2.7887126803398132e-01" purity="5.8828598260879517e-01" nType="0">
        <Node pos="l" depth="1" NCoef="0" IVar="-1" Cut="0.0000000000000000e+00" cType="1" res="7.8870495781302452e-03" rms="2.7145510911941528e-01" purity="8.5076612234115601e-01" nType="-99"/>
        <Node pos="r" depth="1" NCoef="0" IVar="4" Cut="6.9792008399963379e-01" cType="0" res="-2.5876922532916069e-02" rms="2.8027674555778503e-01" purity="2.7295076847076416e-01" nType="0">
          <Node pos="l" depth="2" NCoef="0" IVar="-1" Cut="0.0000000000000000e+00" cType="1" res="2.9732252005487680e-03" rms="3.2744777202606201e-01" purity="6.3787794113159180e-01" nType="-99"/>
          <Node pos="r" depth="2" NCoef="0" IVar="-1" Cut="0.0000000000000000e+00" cType="1" res="-1.0056989267468452e-02" rms="2.5916162133216858e-01" purity="1.4716359972953796e-01" nType="-99"/>
        </Node>
      </Node>
    </BinaryTree>
    <BinaryTree type="DecisionTree" boostWeight="1.0000000000000000e+00" itree="84">
      <Node pos="s" depth="0" NCoef="0" IVar="15" Cut="9.5216941833496094e-01" cType="1" res="2.0922377705574036e-02" rms="2.7856132388114929e-01" purity="5.8828598260879517e-01" nType="0">
        <Node pos="l" depth="1" NCoef="0" IVar="-1" Cut="0.0000000000000000e+00" cType="1" res="6.4535443671047688e-03" rms="2.7194064855575562e-01" purity="7.9057115316390991e-01" nType="-99"/>
        <Node pos="r" depth="1" NCoef="0" IVar="12" Cut="3.4348216056823730e+00" cType="1" res="-3.5305377095937729e-02" rms="2.8109216690063477e-01" purity="2.3401160538196564e-01" nType="0">
