<?xml version="1.0"?>
<MethodSetup Method="BDT::BDT">
  <GeneralInfo>
    <Info name="TMVA Release" value="4.1.2 [262402]"/>
    <Info name="ROOT Release" value="5.32/04 [335876]"/>
    <Info name="Creator" value="rslu"/>
    <Info name="Date" value="Thu Jul 30 00:42:35 2015"/>
    <Info name="Host" value="Linux pcncu17.cern.ch 2.6.32-504.16.2.el6.x86_64 #1 SMP Tue Apr 21 21:44:51 CEST 2015 x86_64 x86_64 x86_64 GNU/Linux"/>
    <Info name="Dir" value="/data4/rslu/work/TMVA-v4.1.2_SLC6/spring15"/>
    <Info name="Training events" value="2676290"/>
    <Info name="TrainingTime" value="5.63465071e+03"/>
    <Info name="AnalysisType" value="Classification"/>
  </GeneralInfo>
  <Options>
    <Option name="V" modified="Yes">False</Option>
    <Option name="VerbosityLevel" modified="No">Default</Option>
    <Option name="VarTransform" modified="No">None</Option>
    <Option name="H" modified="Yes">False</Option>
    <Option name="CreateMVAPdfs" modified="No">False</Option>
    <Option name="IgnoreNegWeightsInTraining" modified="No">False</Option>
    <Option name="NTrees" modified="Yes">2000</Option>
    <Option name="RenormByClass" modified="No">False</Option>
    <Option name="BoostType" modified="Yes">Grad</Option>
    <Option name="AdaBoostR2Loss" modified="No">quadratic</Option>
    <Option name="UseBaggedGrad" modified="Yes">False</Option>
    <Option name="GradBaggingFraction" modified="No">6.000000e-01</Option>
    <Option name="Shrinkage" modified="Yes">1.000000e-01</Option>
    <Option name="AdaBoostBeta" modified="No">1.000000e+00</Option>
    <Option name="UseRandomisedTrees" modified="No">False</Option>
    <Option name="UseNvars" modified="Yes">4</Option>
    <Option name="UsePoissonNvars" modified="No">True</Option>
    <Option name="UseNTrainEvents" modified="No">2676290</Option>
    <Option name="UseWeightedTrees" modified="No">True</Option>
    <Option name="UseYesNoLeaf" modified="No">True</Option>
    <Option name="NodePurityLimit" modified="No">5.000000e-01</Option>
    <Option name="SeparationType" modified="No">giniindex</Option>
    <Option name="nEventsMin" modified="Yes">100</Option>
    <Option name="nCuts" modified="Yes">2000</Option>
    <Option name="UseFisherCuts" modified="No">False</Option>
    <Option name="MinLinCorrForFisher" modified="No">8.000000e-01</Option>
    <Option name="UseExclusiveVars" modified="No">False</Option>
    <Option name="PruneStrength" modified="Yes">5.000000e+00</Option>
    <Option name="PruneMethod" modified="Yes">costcomplexity</Option>
    <Option name="PruneBeforeBoost" modified="No">False</Option>
    <Option name="PruningValFraction" modified="No">5.000000e-01</Option>
    <Option name="NNodesMax" modified="Yes">5</Option>
    <Option name="MaxDepth" modified="Yes">6</Option>
    <Option name="DoBoostMonitor" modified="No">False</Option>
    <Option name="NegWeightTreatment" modified="No">ignorenegweights</Option>
  </Options>
  <Variables NVar="15">
    <Variable VarIndex="0" Expression="recoPhi" Label="recoPhi" Title="recoPhi" Unit="" Internal="recoPhi" Type="F" Min="-3.14159203e+00" Max="3.14159012e+00"/>
    <Variable VarIndex="1" Expression="r9" Label="r9" Title="r9" Unit="" Internal="r9" Type="F" Min="2.97084861e-02" Max="1.00000012e+00"/>
    <Variable VarIndex="2" Expression="sieieFull5x5" Label="sieieFull5x5" Title="sieieFull5x5" Unit="" Internal="sieieFull5x5" Type="F" Min="0.00000000e+00" Max="3.09440028e-02"/>
    <Variable VarIndex="3" Expression="sieipFull5x5" Label="sieipFull5x5" Title="sieipFull5x5" Unit="" Internal="sieipFull5x5" Type="F" Min="-7.85912969e-04" Max="7.20818469e-04"/>
    <Variable VarIndex="4" Expression="e1x3Full5x5/e5x5Full5x5" Label="s13" Title="s13" Unit="" Internal="s13" Type="F" Min="4.36371751e-02" Max="1.00000000e+00"/>
    <Variable VarIndex="5" Expression="e2x2Full5x5/e5x5Full5x5" Label="s4" Title="s4" Unit="" Internal="s4" Type="F" Min="6.95197880e-02" Max="1.00000000e+00"/>
    <Variable VarIndex="6" Expression="e2x5Full5x5/e5x5Full5x5" Label="s25" Title="s25" Unit="" Internal="s25" Type="F" Min="9.12169814e-02" Max="1.00000012e+00"/>
    <Variable VarIndex="7" Expression="recoSCEta" Label="recoSCEta" Title="recoSCEta" Unit="" Internal="recoSCEta" Type="F" Min="-1.44419837e+00" Max="1.44419885e+00"/>
    <Variable VarIndex="8" Expression="rawE" Label="rawE" Title="rawE" Unit="" Internal="rawE" Type="F" Min="3.53614736e+00" Max="1.70770923e+03"/>
    <Variable VarIndex="9" Expression="scEtaWidth" Label="scEtaWidth" Title="scEtaWidth" Unit="" Internal="scEtaWidth" Type="F" Min="6.27975169e-05" Max="1.01603687e+00"/>
    <Variable VarIndex="10" Expression="scPhiWidth" Label="scPhiWidth" Title="scPhiWidth" Unit="" Internal="scPhiWidth" Type="F" Min="2.78137741e-03" Max="1.64675260e+00"/>
    <Variable VarIndex="11" Expression="rho" Label="rho" Title="rho" Unit="" Internal="rho" Type="F" Min="0.00000000e+00" Max="5.91929779e+01"/>
    <Variable VarIndex="12" Expression="phoIsoRaw" Label="phoIsoRaw" Title="phoIsoRaw" Unit="" Internal="phoIsoRaw" Type="F" Min="0.00000000e+00" Max="6.43575378e+02"/>
    <Variable VarIndex="13" Expression="chIsoRaw" Label="chIsoRaw" Title="chIsoRaw" Unit="" Internal="chIsoRaw" Type="F" Min="0.00000000e+00" Max="5.82967590e+02"/>
    <Variable VarIndex="14" Expression="chWorstRaw" Label="chWorstRaw" Title="chWorstRaw" Unit="" Internal="chWorstRaw" Type="F" Min="0.00000000e+00" Max="2.32092383e+03"/>
  </Variables>
  <Spectators NSpec="2">
    <Spectator SpecIndex="0" Expression="recoPt" Label="recoPt" Title="pho Pt" Unit="units" Internal="recoPt" Type="F" Min="1.50000534e+01" Max="1.15209595e+03"/>
    <Spectator SpecIndex="1" Expression="recoEta" Label="recoEta" Title="pho Eta" Unit="units" Internal="recoEta" Type="F" Min="-1.49855685e+00" Max="1.49709070e+00"/>
  </Spectators>
  <Classes NClass="2">
    <Class Name="Signal" Index="0"/>
    <Class Name="Background" Index="1"/>
  </Classes>
  <Transformations NTransformations="0"/>
  <MVAPdfs/>
  <Weights NTrees="2000" AnalysisType="1">
    <BinaryTree type="DecisionTree" boostWeight="1.0000000000000000e+00" itree="0">
      <Node pos="s" depth="0" NCoef="0" IVar="14" Cut="3.4796459674835205e+00" cType="1" res="6.7725814878940582e-02" rms="4.9539196491241455e-01" purity="5.6772583723068237e-01" nType="0">
        <Node pos="l" depth="1" NCoef="0" IVar="-1" Cut="0.0000000000000000e+00" cType="1" res="1.1932339519262314e-02" rms="3.6667644977569580e-01" purity="8.3992409706115723e-01" nType="-99"/>
        <Node pos="r" depth="1" NCoef="0" IVar="5" Cut="8.8106852769851685e-01" cType="0" res="-3.0089738965034485e-01" rms="3.9932537078857422e-01" purity="1.9910261034965515e-01" nType="0">
          <Node pos="l" depth="2" NCoef="0" IVar="-1" Cut="0.0000000000000000e+00" cType="1" res="1.1900258250534534e-03" rms="4.9885076284408569e-01" purity="5.3388077020645142e-01" nType="-99"/>
          <Node pos="r" depth="2" NCoef="0" IVar="-1" Cut="0.0000000000000000e+00" cType="1" res="-3.6342177540063858e-02" rms="3.1462877988815308e-01" purity="1.1140158027410507e-01" nType="-99"/>
        </Node>
      </Node>
    </BinaryTree>
    <BinaryTree type="DecisionTree" boostWeight="1.0000000000000000e+00" itree="1">
      <Node pos="s" depth="0" NCoef="0" IVar="14" Cut="3.4796459674835205e+00" cType="1" res="7.0355057716369629e-02" rms="4.8794841766357422e-01" purity="5.6772583723068237e-01" nType="0">
        <Node pos="l" depth="1" NCoef="0" IVar="-1" Cut="0.0000000000000000e+00" cType="1" res="1.1724588461220264e-02" rms="3.6667644977569580e-01" purity="8.3992409706115723e-01" nType="-99"/>
        <Node pos="r" depth="1" NCoef="0" IVar="5" Cut="8.8152241706848145e-01" cType="0" res="-2.8662824630737305e-01" rms="3.9612048864364624e-01" purity="1.9910261034965515e-01" nType="0">
          <Node pos="l" depth="2" NCoef="0" IVar="-1" Cut="0.0000000000000000e+00" cType="1" res="1.2436794349923730e-03" rms="4.9869558215141296e-01" purity="5.3609353303909302e-01" nType="-99"/>
          <Node pos="r" depth="2" NCoef="0" IVar="-1" Cut="0.0000000000000000e+00" cType="1" res="-3.4537706524133682e-02" rms="3.1534129381179810e-01" purity="1.1200750619173050e-01" nType="-99"/>
        </Node>
      </Node>
    </BinaryTree>
    <BinaryTree type="DecisionTree" boostWeight="1.0000000000000000e+00" itree="2">
      <Node pos="s" depth="0" NCoef="0" IVar="14" Cut="3.4796459674835205e+00" cType="1" res="7.2741240262985229e-02" rms="4.8095476627349854e-01" purity="5.6772583723068237e-01" nType="0">
        <Node pos="l" depth="1" NCoef="0" IVar="-1" Cut="0.0000000000000000e+00" cType="1" res="1.1523650027811527e-02" rms="3.6667647957801819e-01" purity="8.3992409706115723e-01" nType="-99"/>
        <Node pos="r" depth="1" NCoef="0" IVar="5" Cut="8.7471413612365723e-01" cType="0" res="-2.7307420969009399e-01" rms="3.9319592714309692e-01" purity="1.9910261034965515e-01" nType="0">
          <Node pos="l" depth="2" NCoef="0" IVar="-1" Cut="0.0000000000000000e+00" cType="1" res="3.3913512015715241e-04" rms="4.9825039505958557e-01" purity="5.0593096017837524e-01" nType="-99"/>
          <Node pos="r" depth="2" NCoef="0" IVar="-1" Cut="0.0000000000000000e+00" cType="1" res="-3.5147443413734436e-02" rms="3.0542787909507751e-01" purity="1.0412905365228653e-01" nType="-99"/>
        </Node>
      </Node>
    </BinaryTree>
    <BinaryTree type="DecisionTree" boostWeight="1.0000000000000000e+00" itree="3">
      <Node pos="s" depth="0" NCoef="0" IVar="14" Cut="3.4796459674835205e+00" cType="1" res="7.5068049132823944e-02" rms="4.7417351603507996e-01" purity="5.6772583723068237e-01" nType="0">
        <Node pos="l" depth="1" NCoef="0" IVar="-1" Cut="0.0000000000000000e+00" cType="1" res="1.1329133063554764e-02" rms="3.6667644977569580e-01" purity="8.3992409706115723e-01" nType="-99"/>
        <Node pos="r" depth="1" NCoef="0" IVar="2" Cut="1.0196526534855366e-02" cType="1" res="-2.5980022549629211e-01" rms="3.9026737213134766e-01" purity="1.9910261034965515e-01" nType="0">
          <Node pos="l" depth="2" NCoef="0" IVar="-1" Cut="0.0000000000000000e+00" cType="1" res="-3.9337757043540478e-03" rms="4.7909137606620789e-01" purity="3.8709318637847900e-01" nType="-99"/>
          <Node pos="r" depth="2" NCoef="0" IVar="-1" Cut="0.0000000000000000e+00" cType="1" res="-4.2936619371175766e-02" rms="2.3322959244251251e-01" purity="5.9028357267379761e-02" nType="-99"/>
        </Node>
      </Node>
    </BinaryTree>
    <BinaryTree type="DecisionTree" boostWeight="1.0000000000000000e+00" itree="4">
      <Node pos="s" depth="0" NCoef="0" IVar="14" Cut="3.4796459674835205e+00" cType="1" res="7.7314853668212891e-02" rms="4.6738320589065552e-01" purity="5.6772583723068237e-01" nType="0">
        <Node pos="l" depth="1" NCoef="0" IVar="-1" Cut="0.0000000000000000e+00" cType="1" res="1.1140677146613598e-02" rms="3.6667647957801819e-01" purity="8.3992409706115723e-01" nType="-99"/>
        <Node pos="r" depth="1" NCoef="0" IVar="5" Cut="8.8152241706848145e-01" cType="0" res="-2.4685236811637878e-01" rms="3.8667404651641846e-01" purity="1.9910261034965515e-01" nType="0">
          <Node pos="l" depth="2" NCoef="0" IVar="-1" Cut="0.0000000000000000e+00" cType="1" res="1.3756606495007873e-03" rms="4.9745035171508789e-01" purity="5.3609353303909302e-01" nType="-99"/>
          <Node pos="r" depth="2" NCoef="0" IVar="-1" Cut="0.0000000000000000e+00" cType="1" res="-3.0425868928432465e-02" rms="3.1237766146659851e-01" purity="1.1200750619173050e-01" nType="-99"/>
        </Node>
      </Node>
    </BinaryTree>
    <BinaryTree type="DecisionTree" boostWeight="1.0000000000000000e+00" itree="5">
      <Node pos="s" depth="0" NCoef="0" IVar="12" Cut="2.8946418762207031e+00" cType="1" res="7.9077243804931641e-02" rms="4.6154168248176575e-01" purity="5.6772583723068237e-01" nType="0">
        <Node pos="l" depth="1" NCoef="0" IVar="-1" Cut="0.0000000000000000e+00" cType="1" res="1.0687740519642830e-02" rms="3.7264591455459595e-01" purity="8.0604737997055054e-01" nType="-99"/>
        <Node pos="r" depth="1" NCoef="0" IVar="5" Cut="8.6835968494415283e-01" cType="0" res="-2.6780971884727478e-01" rms="3.7070950865745544e-01" purity="1.8386185169219971e-01" nType="0">
          <Node pos="l" depth="2" NCoef="0" IVar="-1" Cut="0.0000000000000000e+00" cType="1" res="-3.4733142820186913e-04" rms="4.8990982770919800e-01" purity="4.8811760544776917e-01" nType="-99"/>
          <Node pos="r" depth="2" NCoef="0" IVar="-1" Cut="0.0000000000000000e+00" cType="1" res="-3.6286983639001846e-02" rms="2.7978077530860901e-01" purity="8.9108437299728394e-02" nType="-99"/>
        </Node>
      </Node>
    </BinaryTree>
    <BinaryTree type="DecisionTree" boostWeight="1.0000000000000000e+00" itree="6">
      <Node pos="s" depth="0" NCoef="0" IVar="2" Cut="1.0345595888793468e-02" cType="1" res="8.0964222550392151e-02" rms="4.5530876517295837e-01" purity="5.6772583723068237e-01" nType="0">
        <Node pos="l" depth="1" NCoef="0" IVar="-1" Cut="0.0000000000000000e+00" cType="1" res="9.4494288787245750e-03" rms="3.9836239814758301e-01" purity="7.6845812797546387e-01" nType="-99"/>
        <Node pos="r" depth="1" NCoef="0" IVar="5" Cut="8.6052763462066650e-01" cType="0" res="-3.2017311453819275e-01" rms="2.9520133137702942e-01" purity="1.0883064568042755e-01" nType="0">
          <Node pos="l" depth="2" NCoef="0" IVar="-1" Cut="0.0000000000000000e+00" cType="1" res="-2.0694467239081860e-03" rms="4.7119215130805969e-01" purity="4.2510372400283813e-01" nType="-99"/>
          <Node pos="r" depth="2" NCoef="0" IVar="-1" Cut="0.0000000000000000e+00" cType="1" res="-4.1957404464483261e-02" rms="2.2917234897613525e-01" purity="5.7945564389228821e-02" nType="-99"/>
        </Node>
      </Node>
    </BinaryTree>
    <BinaryTree type="DecisionTree" boostWeight="1.0000000000000000e+00" itree="7">
      <Node pos="s" depth="0" NCoef="0" IVar="14" Cut="3.4796459674835205e+00" cType="1" res="8.3015806972980499e-02" rms="4.4897809624671936e-01" purity="5.6772583723068237e-01" nType="0">
        <Node pos="l" depth="1" NCoef="0" IVar="-1" Cut="0.0000000000000000e+00" cType="1" res="1.0805137455463409e-02" rms="3.5831815004348755e-01" purity="8.3992409706115723e-01" nType="-99"/>
        <Node pos="r" depth="1" NCoef="0" IVar="5" Cut="8.8469964265823364e-01" cType="0" res="-2.1911594271659851e-01" rms="3.7684038281440735e-01" purity="1.9910261034965515e-01" nType="0">
          <Node pos="l" depth="2" NCoef="0" IVar="-1" Cut="0.0000000000000000e+00" cType="1" res="1.5809558099135756e-03" rms="4.9545317888259888e-01" purity="5.5029600858688354e-01" nType="-99"/>
          <Node pos="r" depth="2" NCoef="0" IVar="-1" Cut="0.0000000000000000e+00" cType="1" res="-2.6517717167735100e-02" rms="3.1260889768600464e-01" purity="1.1720790714025497e-01" nType="-99"/>
        </Node>
      </Node>
    </BinaryTree>
    <BinaryTree type="DecisionTree" boostWeight="1.0000000000000000e+00" itree="8">
      <Node pos="s" depth="0" NCoef="0" IVar="12" Cut="2.8946418762207031e+00" cType="1" res="8.4199637174606323e-02" rms="4.4400542974472046e-01" purity="5.6772583723068237e-01" nType="0">
        <Node pos="l" depth="1" NCoef="0" IVar="-1" Cut="0.0000000000000000e+00" cType="1" res="1.0364308953285217e-02" rms="3.6558011174201965e-01" purity="8.0604737997055054e-01" nType="-99"/>
        <Node pos="r" depth="1" NCoef="0" IVar="5" Cut="8.7471413612365723e-01" cType="0" res="-2.3816657066345215e-01" rms="3.6189594864845276e-01" purity="1.8386185169219971e-01" nType="0">
          <Node pos="l" depth="2" NCoef="0" IVar="-1" Cut="0.0000000000000000e+00" cType="1" res="1.5039263234939426e-04" rms="4.9025776982307434e-01" purity="5.1201248168945312e-01" nType="-99"/>
          <Node pos="r" depth="2" NCoef="0" IVar="-1" Cut="0.0000000000000000e+00" cType="1" res="-3.1194349750876427e-02" rms="2.8529259562492371e-01" purity="9.5458209514617920e-02" nType="-99"/>
        </Node>
      </Node>
    </BinaryTree>
    <BinaryTree type="DecisionTree" boostWeight="1.0000000000000000e+00" itree="9">
      <Node pos="s" depth="0" NCoef="0" IVar="14" Cut="4.6395277976989746e+00" cType="1" res="8.5459478199481964e-02" rms="4.3876761198043823e-01" purity="5.6772583723068237e-01" nType="0">
        <Node pos="l" depth="1" NCoef="0" IVar="-1" Cut="0.0000000000000000e+00" cType="1" res="9.9897477775812149e-03" rms="3.7284827232360840e-01" purity="8.0746799707412720e-01" nType="-99"/>
        <Node pos="r" depth="1" NCoef="0" IVar="9" Cut="9.7809974104166031e-03" cType="1" res="-2.3839426040649414e-01" rms="3.4305188059806824e-01" purity="1.5804587304592133e-01" nType="0">
          <Node pos="l" depth="2" NCoef="0" IVar="-1" Cut="0.0000000000000000e+00" cType="1" res="-4.6157855540513992e-03" rms="4.4509854912757874e-01" purity="3.2392075657844543e-01" nType="-99"/>
          <Node pos="r" depth="2" NCoef="0" IVar="-1" Cut="0.0000000000000000e+00" cType="1" res="-3.4971877932548523e-02" rms="2.5928926467895508e-01" purity="8.0357976257801056e-02" nType="-99"/>
        </Node>
      </Node>
    </BinaryTree>
    <BinaryTree type="DecisionTree" boostWeight="1.0000000000000000e+00" itree="10">
      <Node pos="s" depth="0" NCoef="0" IVar="12" Cut="2.5730149745941162e+00" cType="1" res="8.6681045591831207e-02" rms="4.3378421664237976e-01" purity="5.6772583723068237e-01" nType="0">
        <Node pos="l" depth="1" NCoef="0" IVar="-1" Cut="0.0000000000000000e+00" cType="1" res="1.0411947965621948e-02" rms="3.5391709208488464e-01" purity="8.1755018234252930e-01" nType="-99"/>
        <Node pos="r" depth="1" NCoef="0" IVar="5" Cut="8.7879908084869385e-01" cType="0" res="-2.0474255084991455e-01" rms="3.6941567063331604e-01" purity="2.0408515632152557e-01" nType="0">
          <Node pos="l" depth="2" NCoef="0" IVar="-1" Cut="0.0000000000000000e+00" cType="1" res="1.6017677262425423e-03" rms="4.8429203033447266e-01" purity="5.6010514497756958e-01" nType="-99"/>
          <Node pos="r" depth="2" NCoef="0" IVar="-1" Cut="0.0000000000000000e+00" cType="1" res="-2.6938252151012421e-02" rms="2.9916414618492126e-01" purity="1.1027175933122635e-01" nType="-99"/>
        </Node>
      </Node>
    </BinaryTree>
    <BinaryTree type="DecisionTree" boostWeight="1.0000000000000000e+00" itree="11">
      <Node pos="s" depth="0" NCoef="0" IVar="2" Cut="1.0345595888793468e-02" cType="1" res="8.7569728493690491e-02" rms="4.2914104461669922e-01" purity="5.6772583723068237e-01" nType="0">
        <Node pos="l" depth="1" NCoef="0" IVar="-1" Cut="0.0000000000000000e+00" cType="1" res="9.0612163767218590e-03" rms="3.8561227917671204e-01" purity="7.6845812797546387e-01" nType="-99"/>
        <Node pos="r" depth="1" NCoef="0" IVar="4" Cut="7.8020459413528442e-01" cType="0" res="-2.6940760016441345e-01" rms="2.8646820783615112e-01" purity="1.0883064568042755e-01" nType="0">
          <Node pos="l" depth="2" NCoef="0" IVar="-1" Cut="0.0000000000000000e+00" cType="1" res="-3.2236470724456012e-04" rms="4.5270261168479919e-01" purity="4.3996497988700867e-01" nType="-99"/>
          <Node pos="r" depth="2" NCoef="0" IVar="-1" Cut="0.0000000000000000e+00" cType="1" res="-3.4401394426822662e-02" rms="2.4193611741065979e-01" purity="6.9592282176017761e-02" nType="-99"/>
        </Node>
      </Node>
    </BinaryTree>
    <BinaryTree type="DecisionTree" boostWeight="1.0000000000000000e+00" itree="12">
      <Node pos="s" depth="0" NCoef="0" IVar="14" Cut="3.4796459674835205e+00" cType="1" res="8.8706396520137787e-02" rms="4.2423677444458008e-01" purity="5.6772583723068237e-01" nType="0">
        <Node pos="l" depth="1" NCoef="0" IVar="-1" Cut="0.0000000000000000e+00" cType="1" res="1.0259434580802917e-02" rms="3.4787282347679138e-01" purity="8.3992409706115723e-01" nType="-99"/>
        <Node pos="r" depth="1" NCoef="0" IVar="5" Cut="8.8560736179351807e-01" cType="0" res="-1.8119019269943237e-01" rms="3.6495381593704224e-01" purity="1.9910261034965515e-01" nType="0">
          <Node pos="l" depth="2" NCoef="0" IVar="-1" Cut="0.0000000000000000e+00" cType="1" res="1.5603175852447748e-03" rms="4.9046587944030762e-01" purity="5.5438297986984253e-01" nType="-99"/>
          <Node pos="r" depth="2" NCoef="0" IVar="-1" Cut="0.0000000000000000e+00" cType="1" res="-2.2714912891387939e-02" rms="3.0787348747253418e-01" purity="1.1889600008726120e-01" nType="-99"/>
        </Node>
      </Node>
    </BinaryTree>
    <BinaryTree type="DecisionTree" boostWeight="1.0000000000000000e+00" itree="13">
      <Node pos="s" depth="0" NCoef="0" IVar="12" Cut="2.8946418762207031e+00" cType="1" res="8.9260786771774292e-02" rms="4.2029359936714172e-01" purity="5.6772583723068237e-01" nType="0">
        <Node pos="l" depth="1" NCoef="0" IVar="-1" Cut="0.0000000000000000e+00" cType="1" res="9.8461881279945374e-03" rms="3.5552552342414856e-01" purity="8.0604737997055054e-01" nType="-99"/>
        <Node pos="r" depth="1" NCoef="0" IVar="5" Cut="8.6835968494415283e-01" cType="0" res="-1.9774942100048065e-01" rms="3.5222771763801575e-01" purity="1.8386185169219971e-01" nType="0">
          <Node pos="l" depth="2" NCoef="0" IVar="-1" Cut="0.0000000000000000e+00" cType="1" res="-3.1021010363474488e-04" rms="4.8160141706466675e-01" purity="4.8811760544776917e-01" nType="-99"/>
          <Node pos="r" depth="2" NCoef="0" IVar="-1" Cut="0.0000000000000000e+00" cType="1" res="-2.9063627123832703e-02" rms="2.7543202042579651e-01" purity="8.9108437299728394e-02" nType="-99"/>
        </Node>
      </Node>
    </BinaryTree>
    <BinaryTree type="DecisionTree" boostWeight="1.0000000000000000e+00" itree="14">
      <Node pos="s" depth="0" NCoef="0" IVar="14" Cut="4.6395277976989746e+00" cType="1" res="9.0030588209629059e-02" rms="4.1600286960601807e-01" purity="5.6772583723068237e-01" nType="0">
        <Node pos="l" depth="1" NCoef="0" IVar="-1" Cut="0.0000000000000000e+00" cType="1" res="9.5260636880993843e-03" rms="3.6136311292648315e-01" purity="8.0746799707412720e-01" nType="-99"/>
        <Node pos="r" depth="1" NCoef="0" IVar="1" Cut="9.3859165906906128e-01" cType="0" res="-1.9945473968982697e-01" rms="3.3585605025291443e-01" purity="1.5804587304592133e-01" nType="0">
          <Node pos="l" depth="2" NCoef="0" IVar="-1" Cut="0.0000000000000000e+00" cType="1" res="-8.2073040539398789e-04" rms="4.5598906278610229e-01" purity="4.1098809242248535e-01" nType="-99"/>
          <Node pos="r" depth="2" NCoef="0" IVar="-1" Cut="0.0000000000000000e+00" cType="1" res="-2.4689409881830215e-02" rms="2.9141944646835327e-01" purity="1.0516942292451859e-01" nType="-99"/>
        </Node>
      </Node>
    </BinaryTree>
    <BinaryTree type="DecisionTree" boostWeight="1.0000000000000000e+00" itree="15">
      <Node pos="s" depth="0" NCoef="0" IVar="2" Cut="1.0330132208764553e-02" cType="1" res="9.0410433709621429e-02" rms="4.1227209568023682e-01" purity="5.6772583723068237e-01" nType="0">
        <Node pos="l" depth="1" NCoef="0" IVar="-1" Cut="0.0000000000000000e+00" cType="1" res="8.7813865393400192e-03" rms="3.7694427371025085e-01" purity="7.6912736892700195e-01" nType="-99"/>
        <Node pos="r" depth="1" NCoef="0" IVar="4" Cut="7.9420107603073120e-01" cType="0" res="-2.3519651591777802e-01" rms="2.8372606635093689e-01" purity="1.1068399995565414e-01" nType="0">
          <Node pos="l" depth="2" NCoef="0" IVar="-1" Cut="0.0000000000000000e+00" cType="1" res="1.1741038179025054e-03" rms="4.4939741492271423e-01" purity="4.9141168594360352e-01" nType="-99"/>
          <Node pos="r" depth="2" NCoef="0" IVar="-1" Cut="0.0000000000000000e+00" cType="1" res="-3.0003029853105545e-02" rms="2.4874041974544525e-01" purity="7.5561530888080597e-02" nType="-99"/>
        </Node>
      </Node>
    </BinaryTree>
    <BinaryTree type="DecisionTree" boostWeight="1.0000000000000000e+00" itree="16">
      <Node pos="s" depth="0" NCoef="0" IVar="14" Cut="3.4796459674835205e+00" cType="1" res="9.1022297739982605e-02" rms="4.0821418166160583e-01" purity="5.6772583723068237e-01" nType="0">
        <Node pos="l" depth="1" NCoef="0" IVar="-1" Cut="0.0000000000000000e+00" cType="1" res="9.8343919962644577e-03" rms="3.4167864918708801e-01" purity="8.3992409706115723e-01" nType="-99"/>
        <Node pos="r" depth="1" NCoef="0" IVar="1" Cut="9.3276453018188477e-01" cType="0" res="-1.5585412085056305e-01" rms="3.5812726616859436e-01" purity="1.9910261034965515e-01" nType="0">
          <Node pos="l" depth="2" NCoef="0" IVar="-1" Cut="0.0000000000000000e+00" cType="1" res="1.0757339186966419e-03" rms="4.5409235358238220e-01" purity="4.7060984373092651e-01" nType="-99"/>
          <Node pos="r" depth="2" NCoef="0" IVar="-1" Cut="0.0000000000000000e+00" cType="1" res="-2.0709652453660965e-02" rms="3.0939695239067078e-01" purity="1.2600329518318176e-01" nType="-99"/>
        </Node>
      </Node>
    </BinaryTree>
    <BinaryTree type="DecisionTree" boostWeight="1.0000000000000000e+00" itree="17">
      <Node pos="s" depth="0" NCoef="0" IVar="12" Cut="2.5730149745941162e+00" cType="1" res="9.1183908283710480e-02" rms="4.0491521358489990e-01" purity="5.6772583723068237e-01" nType="0">
        <Node pos="l" depth="1" NCoef="0" IVar="-1" Cut="0.0000000000000000e+00" cType="1" res="9.7581008449196815e-03" rms="3.4043377637863159e-01" purity="8.1755018234252930e-01" nType="-99"/>
        <Node pos="r" depth="1" NCoef="0" IVar="5" Cut="8.8469964265823364e-01" cType="0" res="-1.6083985567092896e-01" rms="3.5603576898574829e-01" purity="2.0408515632152557e-01" nType="0">
          <Node pos="l" depth="2" NCoef="0" IVar="-1" Cut="0.0000000000000000e+00" cType="1" res="2.0440132357180119e-03" rms="4.7531920671463013e-01" purity="5.8724522590637207e-01" nType="-99"/>
          <Node pos="r" depth="2" NCoef="0" IVar="-1" Cut="0.0000000000000000e+00" cType="1" res="-2.1177422255277634e-02" rms="3.0281236767768860e-01" purity="1.1975830048322678e-01" nType="-99"/>
        </Node>
      </Node>
    </BinaryTree>
    <BinaryTree type="DecisionTree" boostWeight="1.0000000000000000e+00" itree="18">
      <Node pos="s" depth="0" NCoef="0" IVar="14" Cut="3.4796459674835205e+00" cType="1" res="9.1297604143619537e-02" rms="4.0154278278350830e-01" purity="5.6772583723068237e-01" nType="0">
        <Node pos="l" depth="1" NCoef="0" IVar="-1" Cut="0.0000000000000000e+00" cType="1" res="9.6234967932105064e-03" rms="3.3906868100166321e-01" purity="8.3992409706115723e-01" nType="-99"/>
        <Node pos="r" depth="1" NCoef="0" IVar="9" Cut="9.4210645183920860e-03" cType="1" res="-1.4510233700275421e-01" rms="3.5601234436035156e-01" purity="1.9910261034965515e-01" nType="0">
          <Node pos="l" depth="2" NCoef="0" IVar="-1" Cut="0.0000000000000000e+00" cType="1" res="-9.5107097877189517e-05" rms="4.4957867264747620e-01" purity="4.0647542476654053e-01" nType="-99"/>
          <Node pos="r" depth="2" NCoef="0" IVar="-1" Cut="0.0000000000000000e+00" cType="1" res="-2.3007411509752274e-02" rms="2.8903099894523621e-01" purity="1.1315592378377914e-01" nType="-99"/>
        </Node>
      </Node>
    </BinaryTree>
    <BinaryTree type="DecisionTree" boostWeight="1.0000000000000000e+00" itree="19">
      <Node pos="s" depth="0" NCoef="0" IVar="12" Cut="2.5730149745941162e+00" cType="1" res="9.1486737132072449e-02" rms="3.9834693074226379e-01" purity="5.6772583723068237e-01" nType="0">
        <Node pos="l" depth="1" NCoef="0" IVar="-1" Cut="0.0000000000000000e+00" cType="1" res="9.5552904531359673e-03" rms="3.3789855241775513e-01" purity="8.1755018234252930e-01" nType="-99"/>
        <Node pos="r" depth="1" NCoef="0" IVar="5" Cut="8.8787680864334106e-01" cType="0" res="-1.4978045225143433e-01" rms="3.5392138361930847e-01" purity="2.0408515632152557e-01" nType="0">
          <Node pos="l" depth="2" NCoef="0" IVar="-1" Cut="0.0000000000000000e+00" cType="1" res="2.4622185155749321e-03" rms="4.7094482183456421e-01" purity="6.0199570655822754e-01" nType="-99"/>
          <Node pos="r" depth="2" NCoef="0" IVar="-1" Cut="0.0000000000000000e+00" cType="1" res="-1.9223596900701523e-02" rms="3.0769956111907959e-01" purity="1.2635493278503418e-01" nType="-99"/>
        </Node>
      </Node>
    </BinaryTree>
    <BinaryTree type="DecisionTree" boostWeight="1.0000000000000000e+00" itree="20">
      <Node pos="s" depth="0" NCoef="0" IVar="2" Cut="1.0221881791949272e-02" cType="1" res="9.1390423476696014e-02" rms="3.9531725645065308e-01" purity="5.6772583723068237e-01" nType="0">
        <Node pos="l" depth="1" NCoef="0" IVar="-1" Cut="0.0000000000000000e+00" cType="1" res="8.5924556478857994e-03" rms="3.6542627215385437e-01" purity="7.7383798360824585e-01" nType="-99"/>
        <Node pos="r" depth="1" NCoef="0" IVar="5" Cut="8.6187672615051270e-01" cType="0" res="-1.9636750221252441e-01" rms="2.8948840498924255e-01" purity="1.2480467557907104e-01" nType="0">
          <Node pos="l" depth="2" NCoef="0" IVar="-1" Cut="0.0000000000000000e+00" cType="1" res="1.3389090599957854e-04" rms="4.4438633322715759e-01" purity="4.7249341011047363e-01" nType="-99"/>
          <Node pos="r" depth="2" NCoef="0" IVar="-1" Cut="0.0000000000000000e+00" cType="1" res="-3.1104018911719322e-02" rms="2.3305889964103699e-01" purity="6.1163056641817093e-02" nType="-99"/>
        </Node>
      </Node>
    </BinaryTree>
    <BinaryTree type="DecisionTree" boostWeight="1.0000000000000000e+00" itree="21">
      <Node pos="s" depth="0" NCoef="0" IVar="14" Cut="4.6395277976989746e+00" cType="1" res="9.1866798698902130e-02" rms="3.9165896177291870e-01" purity="5.6772583723068237e-01" nType="0">
        <Node pos="l" depth="1" NCoef="0" IVar="-1" Cut="0.0000000000000000e+00" cType="1" res="8.9360550045967102e-03" rms="3.4844085574150085e-01" purity="8.0746799707412720e-01" nType="-99"/>
        <Node pos="r" depth="1" NCoef="0" IVar="9" Cut="8.7011978030204773e-03" cType="1" res="-1.5875239670276642e-01" rms="3.2937672734260559e-01" purity="1.5804587304592133e-01" nType="0">
          <Node pos="l" depth="2" NCoef="0" IVar="-1" Cut="0.0000000000000000e+00" cType="1" res="-6.6356285242363811e-04" rms="4.5009166002273560e-01" purity="3.8285562396049500e-01" nType="-99"/>
          <Node pos="r" depth="2" NCoef="0" IVar="-1" Cut="0.0000000000000000e+00" cType="1" res="-2.1657925099134445e-02" rms="2.8410747647285461e-01" purity="1.0559875518083572e-01" nType="-99"/>
        </Node>
      </Node>
    </BinaryTree>
    <BinaryTree type="DecisionTree" boostWeight="1.0000000000000000e+00" itree="22">
      <Node pos="s" depth="0" NCoef="0" IVar="12" Cut="2.8946418762207031e+00" cType="1" res="9.1764643788337708e-02" rms="3.8882485032081604e-01" purity="5.6772583723068237e-01" nType="0">
        <Node pos="l" depth="1" NCoef="0" IVar="-1" Cut="0.0000000000000000e+00" cType="1" res="9.0711321681737900e-03" rms="3.3951881527900696e-01" purity="8.0604737997055054e-01" nType="-99"/>
        <Node pos="r" depth="1" NCoef="0" IVar="5" Cut="8.8878458738327026e-01" cType="0" res="-1.4708156883716583e-01" rms="3.4141224622726440e-01" purity="1.8386185169219971e-01" nType="0">
          <Node pos="l" depth="2" NCoef="0" IVar="-1" Cut="0.0000000000000000e+00" cType="1" res="1.6310577047988772e-03" rms="4.7599822282791138e-01" purity="5.7570922374725342e-01" nType="-99"/>
          <Node pos="r" depth="2" NCoef="0" IVar="-1" Cut="0.0000000000000000e+00" cType="1" res="-1.8937302753329277e-02" rms="2.9985481500625610e-01" purity="1.1657469719648361e-01" nType="-99"/>
        </Node>
      </Node>
    </BinaryTree>
    <BinaryTree type="DecisionTree" boostWeight="1.0000000000000000e+00" itree="23">
      <Node pos="s" depth="0" NCoef="0" IVar="2" Cut="1.0190953500568867e-02" cType="1" res="9.1501243412494659e-02" rms="3.8612246513366699e-01" purity="5.6772583723068237e-01" nType="0">
        <Node pos="l" depth="1" NCoef="0" IVar="-1" Cut="0.0000000000000000e+00" cType="1" res="8.4003200754523277e-03" rms="3.6071720719337463e-01" purity="7.7524322271347046e-01" nType="-99"/>
        <Node pos="r" depth="1" NCoef="0" IVar="4" Cut="8.0163675546646118e-01" cType="0" res="-1.7601440846920013e-01" rms="2.8933706879615784e-01" purity="1.2943489849567413e-01" nType="0">
          <Node pos="l" depth="2" NCoef="0" IVar="-1" Cut="0.0000000000000000e+00" cType="1" res="2.8057938907295465e-03" rms="4.3054372072219849e-01" purity="5.6544846296310425e-01" nType="-99"/>
          <Node pos="r" depth="2" NCoef="0" IVar="-1" Cut="0.0000000000000000e+00" cType="1" res="-2.3614887148141861e-02" rms="2.5747829675674438e-01" purity="8.7302081286907196e-02" nType="-99"/>
        </Node>
      </Node>
    </BinaryTree>
    <BinaryTree type="DecisionTree" boostWeight="1.0000000000000000e+00" itree="24">
      <Node pos="s" depth="0" NCoef="0" IVar="14" Cut="3.4796459674835205e+00" cType="1" res="9.1412708163261414e-02" rms="3.8322055339813232e-01" purity="5.6772583723068237e-01" nType="0">
        <Node pos="l" depth="1" NCoef="0" IVar="-1" Cut="0.0000000000000000e+00" cType="1" res="9.1266306117177010e-03" rms="3.2917165756225586e-01" purity="8.3992409706115723e-01" nType="-99"/>
        <Node pos="r" depth="1" NCoef="0" IVar="1" Cut="9.2200684547424316e-01" cType="0" res="-1.1955310404300690e-01" rms="3.4875607490539551e-01" purity="1.9910261034965515e-01" nType="0">
          <Node pos="l" depth="2" NCoef="0" IVar="-1" Cut="0.0000000000000000e+00" cType="1" res="1.0006179800257087e-03" rms="4.4149184226989746e-01" purity="4.4984838366508484e-01" nType="-99"/>
          <Node pos="r" depth="2" NCoef="0" IVar="-1" Cut="0.0000000000000000e+00" cType="1" res="-1.8414452672004700e-02" rms="2.9958611726760864e-01" purity="1.1966057121753693e-01" nType="-99"/>
        </Node>
      </Node>
    </BinaryTree>
    <BinaryTree type="DecisionTree" boostWeight="1.0000000000000000e+00" itree="25">
      <Node pos="s" depth="0" NCoef="0" IVar="12" Cut="2.5730149745941162e+00" cType="1" res="9.1161608695983887e-02" rms="3.8074836134910583e-01" purity="5.6772583723068237e-01" nType="0">
        <Node pos="l" depth="1" NCoef="0" IVar="-1" Cut="0.0000000000000000e+00" cType="1" res="9.0448111295700073e-03" rms="3.2942393422126770e-01" purity="8.1755018234252930e-01" nType="-99"/>
        <Node pos="r" depth="1" NCoef="0" IVar="5" Cut="8.6835968494415283e-01" cType="0" res="-1.2355769425630569e-01" rms="3.4676462411880493e-01" purity="2.0408515632152557e-01" nType="0">
          <Node pos="l" depth="2" NCoef="0" IVar="-1" Cut="0.0000000000000000e+00" cType="1" res="7.8096077777445316e-04" rms="4.6533578634262085e-01" purity="5.1823979616165161e-01" nType="-99"/>
          <Node pos="r" depth="2" NCoef="0" IVar="-1" Cut="0.0000000000000000e+00" cType="1" res="-2.1721644327044487e-02" rms="2.7995017170906067e-01" purity="9.8359830677509308e-02" nType="-99"/>
        </Node>
      </Node>
    </BinaryTree>
    <BinaryTree type="DecisionTree" boostWeight="1.0000000000000000e+00" itree="26">
      <Node pos="s" depth="0" NCoef="0" IVar="14" Cut="4.6395277976989746e+00" cType="1" res="9.1059230268001556e-02" rms="3.7808796763420105e-01" purity="5.6772583723068237e-01" nType="0">
        <Node pos="l" depth="1" NCoef="0" IVar="-1" Cut="0.0000000000000000e+00" cType="1" res="8.5475128144025803e-03" rms="3.4077656269073486e-01" purity="8.0746799707412720e-01" nType="-99"/>
        <Node pos="r" depth="1" NCoef="0" IVar="9" Cut="8.7011978030204773e-03" cType="1" res="-1.3647621870040894e-01" rms="3.2667317986488342e-01" purity="1.5804587304592133e-01" nType="0">
          <Node pos="l" depth="2" NCoef="0" IVar="-1" Cut="0.0000000000000000e+00" cType="1" res="-3.6848112358711660e-04" rms="4.4712135195732117e-01" purity="3.8285562396049500e-01" nType="-99"/>
          <Node pos="r" depth="2" NCoef="0" IVar="-1" Cut="0.0000000000000000e+00" cType="1" res="-1.9681282341480255e-02" rms="2.8337275981903076e-01" purity="1.0559875518083572e-01" nType="-99"/>
        </Node>
      </Node>
    </BinaryTree>
    <BinaryTree type="DecisionTree" boostWeight="1.0000000000000000e+00" itree="27">
      <Node pos="s" depth="0" NCoef="0" IVar="2" Cut="1.0299202986061573e-02" cType="1" res="9.0723618865013123e-02" rms="3.7573975324630737e-01" purity="5.6772583723068237e-01" nType="0">
        <Node pos="l" depth="1" NCoef="0" IVar="-1" Cut="0.0000000000000000e+00" cType="1" res="7.9986341297626495e-03" rms="3.5701984167098999e-01" purity="7.7040457725524902e-01" nType="-99"/>
        <Node pos="r" depth="1" NCoef="0" IVar="4" Cut="7.8107935190200806e-01" cType="0" res="-1.6496662795543671e-01" rms="2.7791231870651245e-01" purity="1.1454075574874878e-01" nType="0">
          <Node pos="l" depth="2" NCoef="0" IVar="-1" Cut="0.0000000000000000e+00" cType="1" res="9.4518682453781366e-04" rms="4.2722281813621521e-01" purity="4.5778045058250427e-01" nType="-99"/>
          <Node pos="r" depth="2" NCoef="0" IVar="-1" Cut="0.0000000000000000e+00" cType="1" res="-2.5519873946905136e-02" rms="2.4319499731063843e-01" purity="7.2142936289310455e-02" nType="-99"/>
        </Node>
      </Node>
    </BinaryTree>
    <BinaryTree type="DecisionTree" boostWeight="1.0000000000000000e+00" itree="28">
      <Node pos="s" depth="0" NCoef="0" IVar="12" Cut="2.2513880729675293e+00" cType="1" res="9.0633288025856018e-02" rms="3.7306502461433411e-01" purity="5.6772583723068237e-01" nType="0">
        <Node pos="l" depth="1" NCoef="0" IVar="-1" Cut="0.0000000000000000e+00" cType="1" res="9.0570636093616486e-03" rms="3.1827369332313538e-01" purity="8.2917100191116333e-01" nType="-99"/>
        <Node pos="r" depth="1" NCoef="0" IVar="1" Cut="9.2528498172760010e-01" cType="0" res="-1.0044486820697784e-01" rms="3.5137626528739929e-01" purity="2.2942337393760681e-01" nType="0">
          <Node pos="l" depth="2" NCoef="0" IVar="-1" Cut="0.0000000000000000e+00" cType="1" res="2.0733540877699852e-03" rms="4.2570680379867554e-01" purity="5.0854527950286865e-01" nType="-99"/>
          <Node pos="r" depth="2" NCoef="0" IVar="-1" Cut="0.0000000000000000e+00" cType="1" res="-1.6435690224170685e-02" rms="3.0607303977012634e-01" purity="1.3594488799571991e-01" nType="-99"/>
        </Node>
      </Node>
    </BinaryTree>
    <BinaryTree type="DecisionTree" boostWeight="1.0000000000000000e+00" itree="29">
      <Node pos="s" depth="0" NCoef="0" IVar="14" Cut="3.4796459674835205e+00" cType="1" res="9.0151898562908173e-02" rms="3.7085357308387756e-01" purity="5.6772583723068237e-01" nType="0">
        <Node pos="l" depth="1" NCoef="0" IVar="-1" Cut="0.0000000000000000e+00" cType="1" res="8.7283188477158546e-03" rms="3.2283207774162292e-01" purity="8.3992409706115723e-01" nType="-99"/>
        <Node pos="r" depth="1" NCoef="0" IVar="1" Cut="9.3859165906906128e-01" cType="0" res="-1.0178833454847336e-01" rms="3.4438291192054749e-01" purity="1.9910261034965515e-01" nType="0">
          <Node pos="l" depth="2" NCoef="0" IVar="-1" Cut="0.0000000000000000e+00" cType="1" res="1.7121834680438042e-03" rms="4.4075295329093933e-01" purity="4.8395398259162903e-01" nType="-99"/>
          <Node pos="r" depth="2" NCoef="0" IVar="-1" Cut="0.0000000000000000e+00" cType="1" res="-1.5154586173593998e-02" rms="3.0659699440002441e-01" purity="1.3061527907848358e-01" nType="-99"/>
        </Node>
      </Node>
    </BinaryTree>
    <BinaryTree type="DecisionTree" boostWeight="1.0000000000000000e+00" itree="30">
      <Node pos="s" depth="0" NCoef="0" IVar="12" Cut="3.2162687778472900e+00" cType="1" res="8.9641600847244263e-02" rms="3.6887097358703613e-01" purity="5.6772583723068237e-01" nType="0">
        <Node pos="l" depth="1" NCoef="0" IVar="-1" Cut="0.0000000000000000e+00" cType="1" res="8.3241462707519531e-03" rms="3.3312189579010010e-01" purity="7.9490625858306885e-01" nType="-99"/>
        <Node pos="r" depth="1" NCoef="0" IVar="4" Cut="8.0321693420410156e-01" cType="0" res="-1.2532958388328552e-01" rms="3.2817867398262024e-01" purity="1.6824577748775482e-01" nType="0">
          <Node pos="l" depth="2" NCoef="0" IVar="-1" Cut="0.0000000000000000e+00" cType="1" res="7.9202745109796524e-04" rms="4.6130794286727905e-01" purity="4.7197067737579346e-01" nType="-99"/>
          <Node pos="r" depth="2" NCoef="0" IVar="-1" Cut="0.0000000000000000e+00" cType="1" res="-1.7138453200459480e-02" rms="2.9075968265533447e-01" purity="1.1435192078351974e-01" nType="-99"/>
        </Node>
      </Node>
    </BinaryTree>
    <BinaryTree type="DecisionTree" boostWeight="1.0000000000000000e+00" itree="31">
      <Node pos="s" depth="0" NCoef="0" IVar="2" Cut="1.0190953500568867e-02" cType="1" res="8.9059114456176758e-02" rms="3.6682739853858948e-01" purity="5.6772583723068237e-01" nType="0">
        <Node pos="l" depth="1" NCoef="0" IVar="-1" Cut="0.0000000000000000e+00" cType="1" res="7.8797638416290283e-03" rms="3.5026952624320984e-01" purity="7.7524322271347046e-01" nType="-99"/>
        <Node pos="r" depth="1" NCoef="0" IVar="5" Cut="8.6862212419509888e-01" cType="0" res="-1.4271505177021027e-01" rms="2.8370139002799988e-01" purity="1.2943489849567413e-01" nType="0">
          <Node pos="l" depth="2" NCoef="0" IVar="-1" Cut="0.0000000000000000e+00" cType="1" res="1.2044706381857395e-03" rms="4.3258771300315857e-01" purity="5.1911413669586182e-01" nType="-99"/>
          <Node pos="r" depth="2" NCoef="0" IVar="-1" Cut="0.0000000000000000e+00" cType="1" res="-2.4716095998883247e-02" rms="2.4030946195125580e-01" purity="6.7726857960224152e-02" nType="-99"/>
        </Node>
      </Node>
    </BinaryTree>
    <BinaryTree type="DecisionTree" boostWeight="1.0000000000000000e+00" itree="32">
      <Node pos="s" depth="0" NCoef="0" IVar="14" Cut="4.6395277976989746e+00" cType="1" res="8.8867641985416412e-02" rms="3.6442282795906067e-01" purity="5.6772583723068237e-01" nType="0">
        <Node pos="l" depth="1" NCoef="0" IVar="-1" Cut="0.0000000000000000e+00" cType="1" res="8.1404745578765869e-03" rms="3.3200329542160034e-01" purity="8.0746799707412720e-01" nType="-99"/>
        <Node pos="r" depth="1" NCoef="0" IVar="9" Cut="8.7011978030204773e-03" cType="1" res="-1.1582939326763153e-01" rms="3.2398262619972229e-01" purity="1.5804587304592133e-01" nType="0">
          <Node pos="l" depth="2" NCoef="0" IVar="-1" Cut="0.0000000000000000e+00" cType="1" res="-2.1870768978260458e-04" rms="4.4434893131256104e-01" purity="3.8285562396049500e-01" nType="-99"/>
          <Node pos="r" depth="2" NCoef="0" IVar="-1" Cut="0.0000000000000000e+00" cType="1" res="-1.7691761255264282e-02" rms="2.8262132406234741e-01" purity="1.0559875518083572e-01" nType="-99"/>
        </Node>
      </Node>
    </BinaryTree>
    <BinaryTree type="DecisionTree" boostWeight="1.0000000000000000e+00" itree="33">
      <Node pos="s" depth="0" NCoef="0" IVar="12" Cut="2.2513880729675293e+00" cType="1" res="8.8337138295173645e-02" rms="3.6251795291900635e-01" purity="5.6772583723068237e-01" nType="0">
        <Node pos="l" depth="1" NCoef="0" IVar="-1" Cut="0.0000000000000000e+00" cType="1" res="8.6605492979288101e-03" rms="3.1344166398048401e-01" purity="8.2917100191116333e-01" nType="-99"/>
        <Node pos="r" depth="1" NCoef="0" IVar="5" Cut="8.9060014486312866e-01" cType="0" res="-8.6156152188777924e-02" rms="3.4693863987922668e-01" purity="2.2942337393760681e-01" nType="0">
          <Node pos="l" depth="2" NCoef="0" IVar="-1" Cut="0.0000000000000000e+00" cType="1" res="3.3092799130827188e-03" rms="4.4450977444648743e-01" purity="6.4896094799041748e-01" nType="-99"/>
          <Node pos="r" depth="2" NCoef="0" IVar="-1" Cut="0.0000000000000000e+00" cType="1" res="-1.2582916766405106e-02" rms="3.1240159273147583e-01" purity="1.4829502999782562e-01" nType="-99"/>
        </Node>
      </Node>
    </BinaryTree>
    <BinaryTree type="DecisionTree" boostWeight="1.0000000000000000e+00" itree="34">
      <Node pos="s" depth="0" NCoef="0" IVar="6" Cut="9.2506295442581177e-01" cType="0" res="8.7625272572040558e-02" rms="3.6077129840850830e-01" purity="5.6772583723068237e-01" nType="0">
        <Node pos="l" depth="1" NCoef="0" IVar="-1" Cut="0.0000000000000000e+00" cType="1" res="7.4677257798612118e-03" rms="3.5082805156707764e-01" purity="7.6267480850219727e-01" nType="-99"/>
        <Node pos="r" depth="1" NCoef="0" IVar="4" Cut="8.0488729476928711e-01" cType="0" res="-1.4382024109363556e-01" rms="2.6542076468467712e-01" purity="1.0929229855537415e-01" nType="0">
          <Node pos="l" depth="2" NCoef="0" IVar="-1" Cut="0.0000000000000000e+00" cType="1" res="2.3933048360049725e-03" rms="4.1744008660316467e-01" purity="5.5187368392944336e-01" nType="-99"/>
          <Node pos="r" depth="2" NCoef="0" IVar="-1" Cut="0.0000000000000000e+00" cType="1" res="-2.5802826508879662e-02" rms="2.3424366116523743e-01" purity="6.5357722342014313e-02" nType="-99"/>
        </Node>
      </Node>
    </BinaryTree>
    <BinaryTree type="DecisionTree" boostWeight="1.0000000000000000e+00" itree="35">
      <Node pos="s" depth="0" NCoef="0" IVar="14" Cut="3.4796459674835205e+00" cType="1" res="8.7474606931209564e-02" rms="3.5846546292304993e-01" purity="5.6772583723068237e-01" nType="0">
        <Node pos="l" depth="1" NCoef="0" IVar="-1" Cut="0.0000000000000000e+00" cType="1" res="8.3118956536054611e-03" rms="3.1529328227043152e-01" purity="8.3992409706115723e-01" nType="-99"/>
        <Node pos="r" depth="1" NCoef="0" IVar="9" Cut="9.0611306950449944e-03" cType="1" res="-8.5683472454547882e-02" rms="3.4024259448051453e-01" purity="1.9910261034965515e-01" nType="0">
          <Node pos="l" depth="2" NCoef="0" IVar="-1" Cut="0.0000000000000000e+00" cType="1" res="1.1188214411959052e-03" rms="4.3820706009864807e-01" purity="4.2732304334640503e-01" nType="-99"/>
          <Node pos="r" depth="2" NCoef="0" IVar="-1" Cut="0.0000000000000000e+00" cType="1" res="-1.5090915374457836e-02" rms="2.9164299368858337e-01" purity="1.2372948974370956e-01" nType="-99"/>
        </Node>
      </Node>
    </BinaryTree>
    <BinaryTree type="DecisionTree" boostWeight="1.0000000000000000e+00" itree="36">
      <Node pos="s" depth="0" NCoef="0" IVar="12" Cut="3.2162687778472900e+00" cType="1" res="8.6873345077037811e-02" rms="3.5680019855499268e-01" purity="5.6772583723068237e-01" nType="0">
        <Node pos="l" depth="1" NCoef="0" IVar="-1" Cut="0.0000000000000000e+00" cType="1" res="7.9215839505195618e-03" rms="3.2597458362579346e-01" purity="7.9490625858306885e-01" nType="-99"/>
        <Node pos="r" depth="1" NCoef="0" IVar="1" Cut="9.2528498172760010e-01" cType="0" res="-1.0639061778783798e-01" rms="3.2515197992324829e-01" purity="1.6824577748775482e-01" nType="0">
          <Node pos="l" depth="2" NCoef="0" IVar="-1" Cut="0.0000000000000000e+00" cType="1" res="-1.6292178770527244e-04" rms="4.2493745684623718e-01" purity="4.0498441457748413e-01" nType="-99"/>
          <Node pos="r" depth="2" NCoef="0" IVar="-1" Cut="0.0000000000000000e+00" cType="1" res="-1.7637828364968300e-02" rms="2.8391975164413452e-01" purity="1.0095531493425369e-01" nType="-99"/>
        </Node>
      </Node>
    </BinaryTree>
    <BinaryTree type="DecisionTree" boostWeight="1.0000000000000000e+00" itree="37">
      <Node pos="s" depth="0" NCoef="0" IVar="14" Cut="2.3197638988494873e+00" cType="1" res="8.6239553987979889e-02" rms="3.5505694150924683e-01" purity="5.6772583723068237e-01" nType="0">
        <Node pos="l" depth="1" NCoef="0" IVar="-1" Cut="0.0000000000000000e+00" cType="1" res="9.0102907270193100e-03" rms="2.8579500317573547e-01" purity="8.7402516603469849e-01" nType="-99"/>
        <Node pos="r" depth="1" NCoef="0" IVar="5" Cut="8.8787680864334106e-01" cType="0" res="-5.1216576248407364e-02" rms="3.5686391592025757e-01" purity="2.8647175431251526e-01" nType="0">
          <Node pos="l" depth="2" NCoef="0" IVar="-1" Cut="0.0000000000000000e+00" cType="1" res="4.0646260604262352e-03" rms="4.2653059959411621e-01" purity="6.8156129121780396e-01" nType="-99"/>
          <Node pos="r" depth="2" NCoef="0" IVar="-1" Cut="0.0000000000000000e+00" cType="1" res="-9.7568118944764137e-03" rms="3.2011550664901733e-01" purity="1.7717140913009644e-01" nType="-99"/>
        </Node>
      </Node>
    </BinaryTree>
    <BinaryTree type="DecisionTree" boostWeight="1.0000000000000000e+00" itree="38">
      <Node pos="s" depth="0" NCoef="0" IVar="2" Cut="1.0129095986485481e-02" cType="1" res="8.5463628172874451e-02" rms="3.5356870293617249e-01" purity="5.6772583723068237e-01" nType="0">
        <Node pos="l" depth="1" NCoef="0" IVar="-1" Cut="0.0000000000000000e+00" cType="1" res="7.5409635901451111e-03" rms="3.4196922183036804e-01" purity="7.7788418531417847e-01" nType="-99"/>
        <Node pos="r" depth="1" NCoef="0" IVar="4" Cut="7.9420107603073120e-01" cType="0" res="-1.1650588363409042e-01" rms="2.8390395641326904e-01" purity="1.3994526863098145e-01" nType="0">
          <Node pos="l" depth="2" NCoef="0" IVar="-1" Cut="0.0000000000000000e+00" cType="1" res="2.5288823526352644e-03" rms="4.1249132156372070e-01" purity="5.5977624654769897e-01" nType="-99"/>
          <Node pos="r" depth="2" NCoef="0" IVar="-1" Cut="0.0000000000000000e+00" cType="1" res="-1.8921740353107452e-02" rms="2.5351950526237488e-01" purity="8.8013239204883575e-02" nType="-99"/>
        </Node>
      </Node>
    </BinaryTree>
    <BinaryTree type="DecisionTree" boostWeight="1.0000000000000000e+00" itree="39">
      <Node pos="s" depth="0" NCoef="0" IVar="14" Cut="4.6395277976989746e+00" cType="1" res="8.4897592663764954e-02" rms="3.5179218649864197e-01" purity="5.6772583723068237e-01" nType="0">
        <Node pos="l" depth="1" NCoef="0" IVar="-1" Cut="0.0000000000000000e+00" cType="1" res="7.6921228319406509e-03" rms="3.2379779219627380e-01" purity="8.0746799707412720e-01" nType="-99"/>
        <Node pos="r" depth="1" NCoef="0" IVar="10" Cut="9.3278465792536736e-03" cType="1" res="-9.7122184932231903e-02" rms="3.2180294394493103e-01" purity="1.5804587304592133e-01" nType="0">
          <Node pos="l" depth="2" NCoef="0" IVar="-1" Cut="0.0000000000000000e+00" cType="1" res="2.8310588095337152e-03" rms="4.3747243285179138e-01" purity="5.1638013124465942e-01" nType="-99"/>
          <Node pos="r" depth="2" NCoef="0" IVar="-1" Cut="0.0000000000000000e+00" cType="1" res="-1.1915275827050209e-02" rms="3.0880650877952576e-01" purity="1.3493217527866364e-01" nType="-99"/>
        </Node>
      </Node>
    </BinaryTree>
    <BinaryTree type="DecisionTree" boostWeight="1.0000000000000000e+00" itree="40">
      <Node pos="s" depth="0" NCoef="0" IVar="12" Cut="2.2513880729675293e+00" cType="1" res="8.4078453481197357e-02" rms="3.5040476918220520e-01" purity="5.6772583723068237e-01" nType="0">
        <Node pos="l" depth="1" NCoef="0" IVar="-1" Cut="0.0000000000000000e+00" cType="1" res="8.1892237067222595e-03" rms="3.0677735805511475e-01" purity="8.2917100191116333e-01" nType="-99"/>
        <Node pos="r" depth="1" NCoef="0" IVar="1" Cut="9.2528498172760010e-01" cType="0" res="-7.1898020803928375e-02" rms="3.4169128537178040e-01" purity="2.2942337393760681e-01" nType="0">
          <Node pos="l" depth="2" NCoef="0" IVar="-1" Cut="0.0000000000000000e+00" cType="1" res="2.1018965635448694e-03" rms="4.1455861926078796e-01" purity="5.0854527950286865e-01" nType="-99"/>
          <Node pos="r" depth="2" NCoef="0" IVar="-1" Cut="0.0000000000000000e+00" cType="1" res="-1.3394899666309357e-02" rms="3.0244421958923340e-01" purity="1.3594488799571991e-01" nType="-99"/>
        </Node>
      </Node>
    </BinaryTree>
    <BinaryTree type="DecisionTree" boostWeight="1.0000000000000000e+00" itree="41">
      <Node pos="s" depth="0" NCoef="0" IVar="2" Cut="1.0113632306456566e-02" cType="1" res="8.3369269967079163e-02" rms="3.4891039133071899e-01" purity="5.6772583723068237e-01" nType="0">
        <Node pos="l" depth="1" NCoef="0" IVar="-1" Cut="0.0000000000000000e+00" cType="1" res="7.3751974850893021e-03" rms="3.3922272920608521e-01" purity="7.7856141328811646e-01" nType="-99"/>
        <Node pos="r" depth="1" NCoef="0" IVar="5" Cut="8.6547428369522095e-01" cType="0" res="-1.0790869593620300e-01" rms="2.8360712528228760e-01" purity="1.4280535280704498e-01" nType="0">
          <Node pos="l" depth="2" NCoef="0" IVar="-1" Cut="0.0000000000000000e+00" cType="1" res="1.4562408905476332e-03" rms="4.1697296500205994e-01" purity="5.3191685676574707e-01" nType="-99"/>
          <Node pos="r" depth="2" NCoef="0" IVar="-1" Cut="0.0000000000000000e+00" cType="1" res="-2.2325668483972549e-02" rms="2.3820623755455017e-01" purity="6.6317826509475708e-02" nType="-99"/>
        </Node>
      </Node>
    </BinaryTree>
    <BinaryTree type="DecisionTree" boostWeight="1.0000000000000000e+00" itree="42">
      <Node pos="s" depth="0" NCoef="0" IVar="14" Cut="2.3197638988494873e+00" cType="1" res="8.2962140440940857e-02" rms="3.4711474180221558e-01" purity="5.6772583723068237e-01" nType="0">
        <Node pos="l" depth="1" NCoef="0" IVar="-1" Cut="0.0000000000000000e+00" cType="1" res="8.6769387125968933e-03" rms="2.8171560168266296e-01" purity="8.7402516603469849e-01" nType="-99"/>
        <Node pos="r" depth="1" NCoef="0" IVar="1" Cut="9.3186807632446289e-01" cType="0" res="-4.4529579579830170e-02" rms="3.5255530476570129e-01" purity="2.8647175431251526e-01" nType="0">
          <Node pos="l" depth="2" NCoef="0" IVar="-1" Cut="0.0000000000000000e+00" cType="1" res="3.5814382135868073e-03" rms="4.0313076972961426e-01" purity="5.9301561117172241e-01" nType="-99"/>
          <Node pos="r" depth="2" NCoef="0" IVar="-1" Cut="0.0000000000000000e+00" cType="1" res="-9.5833390951156616e-03" rms="3.2001563906669617e-01" purity="1.8015420436859131e-01" nType="-99"/>
        </Node>
      </Node>
    </BinaryTree>
    <BinaryTree type="DecisionTree" boostWeight="1.0000000000000000e+00" itree="43">
      <Node pos="s" depth="0" NCoef="0" IVar="12" Cut="3.2162687778472900e+00" cType="1" res="8.2171909511089325e-02" rms="3.4579694271087646e-01" purity="5.6772583723068237e-01" nType="0">
        <Node pos="l" depth="1" NCoef="0" IVar="-1" Cut="0.0000000000000000e+00" cType="1" res="7.4943997897207737e-03" rms="3.1898039579391479e-01" purity="7.9490625858306885e-01" nType="-99"/>
        <Node pos="r" depth="1" NCoef="0" IVar="4" Cut="8.2896536588668823e-01" cType="0" res="-9.0806931257247925e-02" rms="3.2246738672256470e-01" purity="1.6824577748775482e-01" nType="0">
          <Node pos="l" depth="2" NCoef="0" IVar="-1" Cut="0.0000000000000000e+00" cType="1" res="1.8131006509065628e-03" rms="4.6041637659072876e-01" purity="5.3722500801086426e-01" nType="-99"/>
          <Node pos="r" depth="2" NCoef="0" IVar="-1" Cut="0.0000000000000000e+00" cType="1" res="-1.2135019525885582e-02" rms="2.9965806007385254e-01" purity="1.2833857536315918e-01" nType="-99"/>
        </Node>
      </Node>
    </BinaryTree>
    <BinaryTree type="DecisionTree" boostWeight="1.0000000000000000e+00" itree="44">
      <Node pos="s" depth="0" NCoef="0" IVar="14" Cut="4.6395277976989746e+00" cType="1" res="8.1312224268913269e-02" rms="3.4451714158058167e-01" purity="5.6772583723068237e-01" nType="0">
        <Node pos="l" depth="1" NCoef="0" IVar="-1" Cut="0.0000000000000000e+00" cType="1" res="7.3929303325712681e-03" rms="3.1869226694107056e-01" purity="8.0746799707412720e-01" nType="-99"/>
        <Node pos="r" depth="1" NCoef="0" IVar="10" Cut="9.3278465792536736e-03" cType="1" res="-8.7065793573856354e-02" rms="3.2096377015113831e-01" purity="1.5804587304592133e-01" nType="0">
          <Node pos="l" depth="2" NCoef="0" IVar="-1" Cut="0.0000000000000000e+00" cType="1" res="2.7079000137746334e-03" rms="4.3589529395103455e-01" purity="5.1638013124465942e-01" nType="-99"/>
          <Node pos="r" depth="2" NCoef="0" IVar="-1" Cut="0.0000000000000000e+00" cType="1" res="-1.1021799407899380e-02" rms="3.0862212181091309e-01" purity="1.3493217527866364e-01" nType="-99"/>
        </Node>
      </Node>
    </BinaryTree>
    <BinaryTree type="DecisionTree" boostWeight="1.0000000000000000e+00" itree="45">
      <Node pos="s" depth="0" NCoef="0" IVar="6" Cut="9.2687964439392090e-01" cType="0" res="8.0468587577342987e-02" rms="3.4332391619682312e-01" purity="5.6772583723068237e-01" nType="0">
        <Node pos="l" depth="1" NCoef="0" IVar="-1" Cut="0.0000000000000000e+00" cType="1" res="6.9682053290307522e-03" rms="3.3911842107772827e-01" purity="7.6798486709594727e-01" nType="-99"/>
        <Node pos="r" depth="1" NCoef="0" IVar="4" Cut="8.2402348518371582e-01" cType="0" res="-1.0840947926044464e-01" rms="2.6900711655616760e-01" purity="1.2577880918979645e-01" nType="0">
          <Node pos="l" depth="2" NCoef="0" IVar="-1" Cut="0.0000000000000000e+00" cType="1" res="3.7442659959197044e-03" rms="3.8797339797019958e-01" purity="6.7048543691635132e-01" nType="-99"/>
          <Node pos="r" depth="2" NCoef="0" IVar="-1" Cut="0.0000000000000000e+00" cType="1" res="-1.9263304769992828e-02" rms="2.4744249880313873e-01" purity="8.1953138113021851e-02" nType="-99"/>
        </Node>
      </Node>
    </BinaryTree>
    <BinaryTree type="DecisionTree" boostWeight="1.0000000000000000e+00" itree="46">
      <Node pos="s" depth="0" NCoef="0" IVar="14" Cut="2.3197638988494873e+00" cType="1" res="7.9951725900173187e-02" rms="3.4177017211914062e-01" purity="5.6772583723068237e-01" nType="0">
        <Node pos="l" depth="1" NCoef="0" IVar="-1" Cut="0.0000000000000000e+00" cType="1" res="8.4018139168620110e-03" rms="2.7941426634788513e-01" purity="8.7402516603469849e-01" nType="-99"/>
        <Node pos="r" depth="1" NCoef="0" IVar="9" Cut="9.7809974104166031e-03" cType="1" res="-3.9885412901639938e-02" rms="3.4981918334960938e-01" purity="2.8647175431251526e-01" nType="0">
          <Node pos="l" depth="2" NCoef="0" IVar="-1" Cut="0.0000000000000000e+00" cType="1" res="2.4649475235491991e-03" rms="4.0895017981529236e-01" purity="5.0344938039779663e-01" nType="-99"/>
          <Node pos="r" depth="2" NCoef="0" IVar="-1" Cut="0.0000000000000000e+00" cType="1" res="-1.2811283580958843e-02" rms="2.9124110937118530e-01" purity="1.4995415508747101e-01" nType="-99"/>
        </Node>
      </Node>
    </BinaryTree>
    <BinaryTree type="DecisionTree" boostWeight="1.0000000000000000e+00" itree="47">
      <Node pos="s" depth="0" NCoef="0" IVar="12" Cut="2.2513880729675293e+00" cType="1" res="7.9293541610240936e-02" rms="3.4047839045524597e-01" purity="5.6772583723068237e-01" nType="0">
        <Node pos="l" depth="1" NCoef="0" IVar="-1" Cut="0.0000000000000000e+00" cType="1" res="7.7587538398802280e-03" rms="3.0107432603836060e-01" purity="8.2917100191116333e-01" nType="-99"/>
        <Node pos="r" depth="1" NCoef="0" IVar="1" Cut="9.3825948238372803e-01" cType="0" res="-6.0822185128927231e-02" rms="3.3739027380943298e-01" purity="2.2942337393760681e-01" nType="0">
          <Node pos="l" depth="2" NCoef="0" IVar="-1" Cut="0.0000000000000000e+00" cType="1" res="2.3875359911471605e-03" rms="4.1010147333145142e-01" purity="5.3557288646697998e-01" nType="-99"/>
          <Node pos="r" depth="2" NCoef="0" IVar="-1" Cut="0.0000000000000000e+00" cType="1" res="-1.0953413322567940e-02" rms="3.0675923824310303e-01" purity="1.4684075117111206e-01" nType="-99"/>
        </Node>
      </Node>
    </BinaryTree>
    <BinaryTree type="DecisionTree" boostWeight="1.0000000000000000e+00" itree="48">
      <Node pos="s" depth="0" NCoef="0" IVar="2" Cut="1.0113632306456566e-02" cType="1" res="7.8497298061847687e-02" rms="3.3930420875549316e-01" purity="5.6772583723068237e-01" nType="0">
        <Node pos="l" depth="1" NCoef="0" IVar="-1" Cut="0.0000000000000000e+00" cType="1" res="6.9861868396401405e-03" rms="3.3382213115692139e-01" purity="7.7856141328811646e-01" nType="-99"/>
        <Node pos="r" depth="1" NCoef="0" IVar="4" Cut="7.7634859085083008e-01" cType="0" res="-9.3586191534996033e-02" rms="2.7974745631217957e-01" purity="1.4280535280704498e-01" nType="0">
          <Node pos="l" depth="2" NCoef="0" IVar="-1" Cut="0.0000000000000000e+00" cType="1" res="1.9517760956659913e-03" rms="4.0078109502792358e-01" purity="5.0858026742935181e-01" nType="-99"/>
          <Node pos="r" depth="2" NCoef="0" IVar="-1" Cut="0.0000000000000000e+00" cType="1" res="-1.8165374174714088e-02" rms="2.4499772489070892e-01" purity="8.0850422382354736e-02" nType="-99"/>
        </Node>
      </Node>
    </BinaryTree>
    <BinaryTree type="DecisionTree" boostWeight="1.0000000000000000e+00" itree="49">
      <Node pos="s" depth="0" NCoef="0" IVar="14" Cut="2.3197638988494873e+00" cType="1" res="7.7883154153823853e-02" rms="3.3793061971664429e-01" purity="5.6772583723068237e-01" nType="0">
        <Node pos="l" depth="1" NCoef="0" IVar="-1" Cut="0.0000000000000000e+00" cType="1" res="8.2219932228326797e-03" rms="2.7730211615562439e-01" purity="8.7402516603469849e-01" nType="-99"/>
        <Node pos="r" depth="1" NCoef="0" IVar="1" Cut="9.2200684547424316e-01" cType="0" res="-3.6742947995662689e-02" rms="3.4784978628158569e-01" purity="2.8647175431251526e-01" nType="0">
          <Node pos="l" depth="2" NCoef="0" IVar="-1" Cut="0.0000000000000000e+00" cType="1" res="3.1911490950733423e-03" rms="3.9980816841125488e-01" purity="5.7353204488754272e-01" nType="-99"/>
          <Node pos="r" depth="2" NCoef="0" IVar="-1" Cut="0.0000000000000000e+00" cType="1" res="-9.1808354482054710e-03" rms="3.1345233321189880e-01" purity="1.7227514088153839e-01" nType="-99"/>
        </Node>
      </Node>
    </BinaryTree>
    <BinaryTree type="DecisionTree" boostWeight="1.0000000000000000e+00" itree="50">
      <Node pos="s" depth="0" NCoef="0" IVar="12" Cut="1.9297612905502319e+00" cType="1" res="7.7093727886676788e-02" rms="3.3683973550796509e-01" purity="5.6772583723068237e-01" nType="0">
        <Node pos="l" depth="1" NCoef="0" IVar="-1" Cut="0.0000000000000000e+00" cType="1" res="7.8118513338267803e-03" rms="2.9191321134567261e-01" purity="8.4102505445480347e-01" nType="-99"/>
        <Node pos="r" depth="1" NCoef="0" IVar="5" Cut="8.9060014486312866e-01" cType="0" res="-4.7999814152717590e-02" rms="3.4032711386680603e-01" purity="2.5931453704833984e-01" nType="0">
          <Node pos="l" depth="2" NCoef="0" IVar="-1" Cut="0.0000000000000000e+00" cType="1" res="3.4880025777965784e-03" rms="4.1848596930503845e-01" purity="6.8351191282272339e-01" nType="-99"/>
          <Node pos="r" depth="2" NCoef="0" IVar="-1" Cut="0.0000000000000000e+00" cType="1" res="-8.5897985845804214e-03" rms="3.1210151314735413e-01" purity="1.6760697960853577e-01" nType="-99"/>
        </Node>
      </Node>
    </BinaryTree>
    <BinaryTree type="DecisionTree" boostWeight="1.0000000000000000e+00" itree="51">
      <Node pos="s" depth="0" NCoef="0" IVar="14" Cut="4.6395277976989746e+00" cType="1" res="7.6243937015533447e-02" rms="3.3580550551414490e-01" purity="5.6772583723068237e-01" nType="0">
        <Node pos="l" depth="1" NCoef="0" IVar="-1" Cut="0.0000000000000000e+00" cType="1" res="7.0151509717106819e-03" rms="3.1236824393272400e-01" purity="8.0746799707412720e-01" nType="-99"/>
        <Node pos="r" depth="1" NCoef="0" IVar="13" Cut="2.5055078506469727e+01" cType="0" res="-7.5723074376583099e-02" rms="3.1955674290657043e-01" purity="1.5804587304592133e-01" nType="0">
          <Node pos="l" depth="2" NCoef="0" IVar="-1" Cut="0.0000000000000000e+00" cType="1" res="4.0942900814116001e-03" rms="3.8745644688606262e-01" purity="2.9181343317031860e-01" nType="-99"/>
          <Node pos="r" depth="2" NCoef="0" IVar="-1" Cut="0.0000000000000000e+00" cType="1" res="-9.4441017135977745e-03" rms="3.1003144383430481e-01" purity="1.4725799858570099e-01" nType="-99"/>
        </Node>
      </Node>
    </BinaryTree>
    <BinaryTree type="DecisionTree" boostWeight="1.0000000000000000e+00" itree="52">
      <Node pos="s" depth="0" NCoef="0" IVar="6" Cut="9.2551714181900024e-01" cType="0" res="7.5346328318119049e-02" rms="3.3484518527984619e-01" purity="5.6772583723068237e-01" nType="0">
        <Node pos="l" depth="1" NCoef="0" IVar="-1" Cut="0.0000000000000000e+00" cType="1" res="6.5229060128331184e-03" rms="3.3526378870010376e-01" purity="7.6397955417633057e-01" nType="-99"/>
        <Node pos="r" depth="1" NCoef="0" IVar="4" Cut="8.2467639446258545e-01" cType="0" res="-9.9302582442760468e-02" rms="2.6037973165512085e-01" purity="1.1325976997613907e-01" nType="0">
          <Node pos="l" depth="2" NCoef="0" IVar="-1" Cut="0.0000000000000000e+00" cType="1" res="3.3561659511178732e-03" rms="3.8863140344619751e-01" purity="6.5558660030364990e-01" nType="-99"/>
          <Node pos="r" depth="2" NCoef="0" IVar="-1" Cut="0.0000000000000000e+00" cType="1" res="-1.8632564693689346e-02" rms="2.4294550716876984e-01" purity="7.7151097357273102e-02" nType="-99"/>
        </Node>
      </Node>
    </BinaryTree>
    <BinaryTree type="DecisionTree" boostWeight="1.0000000000000000e+00" itree="53">
      <Node pos="s" depth="0" NCoef="0" IVar="14" Cut="2.3197638988494873e+00" cType="1" res="7.4802808463573456e-02" rms="3.3355703949928284e-01" purity="5.6772583723068237e-01" nType="0">
        <Node pos="l" depth="1" NCoef="0" IVar="-1" Cut="0.0000000000000000e+00" cType="1" res="7.9724574461579323e-03" rms="2.7536806464195251e-01" purity="8.7402516603469849e-01" nType="-99"/>
        <Node pos="r" depth="1" NCoef="0" IVar="9" Cut="9.4210645183920860e-03" cType="1" res="-3.3184453845024109e-02" rms="3.4559351205825806e-01" purity="2.8647175431251526e-01" nType="0">
          <Node pos="l" depth="2" NCoef="0" IVar="-1" Cut="0.0000000000000000e+00" cType="1" res="2.7377610094845295e-03" rms="4.0637040138244629e-01" purity="5.2509808540344238e-01" nType="-99"/>
          <Node pos="r" depth="2" NCoef="0" IVar="-1" Cut="0.0000000000000000e+00" cType="1" res="-1.0065828450024128e-02" rms="2.9898872971534729e-01" purity="1.6654609143733978e-01" nType="-99"/>
        </Node>
      </Node>
    </BinaryTree>
    <BinaryTree type="DecisionTree" boostWeight="1.0000000000000000e+00" itree="54">
      <Node pos="s" depth="0" NCoef="0" IVar="12" Cut="3.2162687778472900e+00" cType="1" res="7.4077516794204712e-02" rms="3.3254352211952209e-01" purity="5.6772583723068237e-01" nType="0">
        <Node pos="l" depth="1" NCoef="0" IVar="-1" Cut="0.0000000000000000e+00" cType="1" res="6.9106952287256718e-03" rms="3.0966508388519287e-01" purity="7.9490625858306885e-01" nType="-99"/>
        <Node pos="r" depth="1" NCoef="0" IVar="13" Cut="1.9519655227661133e+01" cType="0" res="-7.3778934776782990e-02" rms="3.1957364082336426e-01" purity="1.6824577748775482e-01" nType="0">
          <Node pos="l" depth="2" NCoef="0" IVar="-1" Cut="0.0000000000000000e+00" cType="1" res="3.7458015140146017e-03" rms="3.6717250943183899e-01" purity="2.3832744359970093e-01" nType="-99"/>
          <Node pos="r" depth="2" NCoef="0" IVar="-1" Cut="0.0000000000000000e+00" cType="1" res="-9.2244436964392662e-03" rms="3.0956962704658508e-01" purity="1.5978905558586121e-01" nType="-99"/>
        </Node>
      </Node>
    </BinaryTree>
    <BinaryTree type="DecisionTree" boostWeight="1.0000000000000000e+00" itree="55">
      <Node pos="s" depth="0" NCoef="0" IVar="2" Cut="1.0067239403724670e-02" cType="1" res="7.3143966495990753e-02" rms="3.3163186907768250e-01" purity="5.6772583723068237e-01" nType="0">
        <Node pos="l" depth="1" NCoef="0" IVar="-1" Cut="0.0000000000000000e+00" cType="1" res="6.6836350597441196e-03" rms="3.2859721779823303e-01" purity="7.8049385547637939e-01" nType="-99"/>
        <Node pos="r" depth="1" NCoef="0" IVar="4" Cut="7.9128396511077881e-01" cType="0" res="-8.0367282032966614e-02" rms="2.7974724769592285e-01" purity="1.5224230289459229e-01" nType="0">
          <Node pos="l" depth="2" NCoef="0" IVar="-1" Cut="0.0000000000000000e+00" cType="1" res="2.5364058092236519e-03" rms="3.9415749907493591e-01" purity="5.7516866922378540e-01" nType="-99"/>
          <Node pos="r" depth="2" NCoef="0" IVar="-1" Cut="0.0000000000000000e+00" cType="1" res="-1.5274339355528355e-02" rms="2.5126868486404419e-01" purity="9.1043889522552490e-02" nType="-99"/>
        </Node>
      </Node>
    </BinaryTree>
    <BinaryTree type="DecisionTree" boostWeight="1.0000000000000000e+00" itree="56">
      <Node pos="s" depth="0" NCoef="0" IVar="14" Cut="4.6395277976989746e+00" cType="1" res="7.2451844811439514e-02" rms="3.3053344488143921e-01" purity="5.6772583723068237e-01" nType="0">
        <Node pos="l" depth="1" NCoef="0" IVar="-1" Cut="0.0000000000000000e+00" cType="1" res="6.7563238553702831e-03" rms="3.0845227837562561e-01" purity="8.0746799707412720e-01" nType="-99"/>
        <Node pos="r" depth="1" NCoef="0" IVar="13" Cut="2.5055078506469727e+01" cType="0" res="-6.9218203425407410e-02" rms="3.1866565346717834e-01" purity="1.5804587304592133e-01" nType="0">
          <Node pos="l" depth="2" NCoef="0" IVar="-1" Cut="0.0000000000000000e+00" cType="1" res="4.1981199756264687e-03" rms="3.8520163297653198e-01" purity="2.9181343317031860e-01" nType="-99"/>
          <Node pos="r" depth="2" NCoef="0" IVar="-1" Cut="0.0000000000000000e+00" cType="1" res="-8.8612241670489311e-03" rms="3.0948060750961304e-01" purity="1.4725799858570099e-01" nType="-99"/>
        </Node>
      </Node>
    </BinaryTree>
    <BinaryTree type="DecisionTree" boostWeight="1.0000000000000000e+00" itree="57">
      <Node pos="s" depth="0" NCoef="0" IVar="12" Cut="1.9297612905502319e+00" cType="1" res="7.1572445333003998e-02" rms="3.2969200611114502e-01" purity="5.6772583723068237e-01" nType="0">
        <Node pos="l" depth="1" NCoef="0" IVar="-1" Cut="0.0000000000000000e+00" cType="1" res="7.4213044717907906e-03" rms="2.8780654072761536e-01" purity="8.4102505445480347e-01" nType="-99"/>
        <Node pos="r" depth="1" NCoef="0" IVar="1" Cut="9.1141569614410400e-01" cType="0" res="-4.2149636894464493e-02" rms="3.3688405156135559e-01" purity="2.5931453704833984e-01" nType="0">
          <Node pos="l" depth="2" NCoef="0" IVar="-1" Cut="0.0000000000000000e+00" cType="1" res="2.3932873737066984e-03" rms="3.9540296792984009e-01" purity="5.2549993991851807e-01" nType="-99"/>
          <Node pos="r" depth="2" NCoef="0" IVar="-1" Cut="0.0000000000000000e+00" cType="1" res="-1.0590771213173866e-02" rms="2.9949831962585449e-01" purity="1.4664830267429352e-01" nType="-99"/>
        </Node>
      </Node>
    </BinaryTree>
    <BinaryTree type="DecisionTree" boostWeight="1.0000000000000000e+00" itree="58">
      <Node pos="s" depth="0" NCoef="0" IVar="6" Cut="9.2733377218246460e-01" cType="0" res="7.0847228169441223e-02" rms="3.2873806357383728e-01" purity="5.6772583723068237e-01" nType="0">
        <Node pos="l" depth="1" NCoef="0" IVar="-1" Cut="0.0000000000000000e+00" cType="1" res="6.3135777600109577e-03" rms="3.3048543334007263e-01" purity="7.6936829090118408e-01" nType="-99"/>
        <Node pos="r" depth="1" NCoef="0" IVar="4" Cut="8.3043062686920166e-01" cType="0" res="-8.4118209779262543e-02" rms="2.6549082994461060e-01" purity="1.3031135499477386e-01" nType="0">
          <Node pos="l" depth="2" NCoef="0" IVar="-1" Cut="0.0000000000000000e+00" cType="1" res="3.9208647795021534e-03" rms="3.7037113308906555e-01" purity="7.1113991737365723e-01" nType="-99"/>
          <Node pos="r" depth="2" NCoef="0" IVar="-1" Cut="0.0000000000000000e+00" cType="1" res="-1.5569935552775860e-02" rms="2.4927237629890442e-01" purity="8.8643573224544525e-02" nType="-99"/>
        </Node>
      </Node>
    </BinaryTree>
    <BinaryTree type="DecisionTree" boostWeight="1.0000000000000000e+00" itree="59">
      <Node pos="s" depth="0" NCoef="0" IVar="14" Cut="2.3197638988494873e+00" cType="1" res="7.0211619138717651e-02" rms="3.2769671082496643e-01" purity="5.6772583723068237e-01" nType="0">
        <Node pos="l" depth="1" NCoef="0" IVar="-1" Cut="0.0000000000000000e+00" cType="1" res="7.6574399136006832e-03" rms="2.7190059423446655e-01" purity="8.7402516603469849e-01" nType="-99"/>
        <Node pos="r" depth="1" NCoef="0" IVar="1" Cut="9.1214567422866821e-01" cType="0" res="-2.9671359807252884e-02" rms="3.4243708848953247e-01" purity="2.8647175431251526e-01" nType="0">
          <Node pos="l" depth="2" NCoef="0" IVar="-1" Cut="0.0000000000000000e+00" cType="1" res="2.8444558847695589e-03" rms="3.9440897107124329e-01" purity="5.5629938840866089e-01" nType="-99"/>
          <Node pos="r" depth="2" NCoef="0" IVar="-1" Cut="0.0000000000000000e+00" cType="1" res="-8.6154639720916748e-03" rms="3.0723920464515686e-01" purity="1.6674450039863586e-01" nType="-99"/>
        </Node>
      </Node>
    </BinaryTree>
    <BinaryTree type="DecisionTree" boostWeight="1.0000000000000000e+00" itree="60">
      <Node pos="s" depth="0" NCoef="0" IVar="12" Cut="3.5378956794738770e+00" cType="1" res="6.9464638829231262e-02" rms="3.2684394717216492e-01" purity="5.6772583723068237e-01" nType="0">
        <Node pos="l" depth="1" NCoef="0" IVar="-1" Cut="0.0000000000000000e+00" cType="1" res="6.5111238509416580e-03" rms="3.0854609608650208e-01" purity="7.8418511152267456e-01" nType="-99"/>
        <Node pos="r" depth="1" NCoef="0" IVar="13" Cut="1.7480287551879883e+01" cType="0" res="-7.1797110140323639e-02" rms="3.1384599208831787e-01" purity="1.5594999492168427e-01" nType="0">
          <Node pos="l" depth="2" NCoef="0" IVar="-1" Cut="0.0000000000000000e+00" cType="1" res="3.3836166840046644e-03" rms="3.5842519998550415e-01" purity="2.2398528456687927e-01" nType="-99"/>
          <Node pos="r" depth="2" NCoef="0" IVar="-1" Cut="0.0000000000000000e+00" cType="1" res="-1.0029787197709084e-02" rms="3.0174922943115234e-01" purity="1.4515662193298340e-01" nType="-99"/>
        </Node>
      </Node>
    </BinaryTree>
    <BinaryTree type="DecisionTree" boostWeight="1.0000000000000000e+00" itree="61">
      <Node pos="s" depth="0" NCoef="0" IVar="14" Cut="4.6395277976989746e+00" cType="1" res="6.8595081567764282e-02" rms="3.2601118087768555e-01" purity="5.6772583723068237e-01" nType="0">
        <Node pos="l" depth="1" NCoef="0" IVar="-1" Cut="0.0000000000000000e+00" cType="1" res="6.5037957392632961e-03" rms="3.0510976910591125e-01" purity="8.0746799707412720e-01" nType="-99"/>
        <Node pos="r" depth="1" NCoef="0" IVar="13" Cut="2.5055078506469727e+01" cType="0" res="-6.3562616705894470e-02" rms="3.1802302598953247e-01" purity="1.5804587304592133e-01" nType="0">
          <Node pos="l" depth="2" NCoef="0" IVar="-1" Cut="0.0000000000000000e+00" cType="1" res="4.2789266444742680e-03" rms="3.8395738601684570e-01" purity="2.9181343317031860e-01" nType="-99"/>
          <Node pos="r" depth="2" NCoef="0" IVar="-1" Cut="0.0000000000000000e+00" cType="1" res="-8.3442768082022667e-03" rms="3.0908340215682983e-01" purity="1.4725799858570099e-01" nType="-99"/>
        </Node>
      </Node>
    </BinaryTree>
    <BinaryTree type="DecisionTree" boostWeight="1.0000000000000000e+00" itree="62">
      <Node pos="s" depth="0" NCoef="0" IVar="2" Cut="1.0067239403724670e-02" cType="1" res="6.7743398249149323e-02" rms="3.2527410984039307e-01" purity="5.6772583723068237e-01" nType="0">
        <Node pos="l" depth="1" NCoef="0" IVar="-1" Cut="0.0000000000000000e+00" cType="1" res="6.3408012501895428e-03" rms="3.2471388578414917e-01" purity="7.8049385547637939e-01" nType="-99"/>
        <Node pos="r" depth="1" NCoef="0" IVar="4" Cut="7.5702047348022461e-01" cType="0" res="-7.2337783873081207e-02" rms="2.7720540761947632e-01" purity="1.5224230289459229e-01" nType="0">
          <Node pos="l" depth="2" NCoef="0" IVar="-1" Cut="0.0000000000000000e+00" cType="1" res="1.6427607042714953e-03" rms="3.8457539677619934e-01" purity="4.7933796048164368e-01" nType="-99"/>
          <Node pos="r" depth="2" NCoef="0" IVar="-1" Cut="0.0000000000000000e+00" cType="1" res="-1.7229378223419189e-02" rms="2.3804125189781189e-01" purity="7.6151423156261444e-02" nType="-99"/>
        </Node>
      </Node>
    </BinaryTree>
    <BinaryTree type="DecisionTree" boostWeight="1.0000000000000000e+00" itree="63">
      <Node pos="s" depth="0" NCoef="0" IVar="14" Cut="2.3197638988494873e+00" cType="1" res="6.7160002887248993e-02" rms="3.2426747679710388e-01" purity="5.6772583723068237e-01" nType="0">
        <Node pos="l" depth="1" NCoef="0" IVar="-1" Cut="0.0000000000000000e+00" cType="1" res="7.4324416927993298e-03" rms="2.7030560374259949e-01" purity="8.7402516603469849e-01" nType="-99"/>
        <Node pos="r" depth="1" NCoef="0" IVar="9" Cut="9.7809974104166031e-03" cType="1" res="-2.7187995612621307e-02" rms="3.4060895442962646e-01" purity="2.8647175431251526e-01" nType="0">
          <Node pos="l" depth="2" NCoef="0" IVar="-1" Cut="0.0000000000000000e+00" cType="1" res="2.3202686570584774e-03" rms="4.0046188235282898e-01" purity="5.0344938039779663e-01" nType="-99"/>
          <Node pos="r" depth="2" NCoef="0" IVar="-1" Cut="0.0000000000000000e+00" cType="1" res="-1.0511623695492744e-02" rms="2.8628200292587280e-01" purity="1.4995415508747101e-01" nType="-99"/>
        </Node>
      </Node>
    </BinaryTree>
    <BinaryTree type="DecisionTree" boostWeight="1.0000000000000000e+00" itree="64">
      <Node pos="s" depth="0" NCoef="0" IVar="12" Cut="1.9297612905502319e+00" cType="1" res="6.6505089402198792e-02" rms="3.2344633340835571e-01" purity="5.6772583723068237e-01" nType="0">
        <Node pos="l" depth="1" NCoef="0" IVar="-1" Cut="0.0000000000000000e+00" cType="1" res="7.0632933638989925e-03" rms="2.8422483801841736e-01" purity="8.4102505445480347e-01" nType="-99"/>
        <Node pos="r" depth="1" NCoef="0" IVar="9" Cut="9.7182979807257652e-03" cType="1" res="-3.6966759711503983e-02" rms="3.3364558219909668e-01" purity="2.5931453704833984e-01" nType="0">
          <Node pos="l" depth="2" NCoef="0" IVar="-1" Cut="0.0000000000000000e+00" cType="1" res="1.8062989693135023e-03" rms="3.9867943525314331e-01" purity="4.7358706593513489e-01" nType="-99"/>
          <Node pos="r" depth="2" NCoef="0" IVar="-1" Cut="0.0000000000000000e+00" cType="1" res="-1.1944248341023922e-02" rms="2.7984818816184998e-01" purity="1.3426515460014343e-01" nType="-99"/>
        </Node>
      </Node>
    </BinaryTree>
    <BinaryTree type="DecisionTree" boostWeight="1.0000000000000000e+00" itree="65">
      <Node pos="s" depth="0" NCoef="0" IVar="6" Cut="9.2733377218246460e-01" cType="0" res="6.5855056047439575e-02" rms="3.2260349392890930e-01" purity="5.6772583723068237e-01" nType="0">
        <Node pos="l" depth="1" NCoef="0" IVar="-1" Cut="0.0000000000000000e+00" cType="1" res="5.9854085557162762e-03" rms="3.2679450511932373e-01" purity="7.6936829090118408e-01" nType="-99"/>
        <Node pos="r" depth="1" NCoef="0" IVar="4" Cut="8.3043062686920166e-01" cType="0" res="-7.4953049421310425e-02" rms="2.6306310296058655e-01" purity="1.3031135499477386e-01" nType="0">
          <Node pos="l" depth="2" NCoef="0" IVar="-1" Cut="0.0000000000000000e+00" cType="1" res="3.7186159752309322e-03" rms="3.6745464801788330e-01" purity="7.1113991737365723e-01" nType="-99"/>
          <Node pos="r" depth="2" NCoef="0" IVar="-1" Cut="0.0000000000000000e+00" cType="1" res="-1.4480554498732090e-02" rms="2.4802069365978241e-01" purity="8.8643573224544525e-02" nType="-99"/>
        </Node>
      </Node>
    </BinaryTree>
    <BinaryTree type="DecisionTree" boostWeight="1.0000000000000000e+00" itree="66">
      <Node pos="s" depth="0" NCoef="0" IVar="14" Cut="2.3197638988494873e+00" cType="1" res="6.5217435359954834e-02" rms="3.2174098491668701e-01" purity="5.6772583723068237e-01" nType="0">
        <Node pos="l" depth="1" NCoef="0" IVar="-1" Cut="0.0000000000000000e+00" cType="1" res="7.2850193828344345e-03" rms="2.6876699924468994e-01" purity="8.7402516603469849e-01" nType="-99"/>
        <Node pos="r" depth="1" NCoef="0" IVar="5" Cut="8.9377731084823608e-01" cType="0" res="-2.5270406156778336e-02" rms="3.3931666612625122e-01" purity="2.8647175431251526e-01" nType="0">
          <Node pos="l" depth="2" NCoef="0" IVar="-1" Cut="0.0000000000000000e+00" cType="1" res="3.7471069954335690e-03" rms="4.0384414792060852e-01" purity="7.0677256584167480e-01" nType="-99"/>
          <Node pos="r" depth="2" NCoef="0" IVar="-1" Cut="0.0000000000000000e+00" cType="1" res="-5.4581607691943645e-03" rms="3.1723344326019287e-01" purity="1.9605264067649841e-01" nType="-99"/>
        </Node>
      </Node>
    </BinaryTree>
    <BinaryTree type="DecisionTree" boostWeight="1.0000000000000000e+00" itree="67">
      <Node pos="s" depth="0" NCoef="0" IVar="12" Cut="1.9297612905502319e+00" cType="1" res="6.4396321773529053e-02" rms="3.2110881805419922e-01" purity="5.6772583723068237e-01" nType="0">
        <Node pos="l" depth="1" NCoef="0" IVar="-1" Cut="0.0000000000000000e+00" cType="1" res="6.9023398682475090e-03" rms="2.8307589888572693e-01" purity="8.4102505445480347e-01" nType="-99"/>
        <Node pos="r" depth="1" NCoef="0" IVar="1" Cut="9.3378549814224243e-01" cType="0" res="-3.4643273800611496e-02" rms="3.3247706294059753e-01" purity="2.5931453704833984e-01" nType="0">
          <Node pos="l" depth="2" NCoef="0" IVar="-1" Cut="0.0000000000000000e+00" cType="1" res="2.6463328395038843e-03" rms="3.8987323641777039e-01" purity="5.6811535358428955e-01" nType="-99"/>
          <Node pos="r" depth="2" NCoef="0" IVar="-1" Cut="0.0000000000000000e+00" cType="1" res="-8.0769825726747513e-03" rms="3.0556729435920715e-01" purity="1.6131861507892609e-01" nType="-99"/>
        </Node>
      </Node>
    </BinaryTree>
    <BinaryTree type="DecisionTree" boostWeight="1.0000000000000000e+00" itree="68">
      <Node pos="s" depth="0" NCoef="0" IVar="14" Cut="4.6395277976989746e+00" cType="1" res="6.3657470047473907e-02" rms="3.2041347026824951e-01" purity="5.6772583723068237e-01" nType="0">
        <Node pos="l" depth="1" NCoef="0" IVar="-1" Cut="0.0000000000000000e+00" cType="1" res="6.1824270524084568e-03" rms="3.0078479647636414e-01" purity="8.0746799707412720e-01" nType="-99"/>
        <Node pos="r" depth="1" NCoef="0" IVar="8" Cut="2.7204277038574219e+01" cType="1" res="-5.6537277996540070e-02" rms="3.1717532873153687e-01" purity="1.5804587304592133e-01" nType="0">
          <Node pos="l" depth="2" NCoef="0" IVar="-1" Cut="0.0000000000000000e+00" cType="1" res="-2.4929689243435860e-04" rms="3.4631690382957458e-01" purity="2.0985600352287292e-01" nType="-99"/>
          <Node pos="r" depth="2" NCoef="0" IVar="-1" Cut="0.0000000000000000e+00" cType="1" res="-1.7602195963263512e-02" rms="2.9308977723121643e-01" purity="1.2599942088127136e-01" nType="-99"/>
        </Node>
      </Node>
    </BinaryTree>
    <BinaryTree type="DecisionTree" boostWeight="1.0000000000000000e+00" itree="69">
      <Node pos="s" depth="0" NCoef="0" IVar="2" Cut="1.0036311112344265e-02" cType="1" res="6.3276074826717377e-02" rms="3.1954702734947205e-01" purity="5.6772583723068237e-01" nType="0">
        <Node pos="l" depth="1" NCoef="0" IVar="-1" Cut="0.0000000000000000e+00" cType="1" res="6.0797366313636303e-03" rms="3.2077383995056152e-01" purity="7.8173357248306274e-01" nType="-99"/>
        <Node pos="r" depth="1" NCoef="0" IVar="4" Cut="8.0490154027938843e-01" cType="0" res="-6.2769576907157898e-02" rms="2.7640879154205322e-01" purity="1.5911899507045746e-01" nType="0">
          <Node pos="l" depth="2" NCoef="0" IVar="-1" Cut="0.0000000000000000e+00" cType="1" res="2.9178645927459002e-03" rms="3.8070967793464661e-01" purity="6.3538569211959839e-01" nType="-99"/>
          <Node pos="r" depth="2" NCoef="0" IVar="-1" Cut="0.0000000000000000e+00" cType="1" res="-1.1809664778411388e-02" rms="2.5552159547805786e-01" purity="1.0255399346351624e-01" nType="-99"/>
        </Node>
      </Node>
    </BinaryTree>
    <BinaryTree type="DecisionTree" boostWeight="1.0000000000000000e+00" itree="70">
      <Node pos="s" depth="0" NCoef="0" IVar="12" Cut="3.5378956794738770e+00" cType="1" res="6.2542855739593506e-02" rms="3.1881621479988098e-01" purity="5.6772583723068237e-01" nType="0">
        <Node pos="l" depth="1" NCoef="0" IVar="-1" Cut="0.0000000000000000e+00" cType="1" res="6.0633081011474133e-03" rms="3.0260056257247925e-01" purity="7.8418511152267456e-01" nType="-99"/>
        <Node pos="r" depth="1" NCoef="0" IVar="13" Cut="1.7188949584960938e+01" cType="0" res="-6.1054334044456482e-02" rms="3.1225997209548950e-01" purity="1.5594999492168427e-01" nType="0">
          <Node pos="l" depth="2" NCoef="0" IVar="-1" Cut="0.0000000000000000e+00" cType="1" res="4.0025203488767147e-03" rms="3.5533905029296875e-01" purity="2.2165234386920929e-01" nType="-99"/>
          <Node pos="r" depth="2" NCoef="0" IVar="-1" Cut="0.0000000000000000e+00" cType="1" res="-9.1523174196481705e-03" rms="3.0024603009223938e-01" purity="1.4514888823032379e-01" nType="-99"/>
        </Node>
      </Node>
    </BinaryTree>
    <BinaryTree type="DecisionTree" boostWeight="1.0000000000000000e+00" itree="71">
      <Node pos="s" depth="0" NCoef="0" IVar="14" Cut="2.3197638988494873e+00" cType="1" res="6.1733294278383255e-02" rms="3.1815645098686218e-01" purity="5.6772583723068237e-01" nType="0">
        <Node pos="l" depth="1" NCoef="0" IVar="-1" Cut="0.0000000000000000e+00" cType="1" res="7.0350626483559608e-03" rms="2.6693764328956604e-01" purity="8.7402516603469849e-01" nType="-99"/>
        <Node pos="r" depth="1" NCoef="0" IVar="1" Cut="9.0945625305175781e-01" cType="0" res="-2.2783778607845306e-02" rms="3.3737015724182129e-01" purity="2.8647175431251526e-01" nType="0">
          <Node pos="l" depth="2" NCoef="0" IVar="-1" Cut="0.0000000000000000e+00" cType="1" res="2.6696512941271067e-03" rms="3.8874095678329468e-01" purity="5.5189287662506104e-01" nType="-99"/>
          <Node pos="r" depth="2" NCoef="0" IVar="-1" Cut="0.0000000000000000e+00" cType="1" res="-7.5802742503583431e-03" rms="3.0376291275024414e-01" purity="1.6551771759986877e-01" nType="-99"/>
        </Node>
      </Node>
    </BinaryTree>
    <BinaryTree type="DecisionTree" boostWeight="1.0000000000000000e+00" itree="72">
      <Node pos="s" depth="0" NCoef="0" IVar="2" Cut="1.0036311112344265e-02" cType="1" res="6.1035331338644028e-02" rms="3.1753474473953247e-01" purity="5.6772583723068237e-01" nType="0">
        <Node pos="l" depth="1" NCoef="0" IVar="-1" Cut="0.0000000000000000e+00" cType="1" res="5.9284521266818047e-03" rms="3.1971937417984009e-01" purity="7.8173357248306274e-01" nType="-99"/>
        <Node pos="r" depth="1" NCoef="0" IVar="9" Cut="9.6563715487718582e-03" cType="1" res="-5.9854798018932343e-02" rms="2.7550229430198669e-01" purity="1.5911899507045746e-01" nType="0">
          <Node pos="l" depth="2" NCoef="0" IVar="-1" Cut="0.0000000000000000e+00" cType="1" res="1.1972641805186868e-03" rms="3.5945835709571838e-01" purity="3.9721381664276123e-01" nType="-99"/>
          <Node pos="r" depth="2" NCoef="0" IVar="-1" Cut="0.0000000000000000e+00" cType="1" res="-1.7833752557635307e-02" rms="2.3113465309143066e-01" purity="7.4191108345985413e-02" nType="-99"/>
        </Node>
      </Node>
    </BinaryTree>
    <BinaryTree type="DecisionTree" boostWeight="1.0000000000000000e+00" itree="73">
      <Node pos="s" depth="0" NCoef="0" IVar="12" Cut="1.9297612905502319e+00" cType="1" res="6.0497824102640152e-02" rms="3.1670472025871277e-01" purity="5.6772583723068237e-01" nType="0">
        <Node pos="l" depth="1" NCoef="0" IVar="-1" Cut="0.0000000000000000e+00" cType="1" res="6.6198706626892090e-03" rms="2.8049185872077942e-01" purity="8.4102505445480347e-01" nType="-99"/>
        <Node pos="r" depth="1" NCoef="0" IVar="9" Cut="8.8684577494859695e-03" cType="1" res="-3.0798409134149551e-02" rms="3.3012938499450684e-01" purity="2.5931453704833984e-01" nType="0">
          <Node pos="l" depth="2" NCoef="0" IVar="-1" Cut="0.0000000000000000e+00" cType="1" res="2.4744870606809855e-03" rms="3.9999300241470337e-01" purity="5.2302700281143188e-01" nType="-99"/>
          <Node pos="r" depth="2" NCoef="0" IVar="-1" Cut="0.0000000000000000e+00" cType="1" res="-7.7446713112294674e-03" rms="2.9648566246032715e-01" purity="1.6868938505649567e-01" nType="-99"/>
        </Node>
      </Node>
    </BinaryTree>
    <BinaryTree type="DecisionTree" boostWeight="1.0000000000000000e+00" itree="74">
      <Node pos="s" depth="0" NCoef="0" IVar="14" Cut="2.3197638988494873e+00" cType="1" res="5.9785515069961548e-02" rms="3.1610813736915588e-01" purity="5.6772583723068237e-01" nType="0">
        <Node pos="l" depth="1" NCoef="0" IVar="-1" Cut="0.0000000000000000e+00" cType="1" res="6.8977638147771358e-03" rms="2.6561442017555237e-01" purity="8.7402516603469849e-01" nType="-99"/>
        <Node pos="r" depth="1" NCoef="0" IVar="5" Cut="8.9377731084823608e-01" cType="0" res="-2.1431542932987213e-02" rms="3.3632740378379822e-01" purity="2.8647175431251526e-01" nType="0">
          <Node pos="l" depth="2" NCoef="0" IVar="-1" Cut="0.0000000000000000e+00" cType="1" res="3.5160230472683907e-03" rms="4.0050229430198669e-01" purity="7.0677256584167480e-01" nType="-99"/>
          <Node pos="r" depth="2" NCoef="0" IVar="-1" Cut="0.0000000000000000e+00" cType="1" res="-4.9071256071329117e-03" rms="3.1544518470764160e-01" purity="1.9605264067649841e-01" nType="-99"/>
        </Node>
      </Node>
    </BinaryTree>
    <BinaryTree type="DecisionTree" boostWeight="1.0000000000000000e+00" itree="75">
      <Node pos="s" depth="0" NCoef="0" IVar="6" Cut="9.2733377218246460e-01" cType="0" res="5.9010304510593414e-02" rms="3.1559976935386658e-01" purity="5.6772583723068237e-01" nType="0">
        <Node pos="l" depth="1" NCoef="0" IVar="-1" Cut="0.0000000000000000e+00" cType="1" res="5.5534485727548599e-03" rms="3.2244724035263062e-01" purity="7.6936829090118408e-01" nType="-99"/>
        <Node pos="r" depth="1" NCoef="0" IVar="4" Cut="8.3043062686920166e-01" cType="0" res="-6.4652286469936371e-02" rms="2.6035287976264954e-01" purity="1.3031135499477386e-01" nType="0">
          <Node pos="l" depth="2" NCoef="0" IVar="-1" Cut="0.0000000000000000e+00" cType="1" res="3.5095496568828821e-03" rms="3.6372727155685425e-01" purity="7.1113991737365723e-01" nType="-99"/>
          <Node pos="r" depth="2" NCoef="0" IVar="-1" Cut="0.0000000000000000e+00" cType="1" res="-1.3200509361922741e-02" rms="2.4655400216579437e-01" purity="8.8643573224544525e-02" nType="-99"/>
        </Node>
      </Node>
    </BinaryTree>
    <BinaryTree type="DecisionTree" boostWeight="1.0000000000000000e+00" itree="76">
      <Node pos="s" depth="0" NCoef="0" IVar="14" Cut="4.6395277976989746e+00" cType="1" res="5.8397892862558365e-02" rms="3.1493011116981506e-01" purity="5.6772583723068237e-01" nType="0">
        <Node pos="l" depth="1" NCoef="0" IVar="-1" Cut="0.0000000000000000e+00" cType="1" res="5.8426898904144764e-03" rms="2.9641324281692505e-01" purity="8.0746799707412720e-01" nType="-99"/>
        <Node pos="r" depth="1" NCoef="0" IVar="13" Cut="2.5055078506469727e+01" cType="0" res="-4.9846839159727097e-02" rms="3.1615135073661804e-01" purity="1.5804587304592133e-01" nType="0">
          <Node pos="l" depth="2" NCoef="0" IVar="-1" Cut="0.0000000000000000e+00" cType="1" res="4.9744774587452412e-03" rms="3.7957727909088135e-01" purity="2.9181343317031860e-01" nType="-99"/>
          <Node pos="r" depth="2" NCoef="0" IVar="-1" Cut="0.0000000000000000e+00" cType="1" res="-7.0993099361658096e-03" rms="3.0757144093513489e-01" purity="1.4725799858570099e-01" nType="-99"/>
        </Node>
      </Node>
    </BinaryTree>
    <BinaryTree type="DecisionTree" boostWeight="1.0000000000000000e+00" itree="77">
      <Node pos="s" depth="0" NCoef="0" IVar="12" Cut="3.5378956794738770e+00" cType="1" res="5.7636450976133347e-02" rms="3.1441909074783325e-01" purity="5.6772583723068237e-01" nType="0">
        <Node pos="l" depth="1" NCoef="0" IVar="-1" Cut="0.0000000000000000e+00" cType="1" res="5.7563707232475281e-03" rms="2.9936045408248901e-01" purity="7.8418511152267456e-01" nType="-99"/>
        <Node pos="r" depth="1" NCoef="0" IVar="13" Cut="1.7188949584960938e+01" cType="0" res="-5.5324912071228027e-02" rms="3.1140637397766113e-01" purity="1.5594999492168427e-01" nType="0">
          <Node pos="l" depth="2" NCoef="0" IVar="-1" Cut="0.0000000000000000e+00" cType="1" res="4.2897048406302929e-03" rms="3.5406363010406494e-01" purity="2.2165234386920929e-01" nType="-99"/>
          <Node pos="r" depth="2" NCoef="0" IVar="-1" Cut="0.0000000000000000e+00" cType="1" res="-8.6266389116644859e-03" rms="2.9964065551757812e-01" purity="1.4514888823032379e-01" nType="-99"/>
        </Node>
      </Node>
    </BinaryTree>
    <BinaryTree type="DecisionTree" boostWeight="1.0000000000000000e+00" itree="78">
      <Node pos="s" depth="0" NCoef="0" IVar="2" Cut="9.9899182096123695e-03" cType="1" res="5.6880448013544083e-02" rms="3.1385642290115356e-01" purity="5.6772583723068237e-01" nType="0">
        <Node pos="l" depth="1" NCoef="0" IVar="-1" Cut="0.0000000000000000e+00" cType="1" res="5.7069081813097000e-03" rms="3.1712710857391357e-01" purity="7.8355515003204346e-01" nType="-99"/>
        <Node pos="r" depth="1" NCoef="0" IVar="4" Cut="8.0182659626007080e-01" cType="0" res="-5.2604448050260544e-02" rms="2.7606186270713806e-01" purity="1.7013423144817352e-01" nType="0">
          <Node pos="l" depth="2" NCoef="0" IVar="-1" Cut="0.0000000000000000e+00" cType="1" res="2.8618532232940197e-03" rms="3.7219345569610596e-01" purity="6.4168196916580200e-01" nType="-99"/>
          <Node pos="r" depth="2" NCoef="0" IVar="-1" Cut="0.0000000000000000e+00" cType="1" res="-1.0735397227108479e-02" rms="2.5449326634407043e-01" purity="1.0493291914463043e-01" nType="-99"/>
        </Node>
      </Node>
    </BinaryTree>
    <BinaryTree type="DecisionTree" boostWeight="1.0000000000000000e+00" itree="79">
      <Node pos="s" depth="0" NCoef="0" IVar="14" Cut="2.3197638988494873e+00" cType="1" res="5.6191969662904739e-02" rms="3.1327590346336365e-01" purity="5.6772583723068237e-01" nType="0">
        <Node pos="l" depth="1" NCoef="0" IVar="-1" Cut="0.0000000000000000e+00" cType="1" res="6.6708400845527649e-03" rms="2.6390880346298218e-01" purity="8.7402516603469849e-01" nType="-99"/>
        <Node pos="r" depth="1" NCoef="0" IVar="9" Cut="8.7011978030204773e-03" cType="1" res="-2.0281029865145683e-02" rms="3.3479672670364380e-01" purity="2.8647175431251526e-01" nType="0">
          <Node pos="l" depth="2" NCoef="0" IVar="-1" Cut="0.0000000000000000e+00" cType="1" res="2.9185956809669733e-03" rms="3.9807018637657166e-01" purity="5.6822597980499268e-01" nType="-99"/>
          <Node pos="r" depth="2" NCoef="0" IVar="-1" Cut="0.0000000000000000e+00" cType="1" res="-5.8085559867322445e-03" rms="3.0620715022087097e-01" purity="1.9621320068836212e-01" nType="-99"/>
        </Node>
      </Node>
    </BinaryTree>
    <BinaryTree type="DecisionTree" boostWeight="1.0000000000000000e+00" itree="80">
      <Node pos="s" depth="0" NCoef="0" IVar="12" Cut="1.9297612905502319e+00" cType="1" res="5.5519975721836090e-02" rms="3.1278821825981140e-01" purity="5.6772583723068237e-01" nType="0">
        <Node pos="l" depth="1" NCoef="0" IVar="-1" Cut="0.0000000000000000e+00" cType="1" res="6.2988302670419216e-03" rms="2.7820432186126709e-01" purity="8.4102505445480347e-01" nType="-99"/>
        <Node pos="r" depth="1" NCoef="0" IVar="1" Cut="9.0604692697525024e-01" cType="0" res="-2.8196463361382484e-02" rms="3.2814961671829224e-01" purity="2.5931453704833984e-01" nType="0">
          <Node pos="l" depth="2" NCoef="0" IVar="-1" Cut="0.0000000000000000e+00" cType="1" res="2.0650469232350588e-03" rms="3.8521292805671692e-01" purity="5.1684731245040894e-01" nType="-99"/>
          <Node pos="r" depth="2" NCoef="0" IVar="-1" Cut="0.0000000000000000e+00" cType="1" res="-8.5370503365993500e-03" rms="2.9346293210983276e-01" purity="1.4438633620738983e-01" nType="-99"/>
        </Node>
      </Node>
    </BinaryTree>
    <BinaryTree type="DecisionTree" boostWeight="1.0000000000000000e+00" itree="81">
      <Node pos="s" depth="0" NCoef="0" IVar="6" Cut="9.2506295442581177e-01" cType="0" res="5.4893471300601959e-02" rms="3.1225413084030151e-01" purity="5.6772583723068237e-01" nType="0">
        <Node pos="l" depth="1" NCoef="0" IVar="-1" Cut="0.0000000000000000e+00" cType="1" res="5.1871621981263161e-03" rms="3.2174295186996460e-01" purity="7.6267480850219727e-01" nType="-99"/>
        <Node pos="r" depth="1" NCoef="0" IVar="4" Cut="8.0488729476928711e-01" cType="0" res="-6.4285159111022949e-02" rms="2.5122177600860596e-01" purity="1.0929229855537415e-01" nType="0">
          <Node pos="l" depth="2" NCoef="0" IVar="-1" Cut="0.0000000000000000e+00" cType="1" res="1.9708173349499702e-03" rms="3.9056900143623352e-01" purity="5.5187368392944336e-01" nType="-99"/>
          <Node pos="r" depth="2" NCoef="0" IVar="-1" Cut="0.0000000000000000e+00" cType="1" res="-1.6740655526518822e-02" rms="2.2954957187175751e-01" purity="6.5357722342014313e-02" nType="-99"/>
        </Node>
      </Node>
    </BinaryTree>
    <BinaryTree type="DecisionTree" boostWeight="1.0000000000000000e+00" itree="82">
      <Node pos="s" depth="0" NCoef="0" IVar="14" Cut="4.6395277976989746e+00" cType="1" res="5.4436989128589630e-02" rms="3.1159204244613647e-01" purity="5.6772583723068237e-01" nType="0">
        <Node pos="l" depth="1" NCoef="0" IVar="-1" Cut="0.0000000000000000e+00" cType="1" res="5.6023416109383106e-03" rms="2.9354882240295410e-01" purity="8.0746799707412720e-01" nType="-99"/>
        <Node pos="r" depth="1" NCoef="0" IVar="13" Cut="2.5055078506469727e+01" cType="0" res="-4.6209663152694702e-02" rms="3.1573757529258728e-01" purity="1.5804587304592133e-01" nType="0">
          <Node pos="l" depth="2" NCoef="0" IVar="-1" Cut="0.0000000000000000e+00" cType="1" res="5.0190207548439503e-03" rms="3.7814912199974060e-01" purity="2.9181343317031860e-01" nType="-99"/>
          <Node pos="r" depth="2" NCoef="0" IVar="-1" Cut="0.0000000000000000e+00" cType="1" res="-6.7453333176672459e-03" rms="3.0738955736160278e-01" purity="1.4725799858570099e-01" nType="-99"/>
        </Node>
      </Node>
    </BinaryTree>
    <BinaryTree type="DecisionTree" boostWeight="1.0000000000000000e+00" itree="83">
      <Node pos="s" depth="0" NCoef="0" IVar="12" Cut="3.5378956794738770e+00" cType="1" res="5.3721483796834946e-02" rms="3.1114420294761658e-01" purity="5.6772583723068237e-01" nType="0">
        <Node pos="l" depth="1" NCoef="0" IVar="-1" Cut="0.0000000000000000e+00" cType="1" res="5.4933675564825535e-03" rms="2.9712235927581787e-01" purity="7.8418511152267456e-01" nType="-99"/>
        <Node pos="r" depth="1" NCoef="0" IVar="13" Cut="1.7188949584960938e+01" cType="0" res="-5.0503097474575043e-02" rms="3.1058436632156372e-01" purity="1.5594999492168427e-01" nType="0">
          <Node pos="l" depth="2" NCoef="0" IVar="-1" Cut="0.0000000000000000e+00" cType="1" res="4.4835368171334267e-03" rms="3.5295534133911133e-01" purity="2.2165234386920929e-01" nType="-99"/>
          <Node pos="r" depth="2" NCoef="0" IVar="-1" Cut="0.0000000000000000e+00" cType="1" res="-8.1516774371266365e-03" rms="2.9905617237091064e-01" purity="1.4514888823032379e-01" nType="-99"/>
        </Node>
      </Node>
    </BinaryTree>
    <BinaryTree type="DecisionTree" boostWeight="1.0000000000000000e+00" itree="84">
      <Node pos="s" depth="0" NCoef="0" IVar="14" Cut="2.3197638988494873e+00" cType="1" res="5.3007118403911591e-02" rms="3.1065857410430908e-01" purity="5.6772583723068237e-01" nType="0">
        <Node pos="l" depth="1" NCoef="0" IVar="-1" Cut="0.0000000000000000e+00" cType="1" res="6.4539709128439426e-03" rms="2.6230284571647644e-01" purity="8.7402516603469849e-01" nType="-99"/>
        <Node pos="r" depth="1" NCoef="0" IVar="1" Cut="9.3903988599777222e-01" cType="0" res="-1.8796268850564957e-02" rms="3.3343476057052612e-01" purity="2.8647175431251526e-01" nType="0">
          <Node pos="l" depth="2" NCoef="0" IVar="-1" Cut="0.0000000000000000e+00" cType="1" res="2.9127215966582298e-03" rms="3.8142687082290649e-01" purity="6.0906910896301270e-01" nType="-99"/>
          <Node pos="r" depth="2" NCoef="0" IVar="-1" Cut="0.0000000000000000e+00" cType="1" res="-5.3559560328722000e-03" rms="3.1249797344207764e-01" purity="1.8850378692150116e-01" nType="-99"/>
        </Node>
      </Node>
    </BinaryTree>
